~o
<STREAMINFO> 1 39
<VECSIZE> 39<NULLD><MFCC_E_D_A_Z><DIAGC>
~s "silst"
<NUMMIXES> 3
<MIXTURE> 1 2.944426e-01
<MEAN> 39
 5.558469e+00 4.862502e+00 4.642663e+00 -1.664824e+00 -2.831726e+00 -3.014855e+00 -3.723227e+00 -3.064110e+00 -5.864380e-01 -1.676804e+00 -2.000944e+00 -1.060602e+00 7.663315e-01 -5.721496e-01 6.600847e-01 1.304245e+00 2.042403e+00 1.279784e+00 1.332674e+00 2.387278e-02 2.699649e-01 -1.212573e-01 2.216892e-01 3.827066e-01 2.747565e-01 -6.174240e-02 -7.591922e-01 -5.396754e-01 -3.899442e-01 3.483399e-01 4.051788e-01 4.631501e-01 5.111555e-01 5.051535e-01 1.475261e-01 2.295656e-01 2.919858e-01 1.670271e-01 -2.200918e-02
<VARIANCE> 39
 1.671461e+01 4.120937e+01 2.873100e+01 3.783562e+01 3.284639e+01 3.964497e+01 5.044325e+01 4.240712e+01 4.481467e+01 4.487994e+01 3.621348e+01 4.056751e+01 1.253565e-02 2.202560e+00 2.373181e+00 2.183927e+00 2.795574e+00 2.862446e+00 3.562783e+00 3.704894e+00 3.709725e+00 3.686355e+00 3.627747e+00 3.092987e+00 3.050051e+00 1.148291e-03 2.705842e-01 3.543853e-01 4.305041e-01 5.927025e-01 5.205966e-01 5.906609e-01 7.239984e-01 7.248175e-01 7.735532e-01 7.079331e-01 6.023256e-01 5.941456e-01 1.540170e-04
<GCONST> 1.010943e+02
<MIXTURE> 2 4.296537e-01
<MEAN> 39
 1.145302e+00 -1.644235e+00 7.734950e-01 -2.308100e+00 -1.069204e+00 2.043078e-01 1.544010e+00 2.716466e-01 1.522546e+00 1.485675e+00 8.194306e-01 8.163113e-01 6.316999e-01 -1.335617e-01 7.121357e-01 1.147544e-01 -6.200798e-01 -3.315795e-01 5.366530e-02 -3.731756e-01 -1.857641e-01 1.527021e-01 -3.214319e-03 -5.265956e-02 2.369686e-02 9.706363e-04 -6.466683e-02 1.151059e-01 -3.197393e-02 2.770202e-01 1.620759e-01 -4.249959e-02 -1.000588e-01 5.865773e-02 -1.201887e-01 -1.504817e-01 -7.077021e-02 -3.435594e-02 1.007442e-03
<VARIANCE> 39
 3.313206e+01 7.356293e+01 5.472660e+01 5.942768e+01 5.250733e+01 6.022513e+01 6.773423e+01 6.320840e+01 5.481000e+01 5.566587e+01 6.008191e+01 5.308520e+01 9.202879e-02 2.822110e+00 4.804815e+00 5.105222e+00 4.990659e+00 3.918739e+00 5.191666e+00 5.633844e+00 5.461141e+00 5.600026e+00 4.920000e+00 4.922577e+00 4.516827e+00 5.183629e-03 4.024310e-01 5.341276e-01 7.463317e-01 9.513302e-01 8.199809e-01 9.363477e-01 9.627439e-01 1.023917e+00 9.616848e-01 9.237229e-01 9.234540e-01 8.317633e-01 7.179175e-04
<GCONST> 1.213491e+02
<MIXTURE> 3 2.758943e-01
<MEAN> 39
 6.699759e-01 3.998451e+00 6.870110e+00 5.541217e+00 2.806482e+00 2.984733e+00 -9.313766e-01 -5.665830e-01 -6.139688e-01 -5.101468e-01 6.200526e-02 1.310978e-01 5.328520e-01 -2.666201e+00 -1.425543e+00 -7.720302e-01 1.153251e+00 1.241830e+00 1.807342e+00 1.392307e+00 1.764910e+00 9.907913e-01 9.911895e-01 1.117933e+00 6.439675e-01 -1.109387e-01 -2.767203e-01 -3.946223e-01 -7.582737e-01 -6.925222e-01 -3.970036e-01 -3.106087e-01 1.872732e-01 3.102868e-01 3.632538e-01 2.178431e-01 9.927630e-02 2.875252e-02 2.232668e-03
<VARIANCE> 39
 2.878373e+01 4.327829e+01 2.398237e+01 2.962963e+01 2.790421e+01 4.087579e+01 4.128365e+01 4.240150e+01 3.758350e+01 3.508035e+01 3.131336e+01 2.883649e+01 2.488455e-02 2.083228e+00 2.441453e+00 3.114468e+00 3.159659e+00 3.051869e+00 3.706829e+00 4.013109e+00 4.104526e+00 3.678579e+00 4.186286e+00 3.298837e+00 3.051080e+00 2.394103e-03 4.365270e-01 5.507452e-01 3.970950e-01 4.576343e-01 4.649945e-01 6.776242e-01 6.661796e-01 7.435592e-01 6.849431e-01 6.389025e-01 5.510504e-01 5.225362e-01 5.411597e-04
<GCONST> 1.037421e+02
~h "#i"
<BEGINHMM>
<NUMSTATES> 5
<STATE> 2
<NUMMIXES> 2
<MIXTURE> 1 4.512077e-01
<MEAN> 39
 -8.686883e-01 1.141963e+01 -4.094235e+00 -2.601834e+00 -6.576096e+00 -6.063750e+00 -3.909538e+00 -1.706228e+00 -1.915122e+00 -1.137854e+00 -7.002060e-01 1.764976e+00 8.346713e-01 1.445781e-02 4.836351e-01 4.512590e-02 5.038399e-01 -1.708717e-01 1.428468e-01 -1.477240e-01 -8.610229e-02 -3.622405e-03 1.664334e-01 2.505262e-01 4.819999e-01 8.813816e-03 1.231534e-01 -1.531305e-02 1.476728e-01 -4.451629e-03 1.999069e-01 1.258006e-01 1.774166e-01 2.291844e-01 2.456077e-01 1.405412e-01 9.230932e-02 1.194772e-02 -1.804201e-03
<VARIANCE> 39
 1.714002e+01 2.865377e+01 2.890706e+01 2.368876e+01 2.474035e+01 2.869182e+01 3.987621e+01 3.612382e+01 5.303667e+01 5.923805e+01 8.028082e+01 7.951604e+01 9.877359e-03 6.283586e-01 9.756078e-01 9.283350e-01 1.322889e+00 1.361549e+00 1.535528e+00 1.937557e+00 1.783988e+00 2.024393e+00 2.404160e+00 2.886005e+00 3.372152e+00 3.851069e-04 1.028756e-01 1.310421e-01 1.779117e-01 2.595631e-01 2.624093e-01 3.303146e-01 3.104321e-01 3.327048e-01 3.713659e-01 4.372326e-01 5.206260e-01 5.166476e-01 5.516429e-05
<GCONST> 8.309337e+01
<MIXTURE> 2 5.487856e-01
<MEAN> 39
 2.627591e-01 1.266393e+01 -7.946540e-01 -2.764806e+00 -4.303030e+00 -4.940087e+00 -3.547467e+00 1.558894e+00 -3.670475e-01 8.787519e-03 8.834735e-02 7.148280e-01 7.779117e-01 -4.617669e-01 9.079130e-01 -6.240132e-01 3.609159e-01 -5.767618e-01 -5.355221e-01 -9.542547e-01 -7.461976e-01 -7.696270e-01 -7.983296e-01 -2.568995e-01 -2.762713e-01 1.690489e-02 1.316213e-02 -4.383562e-01 1.931202e-02 1.043639e-02 -9.473070e-02 1.263054e-01 3.989612e-02 -1.036327e-01 -1.251756e-01 -5.042616e-02 -1.023427e-01 -5.939754e-02 -3.661687e-04
<VARIANCE> 39
 1.243252e+01 3.353624e+01 2.168483e+01 2.780105e+01 1.995376e+01 2.424868e+01 4.995636e+01 2.681272e+01 2.862585e+01 2.861315e+01 3.554951e+01 3.576155e+01 1.228082e-02 6.505569e-01 2.126708e+00 1.082595e+00 1.938878e+00 1.675707e+00 2.108387e+00 1.796324e+00 2.160851e+00 2.086030e+00 2.441887e+00 3.210485e+00 2.275707e+00 7.220162e-04 1.252519e-01 2.472545e-01 2.064721e-01 3.567282e-01 3.476862e-01 3.904498e-01 3.728767e-01 3.662710e-01 3.751699e-01 3.933574e-01 3.978052e-01 4.051754e-01 1.460889e-04
<GCONST> 8.437682e+01
<STATE> 3
<NUMMIXES> 2
<MIXTURE> 1 4.649119e-01
<MEAN> 39
 -9.711323e-01 1.166615e+01 -2.851547e+00 -1.619349e+00 -5.953245e+00 -5.535093e+00 -5.588451e+00 -1.551364e+00 -2.727025e+00 -2.531144e+00 -1.355158e+00 -2.336663e-01 8.886202e-01 1.632904e-01 1.741530e-01 2.122328e-01 2.479827e-01 3.178087e-01 2.092763e-01 2.761475e-01 2.156887e-01 3.579366e-01 2.360356e-01 2.240589e-01 9.976842e-02 8.092315e-04 5.609471e-02 -1.736854e-02 8.212738e-02 -8.697673e-03 1.395369e-01 4.181789e-02 1.253125e-01 7.356706e-02 1.128782e-01 1.072109e-01 5.404593e-02 3.846080e-02 -2.195735e-03
<VARIANCE> 39
 1.188448e+01 4.591406e+01 1.943955e+01 1.600668e+01 2.137426e+01 2.616296e+01 3.380330e+01 2.756754e+01 2.763356e+01 2.998244e+01 4.606254e+01 3.841198e+01 6.003116e-03 2.040119e-01 3.386672e-01 4.639757e-01 6.123081e-01 7.137362e-01 7.524495e-01 8.893743e-01 8.482262e-01 8.454955e-01 8.243404e-01 8.200462e-01 7.694510e-01 9.317803e-05 4.142051e-02 7.642352e-02 1.089713e-01 1.240181e-01 1.515701e-01 1.583354e-01 1.850049e-01 1.919694e-01 1.773738e-01 1.553114e-01 1.713161e-01 1.534352e-01 9.738081e-06
<GCONST> 5.513207e+01
<MIXTURE> 2 5.350768e-01
<MEAN> 39
 -1.250926e+00 1.214300e+01 -1.613039e+00 -1.103326e+00 -4.207344e+00 -4.604893e+00 -5.141230e+00 -4.996938e-01 -1.621739e+00 -1.915713e+00 3.780180e-01 2.796218e-01 8.909311e-01 -4.403163e-02 -8.686460e-02 -1.528351e-01 -1.450312e-01 -9.750017e-02 -2.063586e-01 -9.766646e-02 -1.894417e-01 -7.403404e-02 -1.144583e-01 -1.029309e-01 -1.472562e-01 2.014809e-04 -1.453073e-02 -6.115836e-02 -2.615115e-02 -9.391719e-02 -3.494013e-02 -6.682425e-02 -2.360598e-02 -3.412966e-02 -2.265046e-02 -2.944095e-02 -3.658015e-02 -3.783523e-02 -1.058412e-03
<VARIANCE> 39
 1.000609e+01 4.731037e+01 1.393649e+01 1.292202e+01 1.661604e+01 2.160150e+01 3.140694e+01 1.954191e+01 2.303582e+01 2.966878e+01 4.074068e+01 3.491933e+01 6.563352e-03 1.024318e-01 2.012411e-01 2.623773e-01 3.423269e-01 3.948884e-01 4.176112e-01 4.589521e-01 4.737405e-01 4.734491e-01 4.551979e-01 4.324873e-01 4.416150e-01 3.754082e-05 1.631891e-02 3.164955e-02 4.474460e-02 5.498913e-02 6.710867e-02 7.192121e-02 7.893727e-02 8.217485e-02 8.293976e-02 8.000912e-02 7.239727e-02 7.778102e-02 3.730629e-06
<GCONST> 3.445297e+01
<STATE> 4
<NUMMIXES> 2
<MIXTURE> 1 4.536197e-01
<MEAN> 39
 -2.261665e-01 1.100175e+01 8.504721e-02 -5.806537e+00 -2.198195e+00 -6.160203e+00 -4.831276e+00 -2.177855e-01 -9.199728e-01 -2.146065e+00 7.595546e-04 -2.243897e+00 8.288330e-01 8.443279e-01 -9.794716e-01 1.201147e+00 2.205939e-01 8.890694e-01 1.224268e+00 7.788212e-01 4.272587e-01 1.973576e-01 2.100067e-01 -1.818376e-01 -8.465901e-02 -2.793836e-02 1.869410e-02 -9.722181e-02 6.421158e-02 6.840518e-01 5.396942e-04 4.162881e-01 1.061132e-01 -3.539063e-02 -8.447224e-03 7.786489e-03 3.967538e-02 1.591364e-01 -9.173281e-03
<VARIANCE> 39
 1.532010e+01 3.569555e+01 2.629928e+01 3.749342e+01 2.312463e+01 2.885194e+01 3.513668e+01 2.825879e+01 2.690156e+01 2.646362e+01 3.350156e+01 3.296923e+01 8.085253e-03 7.992322e-01 1.720356e+00 2.064754e+00 2.503286e+00 2.368352e+00 2.344652e+00 3.004154e+00 2.506178e+00 2.359691e+00 2.424614e+00 3.489454e+00 2.941679e+00 4.210512e-04 1.995534e-01 1.831350e-01 3.232374e-01 4.017782e-01 3.885391e-01 4.392526e-01 3.957682e-01 4.068356e-01 3.782610e-01 3.507337e-01 3.813552e-01 3.768932e-01 1.046775e-04
<GCONST> 8.696146e+01
<MIXTURE> 2 5.463761e-01
<MEAN> 39
 -1.410267e-01 1.282547e+01 -4.086583e+00 -1.757316e+00 -5.072276e+00 -6.752279e+00 -3.827709e+00 -1.812406e+00 5.896071e-01 -4.552248e-01 2.917033e-01 1.856218e+00 8.758654e-01 -2.944040e-02 -5.682445e-01 2.833609e-01 -8.901730e-01 5.503694e-01 -4.182094e-01 1.756249e-01 1.307511e-03 7.971944e-02 5.992950e-02 -2.246828e-02 -2.864226e-01 -6.413119e-03 9.652747e-02 -2.350026e-01 2.560671e-01 -1.082171e-01 9.700403e-02 1.484630e-01 1.116681e-02 9.750518e-02 -1.084870e-01 -3.551964e-02 -8.515635e-02 -1.176742e-01 -4.371449e-03
<VARIANCE> 39
 2.206511e+01 3.325977e+01 2.818581e+01 2.447058e+01 2.457959e+01 2.933637e+01 3.689478e+01 3.202909e+01 4.109123e+01 5.284859e+01 6.466231e+01 7.431940e+01 6.658400e-03 5.793581e-01 8.392619e-01 1.285087e+00 1.779104e+00 1.511571e+00 1.601147e+00 1.901206e+00 1.703936e+00 1.740906e+00 1.826183e+00 1.974821e+00 2.009840e+00 1.263037e-04 1.105327e-01 1.546412e-01 2.504461e-01 2.524463e-01 3.025134e-01 3.751412e-01 3.635825e-01 3.517183e-01 3.108657e-01 3.800778e-01 3.570315e-01 3.751491e-01 2.435060e-05
<GCONST> 7.950771e+01
<TRANSP> 5
 0.000000e+00 1.000000e+00 0.000000e+00 0.000000e+00 0.000000e+00
 0.000000e+00 8.276203e-01 1.723797e-01 0.000000e+00 0.000000e+00
 0.000000e+00 0.000000e+00 9.059882e-01 9.401178e-02 0.000000e+00
 0.000000e+00 0.000000e+00 0.000000e+00 7.952974e-01 2.047026e-01
 0.000000e+00 0.000000e+00 0.000000e+00 0.000000e+00 0.000000e+00
<ENDHMM>
~h "#u"
<BEGINHMM>
<NUMSTATES> 5
<STATE> 2
<NUMMIXES> 2
<MIXTURE> 1 5.804177e-01
<MEAN> 39
 8.742764e+00 -3.753417e+00 -9.706244e+00 4.049729e-01 3.409950e+00 -4.164722e+00 -4.225907e+00 2.898956e-01 1.989742e+00 1.524096e+00 -3.503314e+00 -3.770486e+00 8.676545e-01 8.980798e-01 9.004416e-01 -4.267444e-01 -7.617673e-01 5.877431e-01 1.278152e+00 -2.278630e-01 -1.213334e+00 1.279195e-01 1.412094e+00 8.428456e-01 -3.258539e-01 -5.353673e-03 -1.559731e-01 1.907925e-02 3.341555e-01 -9.094844e-02 -3.987470e-01 1.529158e-01 4.763903e-01 -4.763411e-02 -4.814623e-01 -1.654011e-01 3.359784e-01 3.057634e-01 -1.648095e-03
<VARIANCE> 39
 1.958737e+01 3.218439e+01 2.974161e+01 2.813094e+01 2.688881e+01 3.651006e+01 3.231487e+01 4.474071e+01 3.175172e+01 4.025005e+01 4.207479e+01 3.781665e+01 6.434199e-03 5.262550e-01 8.358557e-01 1.393439e+00 1.638647e+00 2.404609e+00 2.157329e+00 3.126966e+00 2.824827e+00 3.301667e+00 2.623435e+00 3.041309e+00 3.177205e+00 2.794500e-04 6.454671e-02 1.162838e-01 2.026393e-01 3.077070e-01 3.245806e-01 4.774791e-01 4.409002e-01 6.271292e-01 4.471004e-01 5.824536e-01 5.080063e-01 4.493774e-01 3.608385e-05
<GCONST> 8.470217e+01
<MIXTURE> 2 4.195752e-01
<MEAN> 39
 3.454250e+00 -5.657949e+00 -3.020292e+00 -6.727712e-01 -5.368744e+00 -5.226225e+00 5.451518e-02 -8.684765e-01 -3.753778e+00 -2.844668e+00 -1.833153e+00 -8.147676e-01 9.038783e-01 1.278421e+00 -2.565094e-01 -1.140877e+00 1.055062e+00 5.925277e-01 -1.039399e+00 -3.132286e-01 1.003410e+00 3.076164e-01 -3.121973e-01 -4.204425e-01 -3.565076e-01 -6.110182e-03 8.566926e-02 3.444489e-01 -1.423896e-01 -1.559426e-01 5.556830e-01 1.856482e-01 -4.048555e-01 -1.250243e-01 4.592002e-01 2.690110e-01 -6.092934e-03 -2.654470e-02 -1.575852e-03
<VARIANCE> 39
 2.986493e+01 4.334788e+01 4.758737e+01 5.315451e+01 4.433185e+01 5.277747e+01 5.704568e+01 6.307082e+01 3.638964e+01 4.425832e+01 4.900443e+01 5.832428e+01 4.454699e-03 9.794569e-01 2.327262e+00 2.585065e+00 4.463349e+00 4.856188e+00 3.658282e+00 5.450214e+00 4.102161e+00 4.295422e+00 3.202350e+00 3.060242e+00 3.949616e+00 1.302227e-04 9.949708e-02 2.617736e-01 4.304092e-01 8.141773e-01 6.464224e-01 1.092133e+00 8.117691e-01 1.094326e+00 6.024520e-01 6.904714e-01 5.643079e-01 6.483337e-01 1.609505e-05
<GCONST> 9.989188e+01
<STATE> 3
<NUMMIXES> 2
<MIXTURE> 1 5.687671e-01
<MEAN> 39
 1.043610e+01 2.391910e+00 -7.567833e+00 -1.933172e+00 2.213495e+00 1.022844e+00 -4.328051e-01 -8.122836e-01 -3.208495e-01 3.507178e+00 2.860346e+00 5.039851e-01 8.106068e-01 1.604722e-01 3.130212e-01 2.160728e-01 -5.626460e-02 4.134773e-02 3.647320e-01 2.643439e-01 -4.466252e-03 8.579424e-03 8.972631e-02 3.272361e-01 2.997440e-01 -8.397231e-03 -5.211911e-02 -5.743349e-02 3.297197e-02 1.877080e-02 -2.664861e-03 -4.018796e-02 -5.502241e-02 1.672113e-02 2.049505e-02 -3.453851e-02 -1.059970e-01 -8.319103e-02 -7.760462e-04
<VARIANCE> 39
 2.242316e+01 2.565096e+01 2.840867e+01 1.915679e+01 2.301077e+01 1.899131e+01 2.074982e+01 2.071902e+01 2.453349e+01 2.565098e+01 2.423645e+01 2.452301e+01 1.276877e-02 1.930814e-01 4.089583e-01 5.748509e-01 6.164019e-01 6.463462e-01 8.278564e-01 9.706882e-01 1.015749e+00 1.126359e+00 1.105707e+00 1.260216e+00 1.151945e+00 1.310143e-04 2.713586e-02 5.605218e-02 8.844868e-02 1.031571e-01 1.080218e-01 1.465824e-01 1.695989e-01 1.882686e-01 1.882688e-01 2.024464e-01 2.074800e-01 1.760298e-01 1.430188e-05
<GCONST> 5.587529e+01
<MIXTURE> 2 4.312195e-01
<MEAN> 39
 1.157226e+01 3.983514e-01 -7.303241e+00 -2.826186e+00 8.802920e-01 1.122164e+00 -1.305541e+00 -2.478018e+00 -1.985632e+00 2.105456e+00 9.838567e-01 -1.813278e+00 8.222556e-01 -4.043190e-02 -8.137777e-02 1.412703e-01 3.471593e-01 1.441467e-01 -1.064039e-01 -2.827707e-01 1.492998e-01 3.614546e-01 1.683767e-01 -1.217924e-01 -2.700348e-01 -4.607491e-03 -9.389555e-02 -7.378785e-02 6.517543e-02 1.978207e-01 5.741501e-02 -2.364513e-01 -9.566928e-02 2.246380e-01 2.523443e-01 -2.753231e-02 -1.423597e-01 -1.711161e-02 -1.316180e-03
<VARIANCE> 39
 2.004703e+01 3.090790e+01 2.823757e+01 2.008476e+01 2.822130e+01 2.763443e+01 2.513190e+01 2.901222e+01 3.127224e+01 3.599459e+01 4.115886e+01 5.182129e+01 1.029688e-02 3.550724e-01 7.317637e-01 1.130519e+00 1.261211e+00 1.339653e+00 1.460614e+00 1.996498e+00 1.992804e+00 2.302148e+00 2.182513e+00 2.136756e+00 2.369991e+00 2.225261e-04 5.867062e-02 1.151078e-01 1.807344e-01 2.031296e-01 2.366934e-01 3.512970e-01 3.361550e-01 4.351190e-01 3.676822e-01 4.028927e-01 4.426171e-01 4.324245e-01 1.916753e-05
<GCONST> 7.656152e+01
<STATE> 4
<NUMMIXES> 2
<MIXTURE> 1 5.618749e-01
<MEAN> 39
 1.148907e+01 -8.190476e-01 -6.703913e+00 2.826342e+00 4.863353e+00 -3.060095e+00 -4.789401e+00 2.190460e+00 5.481718e+00 5.119878e+00 -1.389868e+00 -3.238661e+00 7.708582e-01 -9.976036e-01 -5.828364e-01 1.536861e+00 1.366126e+00 -8.494430e-01 -2.011344e+00 6.007294e-01 2.293100e+00 6.303127e-01 -1.389429e+00 -8.188433e-01 5.241489e-01 -8.017684e-03 -3.307854e-01 1.346507e-01 6.688389e-01 -2.888395e-01 -6.825178e-01 1.680998e-01 7.972199e-01 -1.429958e-01 -7.254963e-01 -3.684125e-01 3.869184e-01 3.483626e-01 -1.467637e-03
<VARIANCE> 39
 1.306440e+01 3.372367e+01 3.105949e+01 2.447672e+01 2.110730e+01 4.624162e+01 3.218557e+01 4.044370e+01 3.419372e+01 4.124104e+01 4.244827e+01 4.078912e+01 1.257532e-02 6.077824e-01 1.109984e+00 2.613877e+00 1.845946e+00 3.820320e+00 3.426017e+00 4.459487e+00 3.212590e+00 4.186676e+00 3.725952e+00 3.297725e+00 3.617854e+00 3.446462e-04 1.080054e-01 2.589888e-01 3.652838e-01 4.871400e-01 4.565758e-01 8.905033e-01 5.328892e-01 1.011276e+00 5.629947e-01 7.874080e-01 6.410173e-01 5.524967e-01 4.307285e-05
<GCONST> 9.372831e+01
<MIXTURE> 2 4.381219e-01
<MEAN> 39
 6.450270e+00 -2.412210e+00 3.852154e+00 3.497689e+00 -5.243343e+00 -7.844999e+00 3.770005e+00 5.733100e+00 6.955249e-01 2.121803e-02 1.424743e-01 -4.352690e-01 7.862203e-01 -1.717825e+00 1.248121e+00 3.091440e+00 -1.396062e+00 -1.704260e+00 1.551574e+00 1.274814e+00 -1.644621e+00 -8.479224e-01 1.383507e-01 6.355001e-01 1.291990e-01 -1.236194e-02 -7.929011e-02 6.107624e-01 -4.685608e-01 -3.584999e-01 1.009204e+00 9.396951e-01 -8.956858e-01 -7.373578e-01 4.196355e-01 3.684351e-01 -1.452657e-01 -2.186482e-01 -6.968446e-03
<VARIANCE> 39
 1.817377e+01 3.289960e+01 6.114255e+01 3.895476e+01 3.726970e+01 5.196205e+01 4.941179e+01 5.244153e+01 3.401497e+01 3.924409e+01 4.251396e+01 4.415281e+01 1.068229e-02 1.393795e+00 3.327193e+00 4.332497e+00 4.222721e+00 5.451635e+00 5.336238e+00 6.185882e+00 4.893879e+00 4.466026e+00 3.852449e+00 3.978019e+00 2.932397e+00 3.839996e-04 3.006200e-01 4.238824e-01 1.113750e+00 9.367704e-01 8.821977e-01 1.113488e+00 8.892854e-01 1.448639e+00 7.132276e-01 8.824492e-01 7.245643e-01 6.507394e-01 1.123974e-04
<GCONST> 1.080375e+02
<TRANSP> 5
 0.000000e+00 1.000000e+00 0.000000e+00 0.000000e+00 0.000000e+00
 0.000000e+00 8.188285e-01 1.811715e-01 0.000000e+00 0.000000e+00
 0.000000e+00 0.000000e+00 9.190807e-01 8.091926e-02 0.000000e+00
 0.000000e+00 0.000000e+00 0.000000e+00 7.544215e-01 2.455785e-01
 0.000000e+00 0.000000e+00 0.000000e+00 0.000000e+00 0.000000e+00
<ENDHMM>
~h "ba"
<BEGINHMM>
<NUMSTATES> 5
<STATE> 2
<NUMMIXES> 2
<MIXTURE> 1 6.234393e-01
<MEAN> 39
 -1.506529e+00 -9.414026e-02 2.167770e+00 1.438226e+00 3.654279e+00 4.113348e+00 3.822164e+00 4.663124e+00 3.986286e+00 2.246580e+00 2.353981e+00 5.897452e-01 1.355252e-01 -1.190004e-01 -1.035971e+00 -3.982718e-01 3.254823e-02 1.911160e-01 4.114328e-01 6.130278e-01 5.081319e-01 3.484315e-01 5.064427e-01 3.649691e-01 3.628270e-01 3.552542e-02 5.185972e-01 -2.141870e-01 -1.112761e-01 1.861386e-01 2.157741e-02 -2.905006e-01 -2.287185e-01 -3.923821e-01 -5.258483e-01 -1.154153e-01 -1.438323e-01 1.162477e-01 5.134566e-02
<VARIANCE> 39
 1.289430e+01 5.195354e+01 2.563155e+01 3.344496e+01 3.339872e+01 3.545752e+01 3.549721e+01 3.825543e+01 3.158485e+01 3.380362e+01 3.211318e+01 2.433496e+01 4.106947e-02 2.535961e+00 4.057737e+00 2.530154e+00 2.393712e+00 2.597046e+00 3.038501e+00 3.042946e+00 4.105685e+00 4.134944e+00 3.547798e+00 2.870292e+00 2.461480e+00 1.552411e-02 3.151048e-01 7.394790e-01 5.266259e-01 4.371419e-01 5.373425e-01 5.525880e-01 5.694953e-01 8.307807e-01 8.054456e-01 6.784651e-01 5.986896e-01 4.732186e-01 1.201085e-03
<GCONST> 1.053914e+02
<MIXTURE> 2 3.765558e-01
<MEAN> 39
 4.220556e+00 -6.667525e+00 -2.931691e+00 2.939479e+00 5.357462e+00 3.096537e+00 4.517409e+00 4.380705e+00 -1.036525e+00 1.796356e+00 3.359746e+00 3.925213e+00 8.136147e-01 1.861662e-01 -3.699216e+00 -2.198332e+00 1.107126e+00 7.482198e-01 -9.364681e-01 -5.271461e-01 -1.409721e+00 -2.573421e+00 7.861138e-02 -6.236014e-02 6.170574e-01 1.554799e-01 -8.140878e-01 5.133203e-02 3.880261e-01 1.351052e-01 -2.003141e-01 -3.949553e-01 -5.263861e-01 -6.147017e-01 -8.727956e-03 -9.213068e-02 -3.274390e-01 -4.425457e-01 -4.111776e-02
<VARIANCE> 39
 1.148300e+01 4.165875e+01 3.681302e+01 2.334266e+01 2.447988e+01 3.023651e+01 2.512929e+01 2.817984e+01 5.394426e+01 6.508347e+01 3.309453e+01 2.353781e+01 1.114120e-02 2.528313e+00 3.687390e+00 3.393687e+00 2.521233e+00 3.005392e+00 4.177325e+00 3.943578e+00 5.971581e+00 6.166173e+00 4.739797e+00 4.297700e+00 3.672724e+00 5.255550e-03 2.805240e-01 7.036394e-01 6.396435e-01 3.938209e-01 4.812250e-01 5.658110e-01 5.714723e-01 7.024534e-01 1.039095e+00 1.179772e+00 9.305992e-01 5.900760e-01 6.292395e-04
<GCONST> 1.060700e+02
<STATE> 3
<NUMMIXES> 2
<MIXTURE> 1 6.513867e-01
<MEAN> 39
 -2.504287e+00 -1.446639e+01 -2.973367e+00 6.234440e+00 4.328160e+00 -2.276084e+00 -9.111103e-01 -3.400559e+00 -4.814507e+00 1.074377e+00 2.954502e-02 1.280491e+00 9.514017e-01 -9.649020e-01 -3.910054e-01 7.866126e-01 5.560946e-01 -5.523825e-01 -9.255632e-01 -6.564066e-01 -7.982066e-01 -5.689424e-02 -2.672838e-01 -3.759978e-01 -6.162291e-01 7.874197e-03 3.813416e-01 5.656164e-01 2.284688e-01 -1.474125e-01 -5.535671e-02 3.065506e-01 3.829034e-01 4.685569e-01 4.113375e-01 1.416728e-01 2.240880e-01 1.270801e-01 -1.240016e-02
<VARIANCE> 39
 1.308771e+01 2.945040e+01 4.218935e+01 2.454286e+01 2.583658e+01 2.765861e+01 2.454067e+01 2.825741e+01 5.140112e+01 2.630950e+01 3.546703e+01 3.353604e+01 1.846374e-03 4.865765e-01 5.208954e-01 9.014216e-01 1.060883e+00 1.583455e+00 1.341923e+00 1.499504e+00 2.034598e+00 1.683366e+00 3.260409e+00 2.059164e+00 1.363502e+00 1.347251e-04 1.172008e-01 1.481939e-01 2.239023e-01 2.027134e-01 2.652156e-01 3.087168e-01 3.150850e-01 3.349342e-01 3.966776e-01 3.802763e-01 4.880670e-01 3.732537e-01 1.022451e-04
<GCONST> 7.527921e+01
<MIXTURE> 2 3.486115e-01
<MEAN> 39
 2.144149e-01 -1.402651e+01 -2.208456e+00 5.421584e+00 5.798789e+00 1.541611e+00 1.964404e+00 -2.232562e+00 -1.860773e+00 5.716239e+00 1.902735e+00 3.781430e+00 9.224991e-01 -2.233045e+00 -2.468398e+00 2.167674e-01 7.887999e-01 -6.180136e-01 -1.876224e+00 -1.915441e+00 -2.259562e+00 -8.802915e-01 -1.017452e+00 -1.818949e+00 -9.076811e-01 4.496437e-02 -2.975109e-01 1.201513e+00 7.766117e-01 -1.659032e-01 -3.412175e-01 -6.406153e-03 -7.618129e-03 4.992575e-01 4.913134e-01 -5.244341e-01 -1.278991e-01 -4.102026e-01 -4.599090e-02
<VARIANCE> 39
 1.308816e+01 2.884933e+01 2.870918e+01 2.534520e+01 1.767428e+01 3.111027e+01 2.409649e+01 3.442075e+01 7.018327e+01 4.184470e+01 2.755735e+01 2.988261e+01 2.652664e-03 1.002739e+00 2.042101e+00 1.774688e+00 1.709415e+00 2.392278e+00 2.334250e+00 2.529442e+00 3.169511e+00 3.176814e+00 4.441509e+00 5.038267e+00 4.817073e+00 1.086079e-03 2.926083e-01 3.123814e-01 3.299970e-01 3.660894e-01 3.104045e-01 5.677794e-01 5.451736e-01 7.901531e-01 1.097829e+00 7.725941e-01 5.416620e-01 5.100765e-01 3.059356e-04
<GCONST> 9.400935e+01
<STATE> 4
<NUMMIXES> 2
<MIXTURE> 1 5.816749e-01
<MEAN> 39
 -2.223193e+00 -1.241489e+01 -1.370754e+00 6.749270e+00 2.994991e+00 -3.355510e+00 -4.267989e-01 -3.149545e+00 -4.788048e+00 3.379342e-01 -1.183081e-02 -2.030277e-01 9.289930e-01 1.357133e-01 1.709826e-01 2.478935e-01 1.085597e-01 -9.630694e-02 1.196384e-01 5.414297e-02 6.935024e-03 1.178674e-01 3.819899e-02 -3.897995e-02 2.167899e-02 -4.351588e-03 7.873506e-02 7.170445e-02 -1.326701e-02 -5.310815e-02 3.366027e-02 1.246306e-01 5.127679e-02 4.637919e-02 1.019027e-02 -4.265782e-04 5.584907e-03 5.658978e-02 -1.054140e-03
<VARIANCE> 39
 1.196639e+01 3.291356e+01 3.216652e+01 2.479622e+01 3.346454e+01 2.082933e+01 2.043824e+01 2.282655e+01 2.529384e+01 2.366847e+01 2.630569e+01 1.894789e+01 3.507827e-03 1.473341e-01 1.736950e-01 2.734139e-01 3.628681e-01 3.945985e-01 5.124222e-01 4.683921e-01 5.364310e-01 5.453995e-01 5.134439e-01 4.553757e-01 4.111623e-01 4.776122e-05 2.224308e-02 2.912325e-02 4.464068e-02 6.306297e-02 7.786999e-02 8.036517e-02 8.078080e-02 9.189256e-02 9.412663e-02 1.004805e-01 8.065476e-02 7.198189e-02 4.981737e-06
<GCONST> 3.691585e+01
<MIXTURE> 2 4.183173e-01
<MEAN> 39
 -3.792660e+00 -1.310378e+01 3.444984e+00 6.311180e+00 -1.214847e-01 -2.206761e+00 -1.497355e+00 -4.374290e+00 -1.428011e+00 -1.951454e-01 -1.765776e+00 8.282106e-01 9.146780e-01 7.738676e-02 3.099313e-01 -1.158863e-01 -5.976999e-01 -2.328847e-01 1.694993e-01 -2.863488e-01 -3.419255e-01 -1.462036e-01 -3.613705e-01 -8.691813e-03 -1.040802e-01 -5.028961e-03 9.114544e-02 8.916697e-02 -1.385453e-01 -2.077893e-01 3.025574e-03 2.753425e-02 -2.713475e-02 -5.164153e-02 -1.801368e-02 -2.798018e-02 1.712459e-02 -1.467068e-02 -1.315548e-03
<VARIANCE> 39
 1.598549e+01 3.538871e+01 3.835798e+01 2.600660e+01 2.811241e+01 2.986250e+01 3.044179e+01 3.322165e+01 3.682382e+01 2.892674e+01 3.830907e+01 4.466831e+01 4.562776e-03 3.763005e-01 6.986738e-01 1.095566e+00 1.368244e+00 1.593987e+00 1.769727e+00 1.757033e+00 1.573279e+00 1.351252e+00 1.372819e+00 1.404585e+00 1.153449e+00 5.150480e-05 6.831216e-02 1.226851e-01 1.659429e-01 1.941247e-01 2.306910e-01 2.685570e-01 2.918138e-01 2.660692e-01 2.696912e-01 2.563124e-01 2.361946e-01 1.963598e-01 6.295365e-06
<GCONST> 6.867514e+01
<TRANSP> 5
 0.000000e+00 1.000000e+00 0.000000e+00 0.000000e+00 0.000000e+00
 0.000000e+00 8.211411e-01 1.788588e-01 0.000000e+00 0.000000e+00
 0.000000e+00 0.000000e+00 7.345079e-01 2.654921e-01 0.000000e+00
 0.000000e+00 0.000000e+00 0.000000e+00 9.268678e-01 7.313225e-02
 0.000000e+00 0.000000e+00 0.000000e+00 0.000000e+00 0.000000e+00
<ENDHMM>
~h "qi"
<BEGINHMM>
<NUMSTATES> 5
<STATE> 2
<NUMMIXES> 2
<MIXTURE> 1 7.938283e-01
<MEAN> 39
 -1.158418e+01 7.785944e-02 -1.758329e+00 7.657139e+00 4.499425e+00 7.522405e+00 6.045137e+00 6.014477e+00 4.336602e+00 3.984888e+00 3.547908e+00 1.857215e+00 3.754623e-01 -7.059209e-01 4.096111e-01 -4.680184e-01 6.169404e-03 2.830280e-01 3.687086e-02 2.579086e-01 1.544781e-01 1.219850e-01 -5.930296e-02 7.305388e-02 -8.188633e-02 2.096675e-02 3.681472e-01 1.205196e-01 1.959255e-01 -1.539821e-01 -1.065686e-01 -1.958345e-01 -1.993119e-01 -1.806426e-01 -9.299396e-02 -1.147998e-01 -5.828732e-02 -2.976453e-02 3.991091e-03
<VARIANCE> 39
 2.317360e+01 3.346000e+01 3.001040e+01 2.173907e+01 2.364690e+01 2.775751e+01 2.606203e+01 3.166181e+01 2.629398e+01 2.839645e+01 3.130169e+01 2.901680e+01 2.597514e-02 1.457499e+00 1.379540e+00 1.388808e+00 1.635947e+00 1.647605e+00 1.803086e+00 2.082428e+00 2.181429e+00 2.287568e+00 2.274169e+00 1.984511e+00 1.890048e+00 9.796860e-04 1.945641e-01 3.339379e-01 2.654413e-01 3.001706e-01 3.518167e-01 4.102636e-01 4.769960e-01 4.723933e-01 4.945809e-01 4.940763e-01 4.405046e-01 4.085180e-01 3.421182e-04
<GCONST> 8.816051e+01
<MIXTURE> 2 2.061672e-01
<MEAN> 39
 -1.227637e+01 3.078605e+00 -2.777379e+00 6.418249e+00 5.265406e+00 6.422585e+00 6.210648e+00 5.655856e+00 4.537766e+00 2.656318e+00 3.668094e+00 1.018636e+00 4.664505e-01 2.272196e+00 2.055029e+00 8.491874e-01 -1.408761e+00 -1.885949e+00 -2.530717e+00 -2.391735e+00 -1.534297e+00 -6.654986e-01 -6.235181e-01 -1.812152e-01 -1.169460e-01 6.370779e-02 8.446305e-01 5.060970e-01 1.326262e-01 -7.647477e-01 -9.003701e-01 -9.297575e-01 -8.906416e-01 -4.550023e-01 -2.542230e-01 -2.378894e-01 -1.241892e-01 -2.648956e-02 2.822577e-02
<VARIANCE> 39
 1.715593e+01 2.608701e+01 2.267992e+01 2.167535e+01 2.036030e+01 3.271609e+01 2.786211e+01 3.987167e+01 3.147004e+01 3.518040e+01 3.619213e+01 3.206959e+01 1.158257e-02 2.006921e+00 1.394019e+00 1.965154e+00 2.593900e+00 3.266247e+00 3.404873e+00 3.254404e+00 2.690048e+00 3.126510e+00 3.377074e+00 3.162368e+00 3.918994e+00 1.844639e-03 1.884332e-01 1.962555e-01 3.407190e-01 3.150549e-01 3.667616e-01 5.290867e-01 5.322092e-01 6.037241e-01 6.493683e-01 5.804350e-01 6.602345e-01 7.916956e-01 1.226080e-04
<GCONST> 9.398058e+01
<STATE> 3
<NUMMIXES> 2
<MIXTURE> 1 5.442871e-01
<MEAN> 39
 -3.703739e-01 1.154285e+01 -1.149509e+00 -5.486552e+00 -6.673846e+00 -7.306370e+00 -6.272980e+00 -6.394631e-01 9.243451e-01 -1.295440e+00 2.031432e+00 7.381211e-01 8.858225e-01 2.049066e-01 3.195781e-01 -4.675562e-01 -1.317614e+00 -4.913055e-01 -7.543641e-01 -6.217431e-01 -2.410545e-01 -6.918685e-01 -8.858793e-01 -5.312001e-01 -1.396012e-01 3.767540e-02 -8.764816e-01 -5.328864e-01 -1.090197e-01 8.785592e-01 9.339632e-01 9.289292e-01 8.561988e-01 3.619066e-01 7.228238e-02 2.033091e-01 2.022124e-02 -1.651205e-02 -2.760634e-02
<VARIANCE> 39
 1.004800e+01 2.728051e+01 2.157472e+01 1.410248e+01 1.738756e+01 2.188741e+01 2.819755e+01 2.683896e+01 2.960844e+01 5.409154e+01 3.650034e+01 7.169518e+01 4.514038e-03 1.308421e+00 8.615172e-01 1.407583e+00 2.101147e+00 2.243018e+00 2.291329e+00 2.579448e+00 2.716722e+00 2.679253e+00 2.955473e+00 5.722267e+00 4.520725e+00 5.222486e-04 1.778387e-01 1.538607e-01 3.111945e-01 2.448536e-01 3.131116e-01 4.273743e-01 3.342012e-01 3.793611e-01 4.188955e-01 5.137751e-01 5.705084e-01 7.485488e-01 5.429440e-05
<GCONST> 8.552262e+01
<MIXTURE> 2 4.557086e-01
<MEAN> 39
 -2.496415e+00 1.107904e+01 6.025590e-01 2.068468e-01 -3.773884e+00 -4.589770e+00 -4.380326e+00 -9.523656e-01 1.653440e+00 2.687938e-01 2.996016e+00 6.211420e-01 7.644799e-01 3.268366e+00 2.287092e+00 4.747193e-01 -3.271021e+00 -3.229162e+00 -3.610317e+00 -3.351540e+00 -1.568860e+00 -8.974087e-01 -1.137175e+00 -4.488793e-01 -3.207320e-01 1.118293e-01 -6.916566e-01 -5.814759e-01 -4.201720e-01 5.428227e-02 4.677216e-01 5.966384e-01 6.079495e-01 4.668314e-01 6.406446e-02 -3.076920e-02 -7.315879e-02 -7.535806e-03 -1.110816e-02
<VARIANCE> 39
 1.800110e+01 2.718898e+01 1.492652e+01 2.642009e+01 2.877739e+01 2.493113e+01 2.494746e+01 3.347291e+01 2.430769e+01 5.177765e+01 4.086097e+01 3.823156e+01 7.940979e-03 1.192628e+00 1.309390e+00 3.523541e+00 1.771740e+00 2.215069e+00 3.574067e+00 2.676838e+00 3.604082e+00 3.706200e+00 4.168359e+00 5.490254e+00 7.190928e+00 6.533072e-04 2.494557e-01 1.775021e-01 1.897575e-01 4.423994e-01 5.213495e-01 4.902685e-01 5.483990e-01 5.145881e-01 5.246819e-01 5.743756e-01 8.802527e-01 6.205884e-01 1.776916e-04
<GCONST> 9.383588e+01
<STATE> 4
<NUMMIXES> 2
<MIXTURE> 1 5.015669e-01
<MEAN> 39
 -8.108286e-02 1.126463e+01 -2.373738e+00 -6.100589e+00 -5.144677e+00 -8.259375e+00 -5.668572e+00 -1.827149e+00 -1.588554e+00 -2.386547e+00 -7.641702e-01 -1.020118e+00 8.764158e-01 2.818755e-01 -2.420753e-01 2.460260e-01 -5.291574e-02 5.017747e-01 1.816715e-01 1.617126e-01 -8.696625e-03 -8.210988e-02 6.912344e-02 -2.493879e-01 -1.260997e-01 -8.528125e-03 7.859574e-02 -7.010426e-02 1.841115e-01 2.336119e-01 1.450484e-01 2.367316e-01 1.281563e-01 7.035516e-02 8.635098e-02 9.929196e-02 6.976204e-02 3.735770e-02 -6.204482e-03
<VARIANCE> 39
 1.608431e+01 2.942442e+01 2.959183e+01 2.372297e+01 2.243729e+01 2.708791e+01 3.954568e+01 2.805016e+01 3.327765e+01 3.562137e+01 5.083671e+01 6.890744e+01 6.012988e-03 5.007015e-01 7.630810e-01 1.142647e+00 1.584580e+00 1.455266e+00 1.664044e+00 1.666942e+00 1.598319e+00 1.616398e+00 1.604429e+00 1.764229e+00 1.972618e+00 2.293765e-04 9.544709e-02 1.194793e-01 1.876129e-01 2.960668e-01 2.783098e-01 3.087783e-01 3.021010e-01 2.937416e-01 2.990693e-01 2.896561e-01 3.587849e-01 3.586261e-01 4.056473e-05
<GCONST> 7.640350e+01
<MIXTURE> 2 4.984227e-01
<MEAN> 39
 -2.029339e-01 1.063413e+01 -1.583547e+00 -5.182635e+00 -4.886524e+00 -6.585195e+00 -5.213275e+00 -1.060478e+00 -1.198834e+00 -3.223221e+00 -2.480118e-01 -1.012083e+00 9.064227e-01 1.018648e-01 1.235176e-02 -8.141736e-02 -9.639226e-02 4.958197e-02 -7.150057e-02 7.778247e-02 -2.312765e-02 -6.702100e-02 1.790311e-02 -6.892951e-02 -4.844505e-02 -3.079116e-03 2.892767e-02 -6.031273e-02 1.520230e-02 -3.500349e-02 -1.068257e-02 -2.679396e-02 -2.450127e-02 -2.196336e-02 5.952516e-03 2.494725e-02 -3.385761e-02 -1.162348e-02 -1.523850e-03
<VARIANCE> 39
 1.060566e+01 2.871279e+01 1.885672e+01 1.281901e+01 1.300344e+01 1.630054e+01 2.928454e+01 1.750361e+01 2.564768e+01 2.597191e+01 4.103848e+01 3.994960e+01 4.592233e-03 1.132354e-01 2.070674e-01 2.916400e-01 3.858383e-01 4.195610e-01 5.041621e-01 5.477943e-01 5.188338e-01 5.132372e-01 5.321966e-01 5.247402e-01 4.580405e-01 3.754082e-05 1.936112e-02 3.815144e-02 5.492958e-02 7.505324e-02 7.813033e-02 9.706452e-02 1.119826e-01 9.978481e-02 1.041265e-01 9.494572e-02 1.037048e-01 8.774807e-02 5.232726e-06
<GCONST> 3.778281e+01
<TRANSP> 5
 0.000000e+00 1.000000e+00 0.000000e+00 0.000000e+00 0.000000e+00
 0.000000e+00 9.172540e-01 8.274600e-02 0.000000e+00 0.000000e+00
 0.000000e+00 0.000000e+00 7.417878e-01 2.582122e-01 0.000000e+00
 0.000000e+00 0.000000e+00 0.000000e+00 9.176142e-01 8.238585e-02
 0.000000e+00 0.000000e+00 0.000000e+00 0.000000e+00 0.000000e+00
<ENDHMM>
~h "sp"
<BEGINHMM>
<NUMSTATES> 3
<STATE> 2
~s "silst"
<TRANSP> 3
 0.000000e+00 7.747624e-01 2.252376e-01
 0.000000e+00 8.304791e-01 1.695209e-01
 0.000000e+00 0.000000e+00 0.000000e+00
<ENDHMM>
~h "sy"
<BEGINHMM>
<NUMSTATES> 5
<STATE> 2
<NUMMIXES> 2
<MIXTURE> 1 6.776738e-01
<MEAN> 39
 -1.072479e+01 -2.538449e+00 2.268728e+00 6.210788e+00 5.497931e+00 7.539340e+00 2.490802e+00 6.421829e+00 2.463078e+00 2.605122e+00 2.901176e+00 1.811812e+00 2.168532e-01 -1.937549e-01 -6.482980e-02 5.343259e-02 1.169206e-01 3.421177e-02 2.340926e-02 -2.626197e-02 -4.946006e-02 -3.213295e-02 -1.175060e-02 2.440591e-02 8.701215e-03 1.087555e-03 1.755633e-01 9.886608e-02 6.249722e-02 -4.433407e-02 -4.921214e-02 -6.243212e-02 -6.883158e-02 -7.660731e-02 -3.140450e-02 -2.331619e-02 -3.811307e-03 -6.146512e-04 5.503296e-03
<VARIANCE> 39
 1.950257e+01 2.341653e+01 2.372143e+01 2.259693e+01 2.506811e+01 2.329638e+01 3.099464e+01 3.159082e+01 3.089489e+01 2.777551e+01 2.678671e+01 2.226566e+01 1.928508e-02 3.254032e-01 5.883164e-01 8.026195e-01 1.148671e+00 1.396696e+00 1.588281e+00 1.791479e+00 1.978270e+00 1.883138e+00 1.945799e+00 1.853796e+00 1.609655e+00 3.481920e-04 8.673441e-02 1.405729e-01 1.844549e-01 2.481367e-01 3.233506e-01 3.534364e-01 3.964105e-01 4.626907e-01 4.265413e-01 4.455398e-01 4.171867e-01 3.485851e-01 1.365769e-04
<GCONST> 7.745255e+01
<MIXTURE> 2 3.223230e-01
<MEAN> 39
 -1.100209e+01 -2.649827e+00 2.449528e+00 6.263815e+00 5.478822e+00 8.178990e+00 2.305254e+00 5.973488e+00 3.189760e+00 2.715416e+00 3.443179e+00 2.256233e+00 2.699562e-01 7.554780e-01 2.890276e-01 -1.729256e-01 -9.365732e-01 -1.384348e+00 -1.183343e+00 -7.546353e-01 -5.743924e-01 7.426652e-02 1.307379e-01 1.344005e-01 1.902526e-01 2.989629e-02 9.038540e-01 3.304529e-01 8.085186e-02 -5.854883e-01 -9.611535e-01 -8.390703e-01 -3.846689e-01 -6.290590e-01 -1.908696e-01 -1.891184e-01 -2.899382e-01 -1.747320e-01 3.456164e-02
<VARIANCE> 39
 1.519926e+01 2.449677e+01 2.443102e+01 2.226369e+01 2.564073e+01 2.742532e+01 3.040259e+01 3.480473e+01 2.974357e+01 2.895342e+01 2.870765e+01 2.176455e+01 1.607405e-02 4.910345e+00 2.771364e+00 1.830863e+00 2.820580e+00 4.528736e+00 4.320436e+00 3.745234e+00 4.532160e+00 3.950246e+00 3.182980e+00 3.810717e+00 3.079350e+00 8.218001e-03 1.440540e-01 2.383345e-01 2.826530e-01 4.736529e-01 4.960759e-01 5.362743e-01 6.026889e-01 6.105171e-01 6.617369e-01 6.503534e-01 7.029426e-01 5.920746e-01 1.795209e-04
<GCONST> 9.868019e+01
<STATE> 3
<NUMMIXES> 2
<MIXTURE> 1 5.824074e-01
<MEAN> 39
 2.039059e+00 1.402682e-02 2.712444e+00 -4.270761e+00 -1.096914e+01 -4.752944e+00 -1.868873e+00 -3.954824e+00 2.015462e+00 1.306516e+00 4.350428e-01 1.216370e+00 8.160368e-01 5.835010e-01 -7.639753e-01 -2.444681e-01 -1.383265e+00 -1.388619e+00 -4.979165e-01 5.743180e-01 -1.394907e+00 1.596383e-01 -7.038718e-01 -4.363307e-01 1.293651e-01 5.656581e-02 -9.340768e-01 -1.218407e-01 1.580037e-02 6.493809e-01 1.156034e+00 9.189304e-01 2.846049e-01 5.668336e-01 2.158788e-02 -5.552165e-02 1.494998e-01 6.864339e-02 -3.064745e-02
<VARIANCE> 39
 9.989351e+00 2.003281e+01 1.563066e+01 3.120766e+01 2.052732e+01 3.456163e+01 3.691153e+01 5.861934e+01 5.714355e+01 5.086734e+01 1.006215e+02 6.471850e+01 7.994677e-03 1.460989e+00 1.017595e+00 1.388072e+00 2.831640e+00 3.057252e+00 2.998150e+00 4.083356e+00 3.516645e+00 3.412027e+00 8.157126e+00 5.971836e+00 5.569399e+00 9.511299e-04 1.574714e-01 2.093283e-01 2.152919e-01 4.095120e-01 3.321156e-01 4.407867e-01 5.881120e-01 5.711965e-01 7.714648e-01 8.233151e-01 8.698345e-01 9.080541e-01 9.296072e-05
<GCONST> 9.702890e+01
<MIXTURE> 2 4.175873e-01
<MEAN> 39
 -1.437101e+00 3.111436e+00 3.611405e+00 6.298602e-01 -5.647855e+00 -2.554774e+00 -4.700096e+00 -1.140065e+00 3.560799e-02 1.365162e+00 1.496819e+00 1.404362e+00 6.614380e-01 3.797549e+00 7.836661e-01 8.654238e-02 -2.657922e+00 -4.529117e+00 -3.567739e+00 -7.930322e-01 -2.582812e+00 -4.958216e-01 -3.566945e-01 -1.388929e+00 -6.757588e-01 1.458889e-01 -5.284910e-01 -7.098901e-01 -2.056252e-01 8.503180e-03 3.205250e-01 5.165737e-01 7.690350e-01 1.212293e-01 2.674269e-01 -3.248517e-02 -1.302355e-01 -3.885018e-03 -1.475752e-02
<VARIANCE> 39
 2.142097e+01 2.078646e+01 1.527147e+01 2.389516e+01 3.613153e+01 2.931758e+01 2.579983e+01 4.414812e+01 3.584982e+01 5.057350e+01 6.633979e+01 4.024183e+01 1.239320e-02 1.099060e+00 1.592643e+00 2.197663e+00 4.233540e+00 2.092782e+00 3.213053e+00 5.361663e+00 4.255908e+00 5.646354e+00 5.865283e+00 5.914463e+00 5.372857e+00 9.037184e-04 3.231614e-01 1.461002e-01 2.499413e-01 3.439152e-01 6.295803e-01 6.348935e-01 4.618329e-01 6.022505e-01 6.108310e-01 1.212345e+00 7.524897e-01 8.088761e-01 2.643745e-04
<GCONST> 9.971548e+01
<STATE> 4
<NUMMIXES> 2
<MIXTURE> 1 5.614697e-01
<MEAN> 39
 3.424783e+00 1.379613e+00 2.693868e+00 -4.161677e+00 -1.054227e+01 -3.840704e+00 3.165353e+00 -4.921678e+00 3.492490e+00 2.561867e+00 -4.673710e+00 -4.890905e-01 8.706658e-01 2.003936e-01 2.936562e-01 1.682839e-01 -3.826340e-02 4.942357e-01 6.627400e-01 2.977050e-01 3.974155e-01 5.719486e-01 1.960603e-01 1.778070e-01 3.992751e-01 -7.930226e-03 -4.840684e-03 5.554558e-02 2.714174e-02 8.663689e-02 1.527827e-01 9.272435e-02 -1.170957e-01 4.620536e-02 -8.830512e-02 -1.413138e-01 4.918154e-02 -3.000995e-02 -5.095705e-03
<VARIANCE> 39
 1.042614e+01 1.795485e+01 1.652762e+01 2.703118e+01 1.973944e+01 3.377318e+01 2.735101e+01 3.672777e+01 5.183729e+01 5.176350e+01 3.037699e+01 3.327735e+01 7.095942e-03 3.228700e-01 4.399376e-01 6.087720e-01 7.668195e-01 8.222125e-01 1.050076e+00 1.176301e+00 1.152920e+00 1.522710e+00 1.374333e+00 1.299656e+00 1.373930e+00 2.957984e-04 5.741639e-02 7.568640e-02 1.058166e-01 1.363211e-01 1.445043e-01 2.081332e-01 2.130786e-01 2.239539e-01 2.866276e-01 2.848437e-01 2.416239e-01 2.285655e-01 2.313126e-05
<GCONST> 6.462803e+01
<MIXTURE> 2 4.385221e-01
<MEAN> 39
 1.377064e-01 -5.711960e-01 1.426314e+00 -9.760361e+00 -9.067585e+00 -5.152692e-01 -4.128876e+00 -2.475369e+00 3.484720e+00 -6.510659e+00 2.135837e+00 -5.265916e-01 8.910760e-01 8.421866e-02 1.166876e-01 -1.996383e-01 -3.327225e-01 2.182481e-01 7.554189e-02 1.636311e-01 1.835491e-01 -2.075410e-01 -6.084421e-01 -7.740094e-01 -1.119790e+00 3.623445e-03 7.017542e-02 1.372546e-01 5.304689e-02 2.426409e-01 1.547847e-01 -2.230612e-02 4.795415e-02 1.391785e-01 -2.321315e-02 2.897120e-01 6.179903e-02 5.386227e-02 -6.109578e-03
<VARIANCE> 39
 1.288757e+01 2.478958e+01 2.102579e+01 2.445841e+01 2.971013e+01 3.952665e+01 3.849034e+01 5.687356e+01 4.906427e+01 5.549968e+01 9.365900e+01 1.076342e+02 5.197854e-03 4.540560e-01 9.617195e-01 1.103518e+00 1.335626e+00 1.686276e+00 2.468988e+00 2.233257e+00 2.425777e+00 2.673180e+00 2.862032e+00 3.257198e+00 4.191216e+00 2.780527e-04 8.521459e-02 1.494603e-01 2.120540e-01 2.823265e-01 3.453545e-01 4.786276e-01 4.159636e-01 5.240680e-01 4.593061e-01 4.779305e-01 5.857891e-01 7.731977e-01 3.352894e-05
<GCONST> 8.633730e+01
<TRANSP> 5
 0.000000e+00 1.000000e+00 0.000000e+00 0.000000e+00 0.000000e+00
 0.000000e+00 9.222263e-01 7.777368e-02 0.000000e+00 0.000000e+00
 0.000000e+00 0.000000e+00 7.550253e-01 2.449747e-01 0.000000e+00
 0.000000e+00 0.000000e+00 0.000000e+00 9.037117e-01 9.628826e-02
 0.000000e+00 0.000000e+00 0.000000e+00 0.000000e+00 0.000000e+00
<ENDHMM>
~h "jiou"
<BEGINHMM>
<NUMSTATES> 5
<STATE> 2
<NUMMIXES> 2
<MIXTURE> 1 6.258433e-01
<MEAN> 39
 -1.186118e+01 3.993761e+00 -7.211027e-01 7.094873e+00 1.846120e+00 6.300587e+00 3.012464e+00 5.264704e+00 3.945824e+00 4.077514e+00 4.141988e+00 1.869730e+00 2.899591e-01 -1.681637e+00 1.689019e+00 -9.772453e-01 -1.488806e-01 4.070973e-01 -2.890750e-01 2.775841e-01 4.864666e-01 4.279457e-01 7.879691e-02 2.858959e-01 -1.274680e-02 3.917915e-02 1.076326e+00 4.524641e-01 5.657936e-01 -1.033694e+00 -2.778118e-01 -8.146268e-01 -5.817453e-01 -5.497639e-01 -2.776001e-01 -4.071153e-01 -3.662742e-01 -1.917365e-01 3.197137e-02
<VARIANCE> 39
 3.078135e+01 4.685897e+01 3.044211e+01 2.622880e+01 2.727045e+01 2.646279e+01 2.807764e+01 3.697790e+01 2.350637e+01 2.639376e+01 2.875194e+01 2.362209e+01 2.379980e-02 4.114731e+00 3.859213e+00 3.139622e+00 4.467773e+00 2.869041e+00 4.364211e+00 3.726863e+00 4.117065e+00 3.039285e+00 3.070067e+00 3.118942e+00 2.645138e+00 4.765620e-03 7.093723e-01 8.339221e-01 7.005984e-01 1.007626e+00 7.128317e-01 7.873853e-01 6.493044e-01 6.448648e-01 5.851617e-01 5.705991e-01 6.395709e-01 5.719216e-01 7.156136e-04
<GCONST> 1.063690e+02
<MIXTURE> 2 3.741524e-01
<MEAN> 39
 -8.739408e+00 1.275565e+01 8.793525e-01 -1.494531e+00 1.221651e-01 -1.617166e+00 -1.340915e+00 1.963922e+00 3.319561e+00 1.434202e+00 2.573276e+00 7.381172e-01 6.492375e-01 3.492376e+00 8.018763e-01 1.441857e+00 -5.362756e+00 -1.939078e+00 -2.897395e+00 -1.905756e+00 -5.286803e-01 -2.976764e-01 -8.942807e-01 -1.471764e+00 -1.046786e+00 1.220494e-01 3.902603e-01 -1.322808e+00 8.740748e-02 -2.268129e-01 -2.635789e-01 6.604699e-01 3.721021e-01 3.315266e-01 -6.273086e-02 6.321190e-02 -4.051862e-01 -2.546740e-01 -5.969713e-03
<VARIANCE> 39
 4.561998e+01 3.152919e+01 2.993290e+01 6.189647e+01 4.167918e+01 4.493746e+01 3.680714e+01 3.455424e+01 2.325868e+01 2.967244e+01 3.786740e+01 2.899667e+01 2.579414e-02 2.103497e+00 3.524695e+00 4.852818e+00 3.258192e+00 2.838763e+00 5.696170e+00 2.982869e+00 3.243899e+00 2.811435e+00 2.999834e+00 4.254906e+00 3.067733e+00 1.073558e-03 1.065467e+00 4.776934e-01 5.953507e-01 1.433837e+00 1.032949e+00 1.177810e+00 8.741720e-01 6.194059e-01 4.990588e-01 7.345252e-01 9.742038e-01 6.637630e-01 4.140092e-04
<GCONST> 1.082382e+02
<STATE> 3
<NUMMIXES> 2
<MIXTURE> 1 5.071555e-01
<MEAN> 39
 1.073534e+00 -5.810932e+00 1.822739e+00 -5.832091e+00 -5.629839e+00 5.150391e+00 7.467501e+00 -1.855874e+00 -2.317883e+00 3.674138e-01 -5.369493e+00 -3.567393e+00 8.930842e-01 1.012386e+00 -2.227266e+00 -1.296915e+00 3.532290e+00 1.827124e-01 -5.999753e-01 2.322454e+00 -2.035654e-01 -2.234058e+00 1.052255e-01 8.531094e-01 4.235311e-02 -7.266869e-03 -2.047260e-02 6.515812e-01 -3.516084e-01 1.636771e-01 6.774938e-01 -9.250596e-01 -5.926504e-01 7.470915e-01 8.818173e-02 -3.817952e-01 4.615291e-01 3.058551e-01 -4.804397e-03
<VARIANCE> 39
 1.272230e+01 3.238322e+01 2.103274e+01 3.708928e+01 2.675753e+01 2.568592e+01 3.475031e+01 5.359582e+01 3.813097e+01 3.479954e+01 3.682843e+01 2.746257e+01 5.537870e-03 3.867141e-01 1.223429e+00 1.621987e+00 1.455651e+00 2.356044e+00 3.800279e+00 3.603136e+00 6.319322e+00 2.753732e+00 3.623451e+00 3.010613e+00 2.831800e+00 1.331238e-04 8.102318e-02 1.297396e-01 1.864620e-01 6.237835e-01 4.481140e-01 4.782834e-01 7.369013e-01 5.577297e-01 8.412240e-01 6.901000e-01 6.735156e-01 6.748887e-01 4.198515e-05
<GCONST> 8.773438e+01
<MIXTURE> 2 4.928411e-01
<MEAN> 39
 -1.741376e+00 6.938240e+00 3.028106e+00 -1.489943e+01 -3.038681e+00 -2.738281e+00 -2.015783e+00 4.443053e+00 2.332907e+00 -8.093178e-01 -3.202488e+00 -3.318398e+00 8.929455e-01 9.408062e-01 -3.270478e+00 3.090599e-01 -9.383038e-01 -6.226776e-01 2.135383e+00 1.314240e+00 -1.719054e-01 -3.221275e-01 -4.094023e-01 -1.461465e+00 -5.980523e-01 2.979463e-02 -4.223104e-01 -5.268182e-01 -4.094367e-01 1.784439e+00 1.760512e-01 6.598021e-01 8.621358e-01 -3.638480e-01 -3.126867e-01 2.171623e-01 2.996890e-01 2.869103e-01 -2.316074e-02
<VARIANCE> 39
 1.196573e+01 4.225998e+01 3.356286e+01 1.950459e+01 2.359167e+01 4.958741e+01 3.042959e+01 2.418416e+01 3.190566e+01 2.887639e+01 3.958010e+01 3.007623e+01 4.974744e-03 1.751709e+00 1.780054e+00 1.490066e+00 6.502267e+00 3.723998e+00 4.318418e+00 3.667644e+00 4.800805e+00 2.457747e+00 4.072947e+00 4.590059e+00 4.468863e+00 1.013798e-03 3.697819e-01 4.970479e-01 5.739729e-01 7.101825e-01 6.253814e-01 1.540193e+00 7.735044e-01 7.178056e-01 6.274534e-01 6.504786e-01 7.754865e-01 7.410663e-01 1.659096e-04
<GCONST> 1.007709e+02
<STATE> 4
<NUMMIXES> 2
<MIXTURE> 1 4.693706e-01
<MEAN> 39
 6.829489e+00 -5.825944e+00 -6.614068e+00 4.861414e+00 2.317533e+00 -3.509304e+00 7.278013e+00 7.530904e+00 -1.398618e+00 -2.427374e+00 -1.550944e+00 7.770770e-01 8.037224e-01 4.186669e-01 1.165327e-01 -3.379993e-01 7.153522e-01 8.704808e-01 -5.116209e-01 -3.950494e-01 3.783455e-01 4.384151e-01 -3.236603e-01 2.787345e-01 6.249238e-01 -1.456683e-02 -2.050967e-01 2.563076e-01 4.643810e-01 -4.705811e-01 -2.388230e-01 3.315303e-01 -3.075136e-01 -3.907914e-01 2.696189e-01 2.033111e-01 -1.676417e-01 -1.100487e-01 -1.080586e-03
<VARIANCE> 39
 1.364131e+01 2.279358e+01 3.118456e+01 2.184153e+01 3.999065e+01 2.446946e+01 4.151049e+01 3.486322e+01 5.423163e+01 2.208582e+01 2.970466e+01 2.868421e+01 1.068287e-02 6.444458e-01 8.025252e-01 3.958063e+00 2.412346e+00 4.333265e+00 2.518481e+00 2.636381e+00 3.833818e+00 2.886950e+00 3.414424e+00 2.712329e+00 3.043963e+00 1.771551e-04 6.880871e-02 1.747786e-01 2.151777e-01 3.044431e-01 3.880687e-01 3.030075e-01 7.178184e-01 4.820316e-01 9.576474e-01 3.960097e-01 5.575950e-01 4.222277e-01 2.622442e-05
<GCONST> 8.614884e+01
<MIXTURE> 2 5.306213e-01
<MEAN> 39
 5.428077e+00 -9.508450e+00 -6.425885e+00 6.380922e+00 2.441225e+00 -1.317627e+00 5.024546e+00 2.377218e+00 -4.347713e+00 -4.715257e+00 -2.512711e+00 -8.250491e-01 8.393550e-01 4.183882e-01 3.412266e-01 -4.973814e-01 3.131669e-01 5.143684e-01 -2.535601e-01 -6.942054e-01 2.451025e-01 8.643264e-01 -9.322169e-02 -2.321790e-01 -1.993534e-03 -1.093440e-02 -6.486378e-02 1.884781e-01 2.953538e-01 -3.348952e-01 -2.258317e-01 2.122027e-01 3.462076e-02 -2.054233e-01 1.190167e-01 2.409748e-01 -5.283539e-02 -1.671076e-01 -8.313315e-04
<VARIANCE> 39
 1.576092e+01 2.218445e+01 2.619962e+01 3.011387e+01 3.147510e+01 2.545056e+01 3.883619e+01 6.777952e+01 4.042142e+01 3.830686e+01 3.926852e+01 4.545421e+01 8.404546e-03 3.387717e-01 4.368402e-01 1.178455e+00 1.240405e+00 1.635888e+00 1.278056e+00 1.800732e+00 1.914650e+00 1.865065e+00 1.596781e+00 1.837570e+00 1.697832e+00 9.914969e-05 5.116152e-02 8.866342e-02 1.336166e-01 1.915444e-01 2.042173e-01 2.391942e-01 3.055258e-01 3.556642e-01 3.400348e-01 3.731060e-01 3.452171e-01 3.743035e-01 9.666393e-06
<GCONST> 7.231669e+01
<TRANSP> 5
 0.000000e+00 1.000000e+00 0.000000e+00 0.000000e+00 0.000000e+00
 0.000000e+00 8.532032e-01 1.467968e-01 0.000000e+00 0.000000e+00
 0.000000e+00 0.000000e+00 8.584042e-01 1.415958e-01 0.000000e+00
 0.000000e+00 0.000000e+00 0.000000e+00 8.810599e-01 1.189400e-01
 0.000000e+00 0.000000e+00 0.000000e+00 0.000000e+00 0.000000e+00
<ENDHMM>
~h "#er"
<BEGINHMM>
<NUMSTATES> 5
<STATE> 2
<NUMMIXES> 2
<MIXTURE> 1 4.901347e-01
<MEAN> 39
 -2.129611e+00 -1.265856e+01 -3.449974e+00 -5.548635e-01 -2.179339e+00 1.324459e+00 2.486598e-01 -4.915851e+00 -6.252337e+00 -1.929993e-01 -4.561990e-01 4.523668e-01 9.208978e-01 -9.300275e-02 -3.298612e-01 1.456324e-01 2.108876e-03 1.530951e-02 2.167459e-01 -1.100373e-01 -1.108568e-01 -3.064767e-01 -2.250994e-01 1.612229e-01 2.355160e-03 1.726124e-02 2.030841e-01 3.336949e-01 2.895696e-01 1.604031e-01 2.479258e-01 1.816541e-01 2.172645e-01 3.488784e-01 4.118311e-01 1.928787e-01 1.374675e-01 6.221846e-02 -8.886219e-03
<VARIANCE> 39
 1.819128e+01 3.601707e+01 3.384420e+01 4.130046e+01 3.347400e+01 5.503172e+01 6.430030e+01 5.298339e+01 6.291076e+01 6.310398e+01 6.117328e+01 6.271946e+01 2.994852e-03 6.478242e-01 1.100659e+00 1.327048e+00 2.156594e+00 2.196129e+00 2.497344e+00 2.801776e+00 2.282686e+00 2.771329e+00 2.593478e+00 3.081640e+00 3.232557e+00 3.787784e-04 9.116619e-02 1.452233e-01 1.642300e-01 2.317052e-01 2.672693e-01 3.953338e-01 3.947816e-01 3.798637e-01 3.862110e-01 3.820527e-01 4.975830e-01 4.984621e-01 1.459822e-04
<GCONST> 8.857031e+01
<MIXTURE> 2 5.098604e-01
<MEAN> 39
 6.537500e-01 -1.122469e+01 -2.247387e+00 3.495912e+00 1.823667e+00 3.375859e+00 4.271656e+00 -1.209172e+00 -4.388315e+00 1.611494e+00 1.762531e+00 1.978344e+00 7.872320e-01 -2.799497e-01 -5.863104e-01 -1.224563e-01 -2.071900e-01 -2.282667e-01 1.337005e-02 -4.196357e-01 -6.259951e-01 -7.102809e-01 -1.348074e-01 -1.016005e-01 -4.085496e-01 2.696223e-02 -1.029573e-01 6.665926e-02 -5.247666e-02 -2.372340e-01 -1.597715e-01 -1.985641e-01 -1.935302e-01 -4.839594e-02 4.178058e-02 -1.966662e-01 -1.822320e-01 -1.130782e-01 -7.807210e-04
<VARIANCE> 39
 1.420484e+01 2.897507e+01 3.471411e+01 3.851272e+01 2.695151e+01 5.702951e+01 4.055596e+01 4.743086e+01 6.077282e+01 5.446879e+01 4.873520e+01 3.649337e+01 1.673980e-02 7.998998e-01 9.793853e-01 1.190976e+00 1.690606e+00 1.589222e+00 2.125205e+00 2.274069e+00 2.163287e+00 2.750760e+00 2.942302e+00 3.047048e+00 2.357871e+00 1.626480e-03 1.176671e-01 1.704761e-01 1.641829e-01 1.895176e-01 1.907896e-01 2.741612e-01 3.072294e-01 3.454449e-01 4.691571e-01 3.969276e-01 4.253985e-01 4.051819e-01 3.308601e-04
<GCONST> 8.817540e+01
<STATE> 3
<NUMMIXES> 2
<MIXTURE> 1 6.728258e-01
<MEAN> 39
 1.077813e+00 -9.759339e+00 -3.325478e+00 -6.118646e-01 -2.023757e+00 1.299142e+00 5.651849e+00 -3.642798e-01 -6.982309e+00 -3.677097e+00 -1.280933e-01 -1.918196e+00 9.375016e-01 2.009982e-01 2.101023e-01 4.581098e-01 -3.976143e-02 -2.135326e-03 3.498938e-01 2.762652e-01 1.456008e-01 5.468169e-01 2.088793e-01 7.373959e-02 5.800150e-02 -2.956680e-03 3.661276e-02 7.037674e-02 6.631624e-02 -1.584195e-02 1.723241e-02 3.408746e-02 -1.169743e-02 -4.972464e-03 9.931821e-02 9.654713e-02 -1.206984e-02 3.416046e-02 -2.943142e-03
<VARIANCE> 39
 1.010366e+01 3.170113e+01 3.042752e+01 2.575406e+01 3.081472e+01 4.105196e+01 4.034462e+01 3.595437e+01 4.136152e+01 3.498846e+01 3.647668e+01 2.386252e+01 2.400095e-03 2.127572e-01 3.013522e-01 4.700441e-01 5.302347e-01 7.501556e-01 8.719602e-01 7.162100e-01 9.718451e-01 1.003106e+00 9.286263e-01 8.779196e-01 7.617413e-01 1.620211e-04 3.261966e-02 4.363214e-02 6.111747e-02 8.469098e-02 1.009895e-01 1.181650e-01 1.294036e-01 1.441628e-01 1.418612e-01 1.329621e-01 1.367861e-01 1.173733e-01 1.074195e-05
<GCONST> 5.265046e+01
<MIXTURE> 2 3.271638e-01
<MEAN> 39
 -2.186298e+00 -1.261441e+01 -3.304198e-01 7.493823e-01 9.419736e-01 5.255664e+00 -8.165621e-01 -5.778772e+00 -4.290491e+00 2.493273e+00 3.477607e-01 1.359225e+00 9.515367e-01 3.164221e-02 6.713291e-02 2.226119e-02 -6.566770e-01 -1.616165e-01 1.149767e-01 -3.113705e-01 -1.149907e-02 -3.923026e-01 -6.989956e-01 -4.377159e-01 -5.646867e-01 6.529798e-05 -1.249185e-02 1.151556e-02 -7.783122e-02 -1.527356e-01 -9.838878e-02 -8.288807e-02 -4.032927e-02 8.600794e-03 -2.211722e-02 -1.644926e-01 -1.164442e-01 -9.852902e-02 -2.912862e-03
<VARIANCE> 39
 1.285720e+01 3.198631e+01 2.872278e+01 3.567364e+01 2.201703e+01 4.187967e+01 5.985954e+01 3.380827e+01 4.532692e+01 3.616049e+01 3.750035e+01 4.502263e+01 1.742440e-03 2.566164e-01 4.701683e-01 5.605428e-01 1.108015e+00 8.216237e-01 1.274491e+00 1.747150e+00 1.190474e+00 1.284439e+00 1.417468e+00 1.656108e+00 1.685108e+00 1.021577e-04 4.392885e-02 7.672298e-02 9.437811e-02 1.397414e-01 1.326070e-01 2.113737e-01 2.741795e-01 2.042694e-01 2.219199e-01 2.277704e-01 2.356452e-01 2.753477e-01 1.073562e-05
<GCONST> 6.453268e+01
<STATE> 4
<NUMMIXES> 2
<MIXTURE> 1 4.910448e-01
<MEAN> 39
 3.084067e+00 -6.267849e+00 4.303806e+00 -3.696696e+00 -1.191009e+00 7.213274e+00 2.852148e+00 -6.146604e-01 -8.135293e-02 -7.236241e-01 5.412977e-03 -2.216229e+00 7.953014e-01 4.234661e-01 1.087495e+00 7.710528e-01 3.244109e-01 2.563251e-01 -1.311803e-01 -2.158713e-01 -1.425583e-02 8.560287e-01 5.286050e-01 1.709585e-01 5.043824e-01 -2.620695e-02 -6.851164e-02 8.224200e-02 -2.079793e-02 2.238447e-01 1.194677e-01 -7.163598e-02 -1.433199e-01 -8.225496e-02 -2.124580e-01 -1.418596e-02 -8.334140e-03 3.310344e-02 -2.883928e-03
<VARIANCE> 39
 1.021940e+01 3.878539e+01 2.837164e+01 3.565774e+01 4.006331e+01 5.861399e+01 6.094893e+01 3.370550e+01 4.407852e+01 4.179329e+01 4.522053e+01 2.946858e+01 1.123497e-02 5.283999e-01 9.921588e-01 1.003721e+00 1.286602e+00 1.149253e+00 2.005238e+00 1.885973e+00 1.783106e+00 2.114828e+00 1.728457e+00 1.629359e+00 1.645027e+00 1.914187e-04 8.752037e-02 1.242903e-01 1.644342e-01 2.464101e-01 2.285940e-01 2.675328e-01 2.578415e-01 2.924576e-01 3.716560e-01 2.869215e-01 2.598011e-01 2.523254e-01 4.126141e-05
<GCONST> 7.740664e+01
<MIXTURE> 2 5.089490e-01
<MEAN> 39
 -1.334133e+00 -9.885756e+00 4.847457e-01 -6.862624e+00 -8.993483e-01 6.832392e+00 -1.843832e+00 -3.384724e+00 -4.461094e+00 -3.765354e+00 -2.668193e+00 -2.226856e+00 9.178215e-01 2.654707e-01 1.243131e+00 3.418318e-01 -1.029669e+00 -4.203682e-01 -2.311295e-01 1.566686e-01 6.241746e-01 8.653991e-01 -6.242228e-01 -3.322595e-01 -6.743111e-01 -9.852370e-03 1.204714e-01 2.688206e-01 1.400232e-01 2.082847e-01 -4.095417e-03 -2.104382e-01 -2.078417e-02 1.020929e-01 2.364888e-01 2.144924e-01 1.598255e-01 9.953853e-02 -2.542316e-03
<VARIANCE> 39
 1.343583e+01 3.840478e+01 2.312065e+01 4.316109e+01 3.843106e+01 5.473719e+01 8.719047e+01 4.587034e+01 4.057249e+01 3.838782e+01 3.851284e+01 4.873947e+01 2.842608e-03 4.538788e-01 1.200261e+00 1.732137e+00 1.713841e+00 1.895406e+00 3.304054e+00 3.022149e+00 2.859925e+00 3.732576e+00 2.968680e+00 2.801317e+00 3.301800e+00 7.867925e-05 6.975374e-02 1.116657e-01 2.075721e-01 3.080790e-01 3.068997e-01 4.818487e-01 5.642933e-01 4.396571e-01 4.444120e-01 4.525816e-01 4.607925e-01 5.716856e-01 1.389546e-05
<GCONST> 8.441956e+01
<TRANSP> 5
 0.000000e+00 1.000000e+00 0.000000e+00 0.000000e+00 0.000000e+00
 0.000000e+00 8.099668e-01 1.900332e-01 0.000000e+00 0.000000e+00
 0.000000e+00 0.000000e+00 8.855694e-01 1.144307e-01 0.000000e+00
 0.000000e+00 0.000000e+00 0.000000e+00 8.223275e-01 1.776725e-01
 0.000000e+00 0.000000e+00 0.000000e+00 0.000000e+00 0.000000e+00
<ENDHMM>
~h "liou"
<BEGINHMM>
<NUMSTATES> 5
<STATE> 2
<NUMMIXES> 2
<MIXTURE> 1 4.333142e-01
<MEAN> 39
 -4.088897e+00 3.458788e+00 -3.911125e+00 -1.284612e+01 3.152383e+00 -3.148158e+00 2.456719e+00 2.374226e+00 -1.564553e+00 -3.779169e-01 1.015997e+00 1.460417e+00 9.162228e-01 -1.580616e-01 -1.094074e+00 1.681736e-01 1.260357e-02 5.133497e-01 1.190853e+00 8.065539e-02 -6.337224e-01 -2.041983e-01 -3.960729e-01 -1.425623e-01 6.134592e-01 5.055339e-03 2.061717e-01 -3.087896e-01 2.756776e-01 3.416446e-01 -3.852621e-01 3.453047e-01 -1.882086e-01 -3.479201e-01 1.777402e-01 -1.349888e-01 -6.981102e-02 1.805649e-02 -2.174442e-03
<VARIANCE> 39
 1.065072e+01 2.772270e+01 1.829111e+01 2.261744e+01 2.464403e+01 3.657372e+01 2.641146e+01 2.814369e+01 3.450381e+01 5.649348e+01 7.918759e+01 9.057475e+01 3.362269e-03 4.908135e-01 1.820240e+00 1.606336e+00 1.421013e+00 2.180078e+00 3.664404e+00 2.689147e+00 2.367105e+00 1.963983e+00 2.598408e+00 2.344284e+00 2.812365e+00 1.880441e-04 8.644680e-02 1.878135e-01 2.585176e-01 3.603229e-01 3.910472e-01 5.158802e-01 4.943434e-01 4.881704e-01 4.263063e-01 5.277431e-01 4.787669e-01 5.438789e-01 3.042925e-05
<GCONST> 8.438791e+01
<MIXTURE> 2 5.666777e-01
<MEAN> 39
 -3.363950e+00 5.664689e+00 1.350598e+00 -1.406073e+01 -3.577075e+00 -2.849916e+00 -4.380435e+00 3.148203e+00 2.867424e+00 -2.332643e+00 -1.749329e+00 -2.484144e+00 9.195502e-01 -5.462958e-01 -6.027038e-01 -8.187976e-01 -1.395853e+00 -4.696758e-02 2.636935e-01 1.177716e-01 9.596524e-01 -4.292372e-01 -5.929702e-02 -5.892404e-01 -6.111787e-01 1.974438e-02 2.963663e-01 -3.475061e-01 2.990490e-01 5.505130e-01 -7.830344e-02 2.535962e-01 2.611524e-01 -4.756287e-01 -2.215651e-01 1.327223e-01 -1.951174e-01 1.230027e-01 -5.428974e-03
<VARIANCE> 39
 1.110319e+01 2.285606e+01 2.029177e+01 1.916964e+01 1.973885e+01 3.299937e+01 3.392476e+01 2.804400e+01 2.536205e+01 2.346818e+01 2.297898e+01 2.189337e+01 3.169370e-03 7.877526e-01 1.431539e+00 2.046393e+00 2.501962e+00 2.053351e+00 2.898598e+00 2.842067e+00 3.179941e+00 2.332914e+00 2.356280e+00 2.428743e+00 1.847347e+00 3.462903e-04 1.167038e-01 2.134559e-01 2.882614e-01 3.850499e-01 2.802587e-01 5.180639e-01 5.159051e-01 4.893961e-01 4.522601e-01 3.924072e-01 4.239375e-01 3.669015e-01 4.792640e-05
<GCONST> 8.161272e+01
<STATE> 3
<NUMMIXES> 2
<MIXTURE> 1 4.833651e-01
<MEAN> 39
 -2.193863e-01 -8.963371e+00 -1.031533e+00 -2.325884e+00 -6.270153e+00 3.844317e+00 7.673387e+00 -3.370105e+00 -5.672638e+00 2.086063e+00 -4.033916e+00 -3.216235e+00 9.296718e-01 1.046240e+00 -1.257361e+00 -1.330495e+00 3.094589e+00 2.960792e-01 -1.722097e+00 1.778809e+00 1.117994e+00 -2.147021e+00 -1.108682e-01 1.381501e+00 -4.120668e-01 -5.663803e-03 1.917606e-02 4.809174e-01 -2.537491e-01 -2.686543e-01 6.516662e-01 -5.057530e-01 -7.620975e-01 7.932841e-01 4.075284e-01 -7.537037e-01 2.439575e-01 4.660542e-01 -1.596024e-03
<VARIANCE> 39
 1.199518e+01 2.601136e+01 1.626660e+01 3.621535e+01 2.762815e+01 2.736130e+01 2.930179e+01 5.499340e+01 2.935521e+01 2.162484e+01 3.635132e+01 3.846129e+01 3.124098e-03 3.139466e-01 8.197244e-01 1.037592e+00 1.349608e+00 1.765042e+00 1.845114e+00 2.597774e+00 2.943047e+00 2.217738e+00 3.096429e+00 2.287077e+00 3.051989e+00 1.215929e-04 4.850874e-02 9.498118e-02 1.579978e-01 2.339965e-01 2.775679e-01 4.302799e-01 4.293663e-01 4.322411e-01 6.337672e-01 3.391378e-01 5.610272e-01 4.631983e-01 1.592377e-05
<GCONST> 7.636880e+01
<MIXTURE> 2 5.166316e-01
<MEAN> 39
 -3.010045e+00 -3.938853e+00 8.930554e-01 -1.181096e+01 -3.044972e+00 5.378003e+00 -8.840300e-01 -1.649233e+00 9.422507e-01 -2.653643e+00 -4.241647e+00 8.863589e-01 9.421237e-01 6.809350e-01 -2.226268e+00 4.166848e-02 2.285202e+00 -1.425724e+00 1.271243e+00 1.909430e+00 -1.743851e+00 -6.458354e-01 9.763598e-01 -9.816527e-01 -1.518174e-01 -1.316922e-03 1.896243e-01 1.131781e-01 -3.460899e-01 6.857705e-01 8.987860e-02 -7.924399e-01 5.884048e-01 2.501563e-01 -5.729809e-01 3.152352e-01 3.564275e-01 -3.397480e-01 -2.122170e-03
<VARIANCE> 39
 1.106016e+01 3.184931e+01 1.708990e+01 3.109365e+01 3.767849e+01 3.022270e+01 3.353695e+01 4.556834e+01 2.298024e+01 3.069182e+01 4.597842e+01 5.161012e+01 2.215480e-03 2.854501e-01 9.646227e-01 8.974041e-01 1.641498e+00 1.252829e+00 2.523832e+00 3.159001e+00 2.620947e+00 3.121540e+00 2.415449e+00 2.527326e+00 3.328887e+00 1.281629e-04 4.158384e-02 1.619165e-01 1.473081e-01 2.997267e-01 3.050891e-01 4.441621e-01 3.738646e-01 5.839763e-01 3.607058e-01 4.742281e-01 5.219615e-01 4.372121e-01 2.267926e-05
<GCONST> 7.837664e+01
<STATE> 4
<NUMMIXES> 2
<MIXTURE> 1 4.570909e-01
<MEAN> 39
 6.511064e+00 -7.493940e+00 -8.878837e+00 8.537290e+00 4.652443e+00 -2.601032e+00 3.557404e+00 5.507825e+00 -7.374326e-01 -4.169191e+00 -2.602038e+00 1.283873e+00 8.082591e-01 5.632191e-01 6.652519e-01 1.273826e-01 2.776150e-01 6.727169e-01 2.758167e-01 -5.970248e-01 -2.022655e-02 9.763932e-01 5.550047e-01 -9.735113e-02 -1.165861e-01 -2.323191e-02 -1.641678e-01 5.328016e-02 4.160154e-01 -2.051079e-01 -2.992939e-01 1.615389e-01 1.718727e-01 -3.158093e-01 -3.081906e-01 2.535404e-01 1.924148e-01 -2.030851e-01 -2.285927e-03
<VARIANCE> 39
 1.276521e+01 2.360625e+01 2.782272e+01 2.941916e+01 2.515104e+01 2.391214e+01 3.152463e+01 3.744561e+01 3.232423e+01 3.168474e+01 4.039536e+01 4.772367e+01 1.138462e-02 4.187468e-01 4.835857e-01 1.320814e+00 1.008000e+00 1.548170e+00 1.135292e+00 1.912568e+00 2.136894e+00 2.211584e+00 1.873358e+00 1.934518e+00 1.960464e+00 1.825423e-04 6.566297e-02 7.900357e-02 1.896816e-01 1.693082e-01 2.243693e-01 2.233014e-01 2.808233e-01 3.342265e-01 3.152174e-01 3.455361e-01 3.662317e-01 3.514686e-01 2.436105e-05
<GCONST> 7.344371e+01
<MIXTURE> 2 5.429036e-01
<MEAN> 39
 2.565638e+00 -9.999649e+00 -5.812887e+00 3.578321e+00 -3.358350e+00 -2.783595e+00 7.681788e+00 3.174365e+00 -7.436537e+00 -2.795188e+00 -1.120710e+00 -9.047601e-01 9.171984e-01 5.938866e-01 3.366689e-01 -4.247373e-01 6.216925e-01 7.149389e-01 -7.809591e-01 -5.077659e-01 7.754763e-01 8.914940e-01 -6.199974e-01 -8.613827e-02 3.610708e-01 -9.334940e-03 -1.135053e-01 3.944770e-01 4.272949e-01 -5.916547e-01 -4.078478e-03 4.549161e-01 -4.268040e-01 -4.149388e-01 6.976824e-01 2.969014e-01 -3.518687e-01 -3.313051e-02 -2.522408e-03
<VARIANCE> 39
 1.100920e+01 2.241942e+01 2.167679e+01 2.688067e+01 2.523949e+01 3.059327e+01 2.995675e+01 6.938468e+01 2.791862e+01 3.085739e+01 2.902929e+01 3.568390e+01 3.068974e-03 5.499808e-01 7.081347e-01 3.328049e+00 2.571821e+00 3.439346e+00 2.152489e+00 2.420334e+00 3.729907e+00 2.839236e+00 3.372637e+00 2.690407e+00 3.189659e+00 9.130043e-05 5.876405e-02 9.959345e-02 2.144026e-01 2.321049e-01 2.847956e-01 3.107873e-01 4.667331e-01 4.656447e-01 4.273665e-01 4.744532e-01 3.874122e-01 4.526791e-01 1.489151e-05
<GCONST> 7.972748e+01
<TRANSP> 5
 0.000000e+00 1.000000e+00 0.000000e+00 0.000000e+00 0.000000e+00
 0.000000e+00 8.547655e-01 1.452345e-01 0.000000e+00 0.000000e+00
 0.000000e+00 0.000000e+00 8.251860e-01 1.748140e-01 0.000000e+00
 0.000000e+00 0.000000e+00 0.000000e+00 8.553764e-01 1.446236e-01
 0.000000e+00 0.000000e+00 0.000000e+00 0.000000e+00 0.000000e+00
<ENDHMM>
~h "liN"
<BEGINHMM>
<NUMSTATES> 5
<STATE> 2
<NUMMIXES> 2
<MIXTURE> 1 5.234570e-01
<MEAN> 39
 9.662924e-01 2.400999e+00 6.557169e+00 -5.567470e+00 -3.036311e+00 6.303073e-01 -1.999132e+00 -2.358229e+00 3.648481e+00 -1.910677e+00 -7.735459e-01 1.897057e-01 8.170702e-01 -7.084450e-01 1.489847e+00 -8.536221e-01 -9.527905e-01 5.151254e-01 -2.270339e-01 -4.835710e-01 1.474403e+00 5.878929e-01 -1.726057e-01 7.394029e-01 -2.302339e-01 6.458385e-03 -1.231203e-01 7.049073e-02 -6.446540e-01 -6.424066e-02 9.953936e-02 -3.485410e-01 3.306608e-01 3.038317e-01 -2.053673e-01 1.613873e-01 5.777790e-02 -3.352938e-01 5.378644e-03
<VARIANCE> 39
 1.693325e+01 4.326804e+01 3.431350e+01 4.044905e+01 3.289400e+01 3.430031e+01 3.635144e+01 4.411236e+01 3.864142e+01 3.869481e+01 3.483892e+01 3.586517e+01 6.987290e-03 1.736697e+00 2.591324e+00 4.229933e+00 4.265881e+00 3.577551e+00 3.755655e+00 4.993380e+00 5.330520e+00 4.405935e+00 4.219198e+00 3.472881e+00 3.412131e+00 6.722684e-04 2.515903e-01 2.643601e-01 7.525854e-01 8.500575e-01 6.141425e-01 6.957613e-01 7.524232e-01 1.048105e+00 7.417926e-01 7.731185e-01 6.923572e-01 5.377932e-01 9.707142e-05
<GCONST> 1.027325e+02
<MIXTURE> 2 4.765381e-01
<MEAN> 39
 -1.473081e+00 7.608243e+00 -1.470664e+00 -9.404607e+00 -3.130404e-02 -4.086573e+00 4.481490e-01 3.995700e+00 2.164378e+00 -4.663819e-01 -4.852884e-01 -4.501545e+00 8.808018e-01 -5.559514e-01 1.293095e+00 -1.638519e+00 -5.348145e-02 -1.951582e-01 -9.668099e-01 6.810865e-01 -6.741280e-02 9.575585e-02 5.006726e-01 -5.904524e-01 -5.474648e-01 1.421854e-02 3.170563e-01 -1.283137e-01 4.069478e-01 6.289493e-01 -2.246829e-01 1.580609e-01 -2.144243e-01 -5.828249e-01 -7.883006e-02 -1.481960e-01 -1.099278e-01 3.175973e-01 -6.630881e-03
<VARIANCE> 39
 1.005381e+01 3.245550e+01 2.201442e+01 1.945049e+01 2.061561e+01 3.033763e+01 2.832420e+01 2.474468e+01 2.798217e+01 2.390462e+01 3.726741e+01 3.512920e+01 4.462225e-03 9.274419e-01 1.296006e+00 2.191285e+00 3.090978e+00 2.464273e+00 2.544817e+00 3.173434e+00 3.464392e+00 2.562129e+00 2.828960e+00 3.484488e+00 2.776526e+00 4.058619e-04 1.359574e-01 2.456999e-01 2.925617e-01 3.775227e-01 4.739014e-01 4.863563e-01 5.391897e-01 5.860650e-01 5.111685e-01 5.373623e-01 5.433003e-01 4.217330e-01 5.702882e-05
<GCONST> 8.679765e+01
<STATE> 3
<NUMMIXES> 2
<MIXTURE> 1 5.108655e-01
<MEAN> 39
 -2.051072e+00 1.068113e+01 -8.036735e-01 -6.566775e+00 -1.266622e+00 -2.957228e+00 -2.083290e+00 2.820608e+00 4.736728e+00 8.378169e-01 3.535273e+00 -1.210422e+00 8.952208e-01 2.022635e-01 2.235621e-01 -2.710591e-01 2.650642e-01 3.432584e-01 -3.904817e-02 -1.849273e-02 -6.224087e-02 -3.248671e-01 -7.056793e-03 -1.016097e-01 -6.337468e-02 -1.592126e-03 1.318314e-01 -2.331879e-01 4.244116e-02 6.120529e-02 1.224609e-01 8.408420e-02 3.078120e-02 -5.942862e-02 -1.221799e-01 -6.714417e-02 -2.114539e-01 6.954765e-02 -1.674254e-03
<VARIANCE> 39
 9.371498e+00 2.743962e+01 1.677967e+01 1.775352e+01 1.598647e+01 2.392993e+01 2.071901e+01 2.041030e+01 2.371743e+01 2.349781e+01 2.158300e+01 1.668388e+01 5.630529e-03 2.450944e-01 5.795660e-01 5.169849e-01 7.347303e-01 7.392062e-01 9.291584e-01 7.763208e-01 7.686605e-01 8.871552e-01 1.083297e+00 1.159192e+00 7.901017e-01 6.029024e-05 4.058033e-02 6.661435e-02 9.675488e-02 1.301567e-01 1.239422e-01 1.661879e-01 1.507060e-01 1.577540e-01 1.655641e-01 1.708901e-01 1.641389e-01 1.414613e-01 1.349120e-05
<GCONST> 5.184104e+01
<MIXTURE> 2 4.891290e-01
<MEAN> 39
 -5.378326e-02 1.021440e+01 -8.089442e+00 -2.339790e+00 -1.707284e+00 -5.523201e+00 3.253281e+00 -9.851769e-01 9.886265e-01 -2.042078e+00 -6.360057e+00 -4.225958e+00 8.733409e-01 4.234466e-01 -1.587268e-02 -2.487092e-01 8.659045e-01 5.556510e-02 -1.167924e-01 2.083122e-02 -5.115216e-01 -1.710781e-01 -3.831739e-01 -1.833185e-01 2.196473e-01 -2.415186e-03 1.091564e-01 -2.329859e-01 2.812555e-01 -6.490965e-02 9.271193e-02 9.404850e-03 -8.374994e-02 4.660831e-02 -6.260438e-02 6.114135e-03 1.731781e-01 2.125746e-02 -2.864039e-04
<VARIANCE> 39
 1.218976e+01 2.959960e+01 1.643389e+01 2.802807e+01 3.292384e+01 2.724679e+01 2.396276e+01 2.740373e+01 3.151221e+01 3.022504e+01 3.239826e+01 3.462823e+01 5.711399e-03 2.609239e-01 7.883791e-01 8.664455e-01 1.303907e+00 1.597088e+00 1.483317e+00 1.397349e+00 1.649218e+00 1.973747e+00 1.634161e+00 1.635843e+00 1.623879e+00 6.233330e-05 4.772760e-02 9.683297e-02 1.709858e-01 1.889850e-01 2.510511e-01 2.561943e-01 2.617633e-01 2.686199e-01 2.788607e-01 2.735457e-01 2.521585e-01 2.620048e-01 7.936186e-06
<GCONST> 6.716156e+01
<STATE> 4
<NUMMIXES> 2
<MIXTURE> 1 4.803100e-01
<MEAN> 39
 3.214747e+00 6.937413e+00 -1.690588e+00 -1.891855e+00 1.689825e+00 -5.567722e+00 -1.410784e+00 -1.210032e-01 -1.008509e+00 -1.779751e+00 -2.402240e+00 -8.747752e-01 8.696691e-01 1.025931e+00 -1.427108e+00 1.297046e+00 3.836601e-01 2.241991e-01 -2.138488e-01 -2.842292e-01 -2.882687e-01 -5.954723e-01 1.563639e-01 -1.603979e-01 4.829662e-01 -1.526444e-04 -1.497339e-02 -6.754418e-02 1.994117e-01 -1.481152e-01 -1.603046e-01 -3.632772e-02 -4.523296e-02 -8.187079e-02 1.048634e-01 6.105379e-02 5.270166e-02 -2.517866e-02 2.247361e-04
<VARIANCE> 39
 1.702889e+01 3.792343e+01 4.150253e+01 4.409370e+01 3.897134e+01 4.914222e+01 5.153873e+01 4.830264e+01 3.935854e+01 4.039731e+01 4.642911e+01 4.115274e+01 6.973123e-03 5.352550e-01 1.358567e+00 2.829317e+00 2.698819e+00 2.897709e+00 3.494034e+00 3.208588e+00 3.502791e+00 3.278901e+00 3.020382e+00 3.763973e+00 2.582416e+00 1.091694e-04 1.011370e-01 2.732577e-01 4.458603e-01 4.602772e-01 4.746524e-01 5.867823e-01 5.327733e-01 5.220541e-01 5.057885e-01 4.753588e-01 4.696888e-01 4.181323e-01 1.144551e-05
<GCONST> 9.073016e+01
<MIXTURE> 2 5.196791e-01
<MEAN> 39
 6.998312e+00 2.128373e+00 4.422539e+00 -1.210010e+00 1.327267e+00 -7.047904e+00 -1.949147e+00 -3.553296e+00 -1.732008e+00 -1.998472e+00 -3.490195e+00 -1.368700e+00 8.592568e-01 2.551465e-01 -1.495468e-01 4.421711e-01 -4.990366e-02 -1.464861e-01 -7.510040e-02 -4.332394e-01 -3.360212e-01 -1.101202e-01 -4.473214e-02 4.251373e-02 2.468015e-02 -5.691544e-03 -1.549374e-01 2.606342e-01 -2.054386e-01 1.203394e-01 -7.772550e-03 1.658607e-01 -2.487603e-03 1.162020e-01 5.137138e-02 2.230999e-02 1.041300e-01 1.820018e-02 -2.961986e-03
<VARIANCE> 39
 1.096213e+01 3.142026e+01 3.258537e+01 2.945057e+01 3.109604e+01 3.984660e+01 4.118143e+01 4.540191e+01 4.281540e+01 4.655450e+01 4.249267e+01 4.128592e+01 8.172254e-03 3.377851e-01 8.636360e-01 1.324422e+00 1.276824e+00 1.333656e+00 1.563651e+00 1.870885e+00 1.759604e+00 1.796155e+00 1.825469e+00 1.891246e+00 1.659987e+00 1.264555e-04 8.667594e-02 1.417820e-01 2.446061e-01 2.578598e-01 2.535910e-01 2.977107e-01 3.397554e-01 3.445022e-01 3.524274e-01 3.657968e-01 3.713284e-01 3.231832e-01 1.994201e-05
<GCONST> 7.699465e+01
<TRANSP> 5
 0.000000e+00 1.000000e+00 0.000000e+00 0.000000e+00 0.000000e+00
 0.000000e+00 8.264282e-01 1.735718e-01 0.000000e+00 0.000000e+00
 0.000000e+00 0.000000e+00 8.745033e-01 1.254967e-01 0.000000e+00
 0.000000e+00 0.000000e+00 0.000000e+00 9.003708e-01 9.962920e-02
 0.000000e+00 0.000000e+00 0.000000e+00 0.000000e+00 0.000000e+00
<ENDHMM>
~h "san"
<BEGINHMM>
<NUMSTATES> 5
<STATE> 2
<NUMMIXES> 2
<MIXTURE> 1 7.151574e-01
<MEAN> 39
 -9.821262e+00 -3.356708e-01 2.331169e+00 5.865134e+00 3.477796e+00 7.057199e+00 4.080301e+00 7.925380e+00 4.579001e+00 3.141613e+00 3.283756e+00 1.959877e+00 1.674185e-01 -4.307727e-01 -4.521202e-01 -3.123027e-01 -1.931498e-01 9.811693e-02 1.628727e-01 2.087952e-01 1.265873e-01 2.441893e-01 1.090259e-01 2.030917e-01 1.727808e-01 -1.218376e-02 7.416006e-01 2.001289e-01 3.786093e-02 -3.845045e-01 -3.097411e-01 -2.588835e-01 -1.331022e-01 -4.622032e-01 -1.952082e-01 -2.135127e-01 -2.331058e-01 -8.019865e-02 3.337937e-02
<VARIANCE> 39
 1.983113e+01 2.613720e+01 2.334718e+01 2.032305e+01 2.578151e+01 2.658811e+01 3.645026e+01 3.761623e+01 2.611121e+01 2.754428e+01 2.587236e+01 2.283025e+01 2.139001e-02 1.706404e+00 1.616608e+00 1.501424e+00 1.648567e+00 1.902558e+00 2.338658e+00 2.378210e+00 2.867254e+00 2.397868e+00 2.300305e+00 2.249314e+00 1.928428e+00 4.085287e-03 3.521795e-01 2.519743e-01 3.188890e-01 5.296422e-01 5.018976e-01 4.980595e-01 5.595670e-01 6.508314e-01 5.415148e-01 5.107880e-01 5.959117e-01 4.496360e-01 7.407209e-04
<GCONST> 9.355920e+01
<MIXTURE> 2 2.848371e-01
<MEAN> 39
 -7.104164e+00 4.063388e-01 2.194562e+00 3.897825e+00 3.168710e+00 6.941692e+00 3.566462e+00 6.064762e+00 4.844273e+00 2.352764e+00 3.254434e+00 2.461005e+00 3.855975e-01 3.631884e+00 -5.772868e-01 -9.022301e-01 -3.081406e+00 -2.047036e+00 -9.514455e-01 1.504671e-01 -2.465707e+00 -9.335170e-01 -1.043499e+00 -9.275847e-01 1.887237e-01 1.749997e-01 3.035441e-01 -7.730882e-01 -3.717211e-01 -5.240923e-01 -2.809382e-01 -6.952143e-02 4.837696e-02 -8.459553e-01 -5.956063e-01 -3.557167e-01 -3.033682e-01 -3.011336e-02 2.726074e-02
<VARIANCE> 39
 2.863268e+01 2.739705e+01 2.178725e+01 2.753034e+01 2.896682e+01 2.774086e+01 3.147189e+01 4.542853e+01 2.352295e+01 3.248829e+01 3.542473e+01 2.504934e+01 4.639631e-02 1.260538e+00 2.023685e+00 2.337382e+00 4.436563e+00 2.631554e+00 2.214684e+00 4.782951e+00 4.424918e+00 4.480338e+00 3.126279e+00 6.207844e+00 3.690307e+00 1.431544e-03 6.869049e-01 2.948476e-01 3.028692e-01 7.280941e-01 6.238284e-01 5.177163e-01 6.937857e-01 6.901775e-01 5.903342e-01 7.343852e-01 7.052035e-01 5.834134e-01 8.073156e-04
<GCONST> 1.025412e+02
<STATE> 3
<NUMMIXES> 2
<MIXTURE> 1 5.459154e-01
<MEAN> 39
 -2.614062e+00 -1.156116e+01 -3.330253e+00 -2.815665e+00 2.406771e+00 6.422680e+00 4.926724e-01 -8.574824e+00 -3.840641e+00 -1.656375e+00 9.714019e-01 1.574711e+00 9.486019e-01 -1.202482e+00 -1.086399e+00 2.343111e-01 1.552682e+00 1.474808e+00 -3.137310e-01 -2.052568e+00 -8.783886e-01 -5.049556e-01 7.150304e-01 3.616154e-01 -7.386487e-01 1.134816e-02 1.099842e-01 6.580044e-01 4.332055e-01 2.274987e-01 -2.410727e-01 -3.222743e-01 -3.578240e-02 7.606489e-01 5.381384e-01 2.351618e-01 -9.906937e-02 -5.759549e-02 -1.805399e-02
<VARIANCE> 39
 1.140970e+01 2.622449e+01 1.422998e+01 2.956320e+01 2.798771e+01 2.831488e+01 6.308687e+01 3.312710e+01 4.805758e+01 3.442714e+01 4.949131e+01 2.752450e+01 1.840990e-03 7.592838e-01 8.635865e-01 9.351985e-01 1.438609e+00 1.693318e+00 2.820420e+00 1.806029e+00 2.198684e+00 2.057670e+00 2.006723e+00 3.348257e+00 2.402553e+00 1.781454e-04 2.667377e-01 1.287883e-01 1.741270e-01 5.921887e-01 4.356374e-01 3.699919e-01 6.774343e-01 4.840080e-01 4.344584e-01 5.789847e-01 5.725299e-01 4.857663e-01 1.623804e-04
<GCONST> 8.378956e+01
<MIXTURE> 2 4.540814e-01
<MEAN> 39
 2.729685e+00 -5.354168e+00 -2.023826e+00 -6.300525e+00 -4.021238e+00 4.104514e+00 5.407804e+00 -2.995041e+00 1.520219e-01 -1.751075e+00 -1.229866e+00 2.489288e+00 8.618306e-01 7.777349e-01 -2.845514e+00 -1.373688e+00 -1.615083e+00 -6.832406e-02 2.631752e-01 4.293086e-03 -3.138310e+00 -2.012549e+00 -1.152974e+00 -7.486861e-01 -2.867123e-03 1.146433e-01 -1.394066e+00 -1.665169e-01 2.383661e-01 1.267795e+00 1.116574e+00 3.385948e-01 -5.994369e-01 3.195875e-01 3.177121e-02 4.235566e-01 4.762712e-01 -1.612549e-01 -4.298385e-02
<VARIANCE> 39
 9.454012e+00 3.197000e+01 1.321424e+01 3.073693e+01 2.014592e+01 2.567696e+01 3.362107e+01 3.978558e+01 4.009738e+01 2.494806e+01 7.129991e+01 2.477070e+01 4.879620e-03 4.618838e+00 1.647202e+00 1.611809e+00 5.097801e+00 4.509592e+00 2.790533e+00 5.676246e+00 4.191844e+00 4.111143e+00 4.974842e+00 4.914667e+00 3.850953e+00 3.568128e-03 1.733307e-01 3.780915e-01 3.483092e-01 6.944966e-01 4.021009e-01 4.584714e-01 5.606322e-01 6.757809e-01 6.323545e-01 5.552847e-01 1.136948e+00 7.680364e-01 1.626789e-04
<GCONST> 9.935286e+01
<STATE> 4
<NUMMIXES> 2
<MIXTURE> 1 5.176300e-01
<MEAN> 39
 3.206078e+00 -1.904914e+00 2.857824e+00 -5.227323e+00 -4.549286e-01 -1.659012e+00 -5.333130e+00 -5.021391e+00 -1.583460e+00 -2.764479e+00 -1.893691e+00 -3.871516e-01 8.838801e-01 8.755423e-01 1.228720e+00 5.997416e-01 -2.059288e-01 -3.109292e-01 -1.005836e+00 -9.646393e-02 2.860478e-01 2.610905e-01 6.387810e-02 -7.144985e-02 -3.584775e-02 -6.874766e-03 -6.147299e-02 -1.744161e-02 -1.594591e-02 1.845098e-01 5.982806e-02 4.851218e-02 2.667313e-02 -3.812985e-02 -3.164490e-02 9.384297e-02 9.058082e-02 1.136798e-02 -1.248369e-03
<VARIANCE> 39
 2.698380e+01 4.841950e+01 2.806183e+01 2.657090e+01 3.020221e+01 5.385401e+01 4.560907e+01 4.294918e+01 4.489255e+01 4.684259e+01 4.823293e+01 3.919174e+01 5.744563e-03 6.693641e-01 1.060935e+00 1.371128e+00 1.754443e+00 1.813237e+00 3.106261e+00 2.215491e+00 2.257856e+00 2.279970e+00 2.402170e+00 2.051704e+00 1.986316e+00 1.127845e-04 1.202166e-01 1.807348e-01 2.350834e-01 2.906138e-01 3.163823e-01 6.255198e-01 4.027261e-01 4.023912e-01 4.286216e-01 4.473390e-01 3.684877e-01 3.462703e-01 1.705472e-05
<GCONST> 8.372421e+01
<MIXTURE> 2 4.823591e-01
<MEAN> 39
 -2.835348e+00 -1.019597e+01 -4.049518e-01 5.208223e-01 2.696579e+00 2.514627e+00 -3.932011e+00 -6.806056e+00 -2.718446e+00 -1.008875e+00 -5.273287e-01 -7.271115e-01 9.283867e-01 2.191810e-01 4.403833e-01 2.312003e-01 -1.940077e-01 -2.507321e-01 -1.245266e-01 -3.246534e-01 1.898383e-01 4.465015e-02 -2.408349e-01 -2.051010e-01 -3.413868e-02 -4.509554e-03 1.600683e-01 1.690348e-01 -2.851405e-02 -2.273588e-01 -1.526372e-01 1.199524e-02 1.390407e-01 5.479552e-02 1.012356e-02 -1.252857e-01 -3.199932e-02 5.541211e-02 -8.681290e-04
<VARIANCE> 39
 1.391594e+01 2.824333e+01 1.558744e+01 2.164350e+01 2.318978e+01 2.998775e+01 4.441070e+01 2.949018e+01 3.292879e+01 3.327380e+01 2.876889e+01 2.760492e+01 2.595697e-03 2.655173e-01 4.473829e-01 5.348788e-01 1.044603e+00 8.296657e-01 1.013843e+00 9.887342e-01 1.053313e+00 1.400549e+00 1.277032e+00 1.032264e+00 8.828910e-01 3.871243e-05 3.534954e-02 5.960933e-02 8.127762e-02 1.226422e-01 1.385731e-01 1.810909e-01 1.720676e-01 1.771570e-01 1.757172e-01 2.174484e-01 1.975717e-01 1.588440e-01 5.283649e-06
<GCONST> 5.557767e+01
<TRANSP> 5
 0.000000e+00 1.000000e+00 0.000000e+00 0.000000e+00 0.000000e+00
 0.000000e+00 8.625711e-01 1.374289e-01 0.000000e+00 0.000000e+00
 0.000000e+00 0.000000e+00 8.131729e-01 1.868272e-01 0.000000e+00
 0.000000e+00 0.000000e+00 0.000000e+00 9.378909e-01 6.210908e-02
 0.000000e+00 0.000000e+00 0.000000e+00 0.000000e+00 0.000000e+00
<ENDHMM>
~h "sil"
<BEGINHMM>
<NUMSTATES> 5
<STATE> 2
<NUMMIXES> 3
<MIXTURE> 1 5.347555e-01
<MEAN> 39
 5.750619e+00 1.570969e+00 3.118474e+00 3.543164e+00 2.728388e+00 2.938852e-01 -7.776462e-01 -1.302157e+00 1.745735e-02 -4.789173e-01 -3.592271e-01 -1.560205e-01 6.254253e-01 -2.193116e-01 3.161478e-01 8.857675e-01 6.672820e-01 4.993429e-01 3.680599e-01 -1.667277e-01 -2.157589e-01 -9.552914e-02 -1.873403e-02 -2.363456e-02 -2.241154e-02 -2.648011e-02 -2.351660e-01 -1.271334e-01 1.738500e-02 5.070882e-02 4.286710e-02 7.646491e-02 6.359305e-02 3.185970e-02 -9.665505e-03 -4.080741e-03 -7.695258e-03 -2.785130e-02 -4.678014e-03
<VARIANCE> 39
 2.038770e+01 5.010722e+01 4.231647e+01 4.757821e+01 4.208792e+01 4.214594e+01 4.318488e+01 4.256312e+01 4.308750e+01 3.494360e+01 3.439350e+01 3.095872e+01 4.386960e-02 7.502227e-01 9.064913e-01 1.237328e+00 1.316092e+00 1.593802e+00 1.674027e+00 1.963748e+00 1.954264e+00 1.973925e+00 2.033288e+00 1.928199e+00 1.885825e+00 5.404805e-04 9.616613e-02 1.348848e-01 1.939004e-01 1.952101e-01 2.433363e-01 2.778603e-01 3.140585e-01 3.132668e-01 3.370740e-01 3.450609e-01 3.096122e-01 2.850514e-01 6.312772e-05
<GCONST> 8.307677e+01
<MIXTURE> 2 2.664039e-01
<MEAN> 39
 -9.192725e-01 9.410932e-01 4.281677e+00 3.211966e+00 3.276330e+00 3.909352e+00 2.207054e+00 3.213461e+00 3.894956e+00 3.054001e+00 2.281391e+00 2.508049e+00 1.792350e-01 1.415193e+00 3.952288e-01 -9.000622e-01 -9.883854e-01 -1.075957e+00 -1.313527e+00 -1.074109e+00 -1.206057e+00 -9.720204e-01 -1.515882e-01 -5.675092e-02 -4.655681e-02 1.650700e-01 -9.710800e-02 -9.686523e-03 -2.137179e-01 -1.818282e-01 -1.012279e-01 -5.104836e-02 -7.082728e-02 -5.475819e-03 -1.320866e-01 -1.574037e-01 -9.083913e-02 -7.931271e-02 1.373291e-03
<VARIANCE> 39
 3.521225e+01 6.374030e+01 3.679044e+01 3.370175e+01 3.356463e+01 4.250050e+01 3.739237e+01 4.636409e+01 3.489090e+01 4.042474e+01 3.540747e+01 3.027677e+01 9.063085e-02 4.322435e+00 6.583362e+00 4.406031e+00 3.851239e+00 3.790195e+00 4.264641e+00 4.053349e+00 4.022019e+00 3.710894e+00 4.213003e+00 3.689901e+00 3.258384e+00 5.376566e-03 3.889181e-01 4.247609e-01 3.584527e-01 4.217124e-01 3.704461e-01 3.813552e-01 4.334044e-01 4.079910e-01 4.361505e-01 4.610407e-01 4.137481e-01 3.861836e-01 6.792934e-04
<GCONST> 1.067175e+02
<MIXTURE> 3 1.988302e-01
<MEAN> 39
 2.777687e+00 -6.330496e-02 7.686624e+00 1.031150e+01 9.453008e+00 6.063565e+00 3.214934e+00 -3.715059e-01 1.438354e+00 3.932351e-01 -5.069671e-01 -1.324361e+00 4.929013e-01 -1.109383e+00 -1.035843e+00 -2.675685e-01 -1.231221e-02 -1.481949e-01 2.748058e-01 1.346943e-01 9.992337e-02 4.247500e-01 3.888312e-01 3.992490e-01 1.969025e-01 -6.528603e-02 -9.345011e-02 -2.124903e-01 -5.009618e-01 -5.330467e-01 -5.139539e-01 -4.012567e-01 -2.354657e-01 5.462238e-03 1.319567e-02 1.078292e-01 1.700725e-01 2.017689e-01 -1.134547e-02
<VARIANCE> 39
 1.657923e+01 4.042938e+01 3.071746e+01 3.067828e+01 2.914923e+01 3.202153e+01 3.592705e+01 4.476654e+01 4.308333e+01 3.719524e+01 3.739837e+01 2.995006e+01 2.820202e-02 5.206036e-01 1.155251e+00 2.120182e+00 2.158383e+00 2.535510e+00 2.548282e+00 2.451992e+00 2.309736e+00 2.441776e+00 2.220052e+00 2.209448e+00 2.131757e+00 1.398758e-03 8.295719e-02 1.736323e-01 2.457455e-01 2.505523e-01 3.317973e-01 3.551364e-01 4.214625e-01 4.518903e-01 4.942426e-01 4.544319e-01 4.209936e-01 3.909887e-01 9.898827e-05
<GCONST> 8.802445e+01
<STATE> 3
~s "silst"
<STATE> 4
<NUMMIXES> 3
<MIXTURE> 1 2.593468e-01
<MEAN> 39
 -1.087670e+00 -1.285303e+00 6.461329e+00 6.332655e+00 6.068578e+00 4.397493e+00 9.489313e-01 2.588797e+00 3.268539e+00 3.268804e+00 1.660482e+00 1.518258e+00 1.816217e-01 -1.180793e+00 -1.055108e+00 -3.110967e-01 1.197189e-01 6.869453e-01 1.341605e+00 1.521298e+00 1.794573e+00 1.599385e+00 1.254754e+00 7.123985e-01 3.175075e-01 -8.884825e-02 2.537864e-01 1.940262e-01 -6.024843e-02 -1.100472e-01 -1.648838e-01 -2.469252e-01 -1.782402e-01 -1.740123e-01 -1.512432e-01 -1.668346e-01 -1.113105e-01 -8.925546e-02 1.270075e-02
<VARIANCE> 39
 1.840232e+01 3.559906e+01 2.743344e+01 3.224429e+01 3.159811e+01 3.851495e+01 4.348024e+01 4.013394e+01 4.164843e+01 3.874463e+01 4.084227e+01 3.371418e+01 2.606076e-02 9.245284e-01 1.135367e+00 1.610658e+00 1.730124e+00 2.194363e+00 2.631519e+00 2.562661e+00 2.754502e+00 2.806437e+00 2.974870e+00 3.477675e+00 3.409143e+00 2.573153e-03 7.591064e-02 1.298225e-01 1.685470e-01 1.740589e-01 2.637878e-01 3.173579e-01 3.695453e-01 4.033580e-01 4.238325e-01 4.446425e-01 4.059038e-01 3.552639e-01 1.499596e-04
<GCONST> 8.895270e+01
<MIXTURE> 2 3.209780e-01
<MEAN> 39
 4.425779e+00 2.652931e+00 1.472787e+00 -6.445443e-02 1.356456e-01 -1.678577e+00 -3.561843e+00 -2.540937e+00 -1.908432e+00 -4.827285e-01 -1.081816e-01 4.646604e-01 6.435944e-01 -6.725900e-01 -4.670407e-01 -6.240032e-01 -3.931403e-01 -5.236444e-02 1.986327e-02 1.516915e-01 2.645672e-01 -8.661919e-02 8.246375e-02 1.139684e-02 -1.336055e-01 3.212247e-02 -5.019123e-01 -2.476852e-01 3.893273e-02 1.441806e-01 2.326337e-01 3.703234e-01 4.424636e-01 4.708741e-01 4.455312e-01 2.125759e-01 1.171466e-01 7.399437e-02 -2.659915e-02
<VARIANCE> 39
 3.830701e+01 6.291409e+01 5.976421e+01 5.359293e+01 4.171860e+01 4.288636e+01 4.897814e+01 5.092294e+01 4.838950e+01 4.503322e+01 4.988515e+01 4.477351e+01 3.824322e-02 2.940084e+00 3.118169e+00 3.065881e+00 3.085617e+00 2.470541e+00 2.945061e+00 3.309122e+00 3.900801e+00 4.495278e+00 3.799335e+00 3.750581e+00 3.828283e+00 1.100168e-02 3.967797e-01 4.047420e-01 5.119273e-01 4.933597e-01 3.975718e-01 5.075197e-01 6.000054e-01 6.328627e-01 6.288214e-01 6.011658e-01 6.654649e-01 6.290457e-01 3.552240e-04
<GCONST> 1.094193e+02
<MIXTURE> 3 4.196719e-01
<MEAN> 39
 -4.314322e+00 -2.892308e+00 2.284152e+00 4.495592e+00 3.908410e+00 4.919981e+00 2.202334e+00 3.049642e+00 3.800632e+00 2.485601e+00 2.467857e+00 1.780632e+00 9.975105e-02 -7.145905e-01 -1.915490e-01 -4.672426e-01 -1.220891e-01 -3.151067e-01 -1.892548e-01 -2.372325e-01 -6.112462e-02 -7.359983e-02 2.158257e-02 1.715458e-01 1.235896e-01 -1.793245e-02 1.686038e-01 1.801204e-01 1.122682e-01 9.965485e-02 8.264994e-02 3.995652e-03 -1.404309e-02 -7.183564e-02 -6.155104e-02 -7.355151e-02 -8.467273e-02 -6.242679e-02 8.747425e-03
<VARIANCE> 39
 3.268374e+01 4.006956e+01 2.777074e+01 2.749927e+01 3.332607e+01 3.011556e+01 3.978056e+01 4.601122e+01 3.210956e+01 3.026221e+01 3.070527e+01 2.608377e+01 2.128944e-02 9.332697e-01 1.112444e+00 1.419413e+00 1.776515e+00 1.730459e+00 1.808951e+00 2.065817e+00 1.951813e+00 2.187211e+00 1.976688e+00 1.871834e+00 1.826087e+00 3.018341e-03 8.782713e-02 1.848406e-01 1.939708e-01 2.072191e-01 2.596095e-01 2.866442e-01 3.101161e-01 3.263772e-01 3.487882e-01 3.064246e-01 3.009696e-01 2.974524e-01 1.424638e-04
<GCONST> 8.429064e+01
<TRANSP> 5
 0.000000e+00 1.000000e+00 0.000000e+00 0.000000e+00 0.000000e+00
 0.000000e+00 7.161697e-01 8.580048e-02 1.980298e-01 0.000000e+00
 0.000000e+00 0.000000e+00 6.981262e-01 3.018738e-01 0.000000e+00
 0.000000e+00 1.414596e-02 0.000000e+00 6.671058e-01 3.187483e-01
 0.000000e+00 0.000000e+00 0.000000e+00 0.000000e+00 0.000000e+00
<ENDHMM>
