~o
<STREAMINFO> 1 39
<VECSIZE> 39<NULLD><MFCC_E_D_A_Z><DIAGC>
~s "silst"
<NUMMIXES> 3
<MIXTURE> 1 3.501818e-01
<MEAN> 39
 -3.889012e+00 -2.343095e+00 2.675664e+00 4.276910e+00 4.255805e+00 6.561987e+00 5.021839e+00 6.126681e+00 4.347425e+00 4.185194e+00 3.243895e+00 1.530064e+00 2.085796e-01 -1.830793e+00 -7.956201e-01 -8.816202e-01 4.331145e-01 3.809889e-01 1.050122e+00 1.212620e+00 1.592921e+00 1.169196e+00 1.149325e+00 6.933175e-01 1.990494e-01 -5.843773e-02 5.314328e-01 5.521162e-01 -1.912778e-02 -2.099539e-01 -3.427993e-01 -5.654069e-01 -5.348824e-01 -5.904391e-01 -4.325901e-01 -3.767857e-01 -2.871356e-01 -1.323331e-01 4.136474e-02
<VARIANCE> 39
 2.025993e+01 4.813341e+01 3.306342e+01 3.955856e+01 3.579760e+01 4.224367e+01 4.033209e+01 4.764851e+01 4.231427e+01 4.267107e+01 4.435936e+01 3.580300e+01 3.120345e-02 2.610414e+00 3.259328e+00 3.163747e+00 3.231578e+00 3.156539e+00 4.254101e+00 4.843244e+00 5.530956e+00 4.473460e+00 4.141758e+00 4.127278e+00 3.774276e+00 6.236506e-03 3.736455e-01 6.198637e-01 4.886311e-01 6.799378e-01 6.512831e-01 6.954744e-01 6.668653e-01 7.877825e-01 8.070367e-01 8.988658e-01 8.875845e-01 7.488893e-01 8.705906e-04
<GCONST> 1.111829e+02
<MIXTURE> 2 1.961271e-01
<MEAN> 39
 4.026421e+00 4.962073e+00 4.486397e+00 8.393469e-01 -4.018996e-01 -5.814251e-01 -2.162609e+00 -5.887248e-01 1.485732e+00 1.558473e+00 1.595634e+00 2.571543e+00 5.176945e-01 2.359708e+00 1.798986e+00 -1.190872e+00 -2.187530e+00 -2.004775e+00 -2.190292e+00 -1.876072e+00 -1.483951e+00 -1.295346e+00 -6.410787e-01 -4.914783e-01 -2.892521e-01 1.823300e-01 -6.813240e-01 -4.477390e-01 -3.521741e-01 -1.180922e-01 2.572562e-01 3.486981e-01 3.733773e-01 4.127814e-01 1.443861e-01 -2.454628e-02 -4.488364e-02 -1.613258e-01 -2.203820e-02
<VARIANCE> 39
 3.468180e+01 4.587976e+01 4.868249e+01 4.196231e+01 4.006520e+01 3.965298e+01 4.649056e+01 4.974168e+01 4.449401e+01 4.628864e+01 5.147227e+01 3.845637e+01 3.656898e-02 3.294181e+00 3.640652e+00 5.698786e+00 3.735685e+00 3.764997e+00 4.505108e+00 4.306710e+00 3.853495e+00 4.148596e+00 4.089993e+00 4.331071e+00 4.412077e+00 3.390392e-03 4.873638e-01 3.071777e-01 6.121445e-01 7.474380e-01 6.246095e-01 6.306683e-01 7.859935e-01 7.266577e-01 8.114502e-01 7.492352e-01 8.276926e-01 7.207664e-01 5.537507e-04
<GCONST> 1.122922e+02
<MIXTURE> 3 4.536885e-01
<MEAN> 39
 -2.251022e+00 -1.280821e+00 2.078215e+00 2.788922e+00 3.411052e+00 3.644049e+00 2.013095e+00 2.833509e+00 3.203424e+00 1.489477e+00 1.724280e+00 1.131866e+00 3.565558e-02 -1.332593e-01 2.644065e-01 5.216561e-02 6.692851e-02 -1.775839e-01 -1.075895e-01 -1.272637e-01 -9.848888e-02 -1.788442e-01 -7.186104e-02 -8.054186e-02 -8.957593e-02 9.650568e-03 2.024148e-01 1.634511e-01 2.289825e-02 2.124261e-02 -4.903586e-02 -3.932977e-02 -5.261837e-02 -4.500549e-02 -7.295928e-02 -4.380740e-03 -1.911912e-02 1.678007e-02 2.257629e-02
<VARIANCE> 39
 1.261873e+01 4.240168e+01 2.514179e+01 2.724509e+01 2.722322e+01 2.883830e+01 2.826931e+01 3.477123e+01 2.567269e+01 2.754543e+01 2.620534e+01 1.972105e+01 2.505096e-02 1.628655e+00 2.096845e+00 1.567237e+00 1.722227e+00 1.927052e+00 2.090708e+00 2.144867e+00 2.407328e+00 2.242094e+00 2.071677e+00 2.039067e+00 1.663446e+00 5.607684e-03 2.293951e-01 3.505583e-01 2.805962e-01 3.518389e-01 3.891041e-01 4.153093e-01 4.196544e-01 4.510881e-01 4.658237e-01 4.156993e-01 3.803496e-01 3.412696e-01 7.335070e-04
<GCONST> 9.077296e+01
~h "#i"
<BEGINHMM>
<NUMSTATES> 16
<STATE> 2
<NUMMIXES> 2
<MIXTURE> 1 4.020623e-01
<MEAN> 39
 -9.016028e-01 1.015057e+01 -3.052358e+00 -4.365632e+00 -5.167656e+00 -5.477089e+00 -1.822490e+00 4.561927e-01 1.098209e+00 9.020945e-01 2.174652e+00 1.103029e+00 7.747943e-01 -1.717492e-01 1.008505e+00 -2.124245e-01 6.877606e-01 -5.785478e-01 -1.862140e-01 -4.950245e-01 -2.351406e-01 -9.506658e-02 4.923758e-01 5.663583e-01 5.906505e-01 1.309123e-02 1.280035e-01 -1.689942e-01 1.690790e-01 8.647342e-02 2.380317e-02 2.676643e-01 3.609368e-02 9.239513e-02 -8.430251e-03 -4.690879e-02 -1.816054e-01 -4.689042e-02 -2.252687e-04
<VARIANCE> 39
 1.721672e+01 2.934460e+01 3.062941e+01 3.089251e+01 2.444506e+01 2.784508e+01 4.726283e+01 4.285753e+01 7.170093e+01 8.787119e+01 7.678141e+01 8.537038e+01 1.714506e-02 9.160542e-01 1.991835e+00 1.386239e+00 2.083746e+00 1.709105e+00 3.227008e+00 3.201367e+00 3.090332e+00 4.213189e+00 4.869663e+00 5.403469e+00 6.659172e+00 7.683410e-04 1.506220e-01 2.731437e-01 2.348866e-01 3.710197e-01 3.881072e-01 6.348624e-01 5.121786e-01 5.184618e-01 7.496394e-01 8.633329e-01 7.910682e-01 9.317619e-01 1.808108e-04
<GCONST> 9.974025e+01
<MIXTURE> 2 5.979375e-01
<MEAN> 39
 1.061608e+00 1.290593e+01 -1.414487e+00 -2.249292e+00 -4.255359e+00 -4.659084e+00 -1.884333e+00 1.986523e+00 7.085785e-02 8.502615e-01 4.198476e-01 1.384107e+00 7.400070e-01 -4.838989e-01 1.066516e+00 -6.495801e-01 2.653141e-01 -7.454825e-01 -4.269507e-01 -9.606864e-01 -7.642488e-01 -1.027398e+00 -9.418541e-01 -5.851045e-01 -1.344563e-01 3.329630e-02 -1.457655e-01 -6.958579e-01 1.299385e-01 6.914047e-02 6.714718e-02 2.443255e-01 2.559401e-02 -1.140900e-01 -6.121337e-02 -7.408500e-02 -1.143404e-01 -1.112742e-01 -7.861654e-03
<VARIANCE> 39
 1.286148e+01 3.271715e+01 2.068863e+01 2.675556e+01 2.189342e+01 2.675733e+01 5.059808e+01 2.535191e+01 2.525974e+01 2.985882e+01 3.674008e+01 4.081438e+01 1.422662e-02 8.808820e-01 1.994456e+00 1.194506e+00 2.294137e+00 1.641226e+00 2.216700e+00 1.871934e+00 2.610594e+00 2.236644e+00 2.282065e+00 3.407651e+00 2.469072e+00 1.372989e-03 1.586681e-01 3.554334e-01 3.017427e-01 4.793931e-01 5.396346e-01 5.651788e-01 4.530192e-01 4.041973e-01 3.732150e-01 4.208268e-01 5.089156e-01 5.234028e-01 5.800172e-04
<GCONST> 9.054980e+01
<STATE> 3
<NUMMIXES> 2
<MIXTURE> 1 5.494598e-01
<MEAN> 39
 -1.463558e+00 1.226004e+01 -2.919622e+00 -3.077693e+00 -6.906189e+00 -6.471907e+00 -6.488258e+00 -1.659451e+00 -2.616150e+00 -2.765409e+00 -2.725174e-01 -8.372528e-01 8.424520e-01 -2.210487e-01 5.156953e-01 -3.055293e-02 5.338209e-01 -1.526486e-01 7.143825e-02 -3.481019e-01 -3.029668e-01 -4.218065e-01 -3.924817e-01 4.162949e-02 3.675371e-02 1.477283e-02 1.960911e-01 -1.311258e-01 2.077076e-01 1.752970e-02 2.558672e-01 2.400619e-01 3.217242e-01 2.817594e-01 3.350381e-01 3.151607e-01 1.105686e-01 1.432557e-01 -3.981721e-03
<VARIANCE> 39
 1.207283e+01 3.553540e+01 2.686638e+01 2.312655e+01 2.467405e+01 3.350487e+01 4.157899e+01 3.308768e+01 4.318784e+01 4.546402e+01 6.015753e+01 5.790058e+01 7.339052e-03 4.776348e-01 9.286831e-01 9.399201e-01 1.384536e+00 1.452915e+00 1.339718e+00 1.555939e+00 1.861008e+00 1.666872e+00 1.944753e+00 2.260993e+00 2.456928e+00 2.557249e-04 7.823166e-02 2.057598e-01 2.053955e-01 2.985340e-01 2.921962e-01 3.493311e-01 2.980277e-01 4.117392e-01 3.531170e-01 3.797831e-01 4.866635e-01 4.038461e-01 7.458106e-05
<GCONST> 8.029704e+01
<MIXTURE> 2 4.505406e-01
<MEAN> 39
 1.552626e-01 1.240687e+01 -3.702758e+00 -1.439723e+00 -5.669217e+00 -5.731522e+00 -1.891918e+00 -7.298375e-01 -2.467604e+00 -5.350440e-01 -4.035209e+00 3.378408e+00 8.224420e-01 -7.129823e-01 -4.075935e-01 -6.629226e-01 -2.737876e-01 -7.419663e-01 -9.600422e-01 -1.330578e+00 -1.206233e+00 -1.034986e+00 -1.016093e+00 -8.746139e-01 -5.083075e-01 2.809718e-02 5.430893e-02 -1.020964e-01 9.832900e-02 4.081674e-02 1.066447e-01 6.569967e-02 9.915525e-02 8.171321e-02 1.330147e-01 1.087001e-01 1.871941e-01 5.740428e-03 -5.858563e-03
<VARIANCE> 39
 1.413779e+01 3.084913e+01 1.650081e+01 1.591245e+01 1.368656e+01 1.644276e+01 2.629344e+01 2.529140e+01 2.069987e+01 2.566505e+01 2.772724e+01 2.540934e+01 9.721669e-03 4.888451e-01 5.948096e-01 6.850318e-01 8.876352e-01 1.014130e+00 1.057831e+00 1.119176e+00 1.343576e+00 1.180455e+00 1.411051e+00 2.019271e+00 2.119366e+00 3.056922e-04 1.072270e-01 1.056485e-01 1.131795e-01 1.575785e-01 1.951546e-01 1.875448e-01 2.472732e-01 2.208461e-01 2.472811e-01 2.484155e-01 2.594209e-01 2.475729e-01 8.546455e-05
<GCONST> 6.643283e+01
<STATE> 4
<NUMMIXES> 2
<MIXTURE> 1 3.928359e-01
<MEAN> 39
 -1.491206e+00 1.105316e+01 -5.140417e+00 -2.036969e+00 -6.882592e+00 -7.253607e+00 -4.225024e+00 -3.869910e+00 -4.459960e+00 -1.934109e+00 -4.149803e+00 2.947275e+00 8.865346e-01 1.685755e-01 2.720114e-01 2.783727e-01 5.718479e-01 3.207459e-01 3.789353e-01 1.583152e-01 1.560758e-01 2.920981e-01 1.944120e-01 3.522271e-01 3.958734e-01 1.026044e-02 1.262703e-01 9.312529e-02 1.946766e-01 9.002171e-02 2.067034e-01 1.716065e-01 2.826086e-01 3.819773e-01 3.145334e-01 2.260361e-01 2.048544e-01 3.033145e-02 -3.735676e-03
<VARIANCE> 39
 1.294360e+01 3.192702e+01 1.621229e+01 1.433381e+01 2.295493e+01 2.666347e+01 2.250322e+01 2.590230e+01 2.506125e+01 2.625580e+01 5.292477e+01 5.279963e+01 7.275502e-03 3.010242e-01 5.185191e-01 6.405928e-01 6.672461e-01 9.259974e-01 1.011057e+00 1.238219e+00 1.063796e+00 9.480612e-01 1.143953e+00 1.204592e+00 1.651395e+00 7.719384e-05 4.468822e-02 7.045745e-02 9.375937e-02 1.155168e-01 1.639398e-01 1.794458e-01 1.827546e-01 1.617757e-01 1.794904e-01 1.642449e-01 2.863191e-01 2.553790e-01 2.029924e-05
<GCONST> 5.995980e+01
<MIXTURE> 2 6.071640e-01
<MEAN> 39
 -1.347915e+00 1.538867e+01 5.951088e-01 -1.673486e+00 -6.423696e+00 -4.261561e+00 -9.328859e+00 1.155422e+00 -1.272199e+00 -3.027091e+00 3.069460e+00 -2.817388e+00 8.429980e-01 -1.323168e-01 3.573758e-01 -7.341675e-02 1.501788e-01 -8.005036e-02 -2.906347e-02 -1.482226e-01 -4.557210e-02 -6.379699e-02 -1.577010e-01 -5.927155e-02 -2.726686e-01 1.072095e-02 5.448888e-02 -1.768298e-01 -3.383663e-02 -1.324214e-01 6.166659e-02 -1.751306e-02 7.139193e-02 -7.893200e-02 1.910762e-02 2.647107e-02 -7.614214e-02 6.109630e-02 -2.417627e-03
<VARIANCE> 39
 8.163300e+00 3.166054e+01 1.624144e+01 1.702956e+01 2.097832e+01 2.631600e+01 3.854778e+01 2.557743e+01 3.315725e+01 4.179233e+01 3.168540e+01 2.545075e+01 5.278334e-03 3.040682e-01 5.006172e-01 4.937219e-01 7.015033e-01 6.252294e-01 8.439612e-01 9.625112e-01 1.058438e+00 1.237290e+00 1.037001e+00 9.647622e-01 8.904846e-01 1.406689e-04 5.404593e-02 7.136369e-02 1.036902e-01 1.323314e-01 1.309658e-01 1.664211e-01 1.855986e-01 1.923805e-01 2.159486e-01 1.951332e-01 1.530514e-01 1.627232e-01 1.935721e-05
<GCONST> 5.769191e+01
<STATE> 5
<NUMMIXES> 2
<MIXTURE> 1 4.402232e-01
<MEAN> 39
 -1.150614e+00 1.282171e+01 -1.897562e+00 -1.091085e+00 -5.288811e+00 -4.615264e+00 -5.697770e+00 -7.103393e-01 -1.428807e+00 -2.118467e+00 6.533141e-01 4.036410e-01 8.905762e-01 1.289760e-01 1.848499e-01 1.675929e-01 2.542750e-01 2.832406e-01 1.940132e-01 2.207168e-01 2.089752e-01 2.509514e-01 1.987351e-01 1.938128e-01 1.789633e-01 1.958969e-03 -1.394627e-02 -6.985398e-02 -2.798306e-02 -8.208438e-02 -3.585106e-04 -6.662843e-02 2.762620e-02 -2.596186e-02 1.405583e-02 1.876330e-02 -2.725595e-02 -2.407683e-02 -1.787060e-03
<VARIANCE> 39
 1.325208e+01 4.269486e+01 1.784316e+01 1.607209e+01 1.998701e+01 2.348841e+01 3.570095e+01 2.648819e+01 2.928901e+01 4.076112e+01 4.984487e+01 5.241397e+01 6.588038e-03 1.506480e-01 2.621700e-01 3.419139e-01 4.485023e-01 4.863365e-01 6.311797e-01 6.865259e-01 6.979935e-01 5.626875e-01 6.035321e-01 6.603680e-01 6.789771e-01 4.703216e-05 2.798783e-02 5.049306e-02 6.832205e-02 8.663703e-02 9.953044e-02 1.088589e-01 1.215897e-01 1.186784e-01 1.221051e-01 1.271148e-01 1.309301e-01 1.230001e-01 6.562538e-06
<GCONST> 4.705484e+01
<MIXTURE> 2 5.597703e-01
<MEAN> 39
 -1.759971e+00 1.236735e+01 -1.540397e+00 -1.609547e+00 -4.028270e+00 -5.096050e+00 -5.767263e+00 -4.453048e-01 -2.097139e+00 -2.410282e+00 6.221879e-01 -1.209100e-01 8.906161e-01 -1.972098e-02 -4.931860e-02 -1.004398e-01 -1.225581e-01 -2.795611e-02 -1.149553e-01 -2.365925e-02 -1.240863e-01 -2.533818e-02 -8.647499e-02 -7.261092e-02 -8.069642e-02 3.245985e-04 2.986529e-03 -2.550853e-02 4.230513e-03 -4.402663e-02 -1.168375e-02 -2.222982e-02 8.011513e-03 3.966404e-03 1.265330e-02 1.332776e-02 -2.170173e-03 -6.530565e-03 -1.024351e-03
<VARIANCE> 39
 7.797709e+00 4.809196e+01 1.215570e+01 1.071899e+01 1.450581e+01 2.034675e+01 2.861180e+01 1.685161e+01 2.178215e+01 2.572046e+01 3.917191e+01 2.877610e+01 6.879515e-03 5.606848e-02 1.069389e-01 1.391376e-01 1.841903e-01 2.146430e-01 2.414935e-01 2.646936e-01 2.681810e-01 2.877358e-01 2.573062e-01 2.222074e-01 2.557661e-01 3.754082e-05 9.476576e-03 1.657446e-02 2.317379e-02 2.903254e-02 4.070862e-02 4.095082e-02 4.321890e-02 4.553936e-02 4.964139e-02 4.327625e-02 3.577837e-02 4.667001e-02 3.730629e-06
<GCONST> 1.894240e+01
<STATE> 6
<NUMMIXES> 2
<MIXTURE> 1 5.096723e-01
<MEAN> 39
 -5.377192e-01 9.176240e+00 -3.830488e+00 -1.607967e+00 -5.706356e+00 -5.637217e+00 -4.050353e+00 -2.527777e+00 -2.687474e+00 -3.107230e+00 -2.945487e+00 -2.114062e-01 9.081986e-01 2.211120e-01 1.921715e-01 2.423233e-01 2.760897e-01 3.768016e-01 2.496219e-01 3.637093e-01 2.420295e-01 4.281007e-01 3.351957e-01 2.529190e-01 1.563545e-01 -2.756687e-03 6.149941e-02 4.211290e-02 1.258246e-01 5.485139e-02 1.732364e-01 1.035865e-01 1.354534e-01 1.018784e-01 1.360494e-01 1.608195e-01 9.343027e-02 5.555314e-02 -1.085134e-03
<VARIANCE> 39
 1.243548e+01 5.279954e+01 1.797275e+01 1.677404e+01 2.421036e+01 2.541944e+01 2.692650e+01 2.408226e+01 2.181932e+01 2.748433e+01 4.030318e+01 3.273516e+01 5.423935e-03 1.597134e-01 3.237074e-01 4.862317e-01 5.721604e-01 7.118976e-01 7.740323e-01 8.611996e-01 8.770998e-01 7.574028e-01 8.017086e-01 7.317789e-01 6.745147e-01 3.754082e-05 3.052956e-02 7.322367e-02 1.006428e-01 1.294479e-01 1.502714e-01 1.548303e-01 1.824841e-01 1.814408e-01 1.640835e-01 1.433255e-01 1.551690e-01 1.397747e-01 4.162641e-06
<GCONST> 5.103802e+01
<MIXTURE> 2 4.903253e-01
<MEAN> 39
 1.100183e-01 1.055579e+01 -2.564453e+00 8.121935e-02 -3.858104e+00 -3.946869e+00 -2.109766e+00 -9.067866e-01 -1.435212e+00 -4.627861e-01 -1.831490e+00 1.695501e+00 9.067138e-01 -1.089327e-01 -2.964738e-01 -3.390918e-01 -3.417227e-01 -3.517940e-01 -4.786315e-01 -2.460607e-01 -4.104239e-01 -1.687532e-01 -2.043997e-01 -1.598134e-01 -3.227763e-01 -9.268099e-04 -9.341685e-02 -1.380364e-01 -1.478115e-01 -2.286764e-01 -1.473225e-01 -2.013162e-01 -1.539574e-01 -1.514572e-01 -1.242210e-01 -1.753740e-01 -1.098538e-01 -1.422335e-01 -1.027420e-03
<VARIANCE> 39
 1.196443e+01 4.787945e+01 1.390237e+01 1.424713e+01 1.877183e+01 2.566800e+01 2.061638e+01 2.246564e+01 2.080690e+01 2.439004e+01 3.491348e+01 3.412437e+01 5.711710e-03 1.714798e-01 3.319440e-01 4.646027e-01 6.050128e-01 7.429129e-01 7.218863e-01 8.391412e-01 7.952455e-01 8.547055e-01 9.157891e-01 9.951615e-01 6.968412e-01 3.984522e-05 3.048926e-02 6.615781e-02 9.380278e-02 1.041405e-01 1.319923e-01 1.489477e-01 1.453391e-01 1.795902e-01 1.364601e-01 1.561264e-01 1.448490e-01 1.467767e-01 4.119174e-06
<GCONST> 4.936582e+01
<STATE> 7
<NUMMIXES> 2
<MIXTURE> 1 5.504018e-01
<MEAN> 39
 -1.292907e-01 1.230440e+01 -3.189008e+00 -1.007915e+00 -4.461586e+00 -4.936909e+00 -4.149631e+00 -5.510494e-01 2.438496e+00 1.294708e+00 3.517286e+00 2.468593e+00 8.757747e-01 3.103163e-01 -7.140033e-02 9.816149e-02 1.566732e-01 4.994671e-01 1.024206e-01 3.840229e-02 2.078637e-01 3.856542e-01 4.509274e-01 -1.144564e-01 -4.542283e-02 -5.375150e-03 3.868865e-02 -9.496132e-02 3.545282e-02 -9.691794e-02 7.153840e-02 -4.240011e-02 3.203631e-02 -2.950235e-02 -6.827758e-02 -7.670210e-03 -1.029232e-01 7.295392e-03 -2.226713e-03
<VARIANCE> 39
 2.192549e+01 3.776516e+01 3.247735e+01 2.143305e+01 2.460455e+01 2.034908e+01 3.992764e+01 2.386398e+01 4.734337e+01 7.198727e+01 6.661094e+01 8.467910e+01 6.508364e-03 3.987884e-01 5.536904e-01 8.987343e-01 9.152522e-01 9.287851e-01 8.978238e-01 1.085832e+00 1.039929e+00 1.120991e+00 1.587633e+00 1.277669e+00 1.192428e+00 7.908577e-05 7.321400e-02 1.049476e-01 1.552328e-01 1.607384e-01 1.845803e-01 2.042941e-01 2.245061e-01 2.143942e-01 1.898415e-01 3.069681e-01 2.205909e-01 2.073454e-01 1.204892e-05
<GCONST> 6.741560e+01
<MIXTURE> 2 4.495986e-01
<MEAN> 39
 8.198831e-02 1.455801e+01 -4.670425e+00 -1.269976e+00 -7.195684e+00 -7.481139e+00 -5.677959e+00 -2.495657e+00 -2.583931e+00 -2.266117e+00 -2.460534e+00 5.493740e-01 8.744617e-01 -3.493737e-01 -3.978950e-01 -2.723978e-01 -8.772324e-01 -2.092867e-02 -6.019102e-01 6.360064e-02 -5.145691e-01 4.632220e-02 -3.870144e-01 7.057858e-02 -2.560154e-01 -1.075510e-03 4.495757e-04 -1.318581e-01 2.217014e-01 -2.706637e-01 2.748662e-01 -2.580774e-02 1.490221e-01 1.118818e-01 9.684042e-02 -4.454640e-03 8.323234e-02 -4.015964e-02 -2.457095e-03
<VARIANCE> 39
 1.672830e+01 3.035755e+01 2.537617e+01 1.894608e+01 1.904301e+01 3.036598e+01 3.224977e+01 3.473564e+01 2.736965e+01 2.617655e+01 5.590110e+01 5.874607e+01 5.599050e-03 2.822046e-01 4.102042e-01 7.020816e-01 7.822337e-01 1.049690e+00 1.350862e+00 1.289673e+00 1.148092e+00 1.334749e+00 1.206926e+00 1.256245e+00 1.437531e+00 7.128291e-05 4.944974e-02 9.863435e-02 1.332053e-01 1.796134e-01 1.711510e-01 2.541443e-01 2.869495e-01 2.192244e-01 2.306496e-01 2.237101e-01 2.548656e-01 2.642906e-01 7.887030e-06
<GCONST> 6.408583e+01
<STATE> 8
<NUMMIXES> 2
<MIXTURE> 1 5.966089e-01
<MEAN> 39
 -1.503824e+00 1.308398e+01 -1.965981e+00 -3.600335e+00 -5.617273e+00 -6.985125e+00 -7.390945e+00 -1.658038e+00 -2.171302e+00 -3.479218e+00 -2.943563e-01 -3.134761e+00 8.632752e-01 1.497196e-01 -3.259379e-01 2.941081e-01 -5.794362e-01 5.441420e-01 -7.473107e-02 4.553265e-01 1.082725e-01 3.027509e-01 1.496679e-01 1.111827e-01 5.948364e-04 -8.953121e-03 2.406941e-01 -1.199873e-01 2.828884e-01 7.829159e-02 3.246765e-01 2.755176e-01 2.965650e-01 2.417706e-01 1.331304e-01 1.960082e-01 6.651174e-02 1.595417e-01 -4.894459e-03
<VARIANCE> 39
 1.132152e+01 3.992690e+01 2.367986e+01 2.189564e+01 1.988996e+01 3.334644e+01 3.061864e+01 2.818231e+01 2.869222e+01 2.431514e+01 4.462924e+01 2.924939e+01 6.583550e-03 4.067245e-01 4.543641e-01 7.153128e-01 1.150513e+00 9.719900e-01 1.068211e+00 1.252542e+00 1.043665e+00 1.396715e+00 1.436623e+00 1.535941e+00 1.186652e+00 1.286411e-04 6.285652e-02 1.145886e-01 1.747946e-01 1.928950e-01 2.073176e-01 2.139218e-01 2.904817e-01 2.965632e-01 2.633015e-01 2.457448e-01 3.208073e-01 2.166329e-01 2.387135e-05
<GCONST> 6.682091e+01
<MIXTURE> 2 4.033907e-01
<MEAN> 39
 1.311037e-01 1.203897e+01 -4.829075e+00 -5.182388e-01 -4.486316e+00 -6.112856e+00 -1.790900e+00 -1.850161e+00 1.574630e+00 1.357666e+00 6.818936e-01 4.898322e+00 8.893896e-01 -2.416304e-01 -5.860055e-01 2.065508e-01 -1.038901e+00 6.239250e-01 -7.414321e-01 1.705195e-01 -1.600093e-01 8.625297e-02 1.067453e-02 2.316764e-02 -2.488171e-01 -4.962666e-03 4.234003e-02 -3.114930e-01 2.841001e-01 -3.506042e-01 8.695621e-02 -3.572933e-02 -1.287877e-01 6.144430e-02 -2.799744e-01 -1.465941e-01 -1.561492e-01 -3.286595e-01 -4.632777e-03
<VARIANCE> 39
 2.330644e+01 3.023053e+01 2.554145e+01 1.998153e+01 2.745176e+01 2.318779e+01 2.993046e+01 2.712522e+01 4.299636e+01 5.573289e+01 7.614458e+01 7.667086e+01 5.497081e-03 6.833565e-01 6.608331e-01 1.003882e+00 1.635999e+00 1.749927e+00 1.746217e+00 2.118969e+00 1.575915e+00 1.694589e+00 1.503344e+00 1.794893e+00 2.056428e+00 1.134840e-04 7.580220e-02 1.247565e-01 2.300716e-01 2.311336e-01 3.099532e-01 2.481970e-01 3.140439e-01 3.320641e-01 2.814879e-01 3.423404e-01 3.911159e-01 3.921813e-01 1.370478e-05
<GCONST> 7.622391e+01
<STATE> 9
<NUMMIXES> 2
<MIXTURE> 1 6.445441e-01
<MEAN> 39
 -2.897882e-01 1.233291e+01 -1.784083e+00 -3.254487e+00 -4.594361e+00 -6.831466e+00 -5.954350e+00 -1.137469e+00 -1.792094e+00 -2.854608e+00 -8.676004e-01 -2.380560e+00 8.433167e-01 4.781161e-01 -4.780388e-01 6.451478e-01 -4.043092e-01 9.216252e-01 1.670706e-01 6.593825e-01 3.144989e-01 4.287558e-01 3.199818e-01 2.995282e-01 1.557957e-03 -1.586589e-02 2.068363e-01 -1.078557e-01 3.177187e-01 2.863719e-01 2.781853e-01 4.113627e-01 2.274313e-01 1.092508e-01 6.463935e-02 1.388900e-01 3.897506e-02 1.052437e-01 -7.175557e-03
<VARIANCE> 39
 1.729686e+01 4.017441e+01 2.310929e+01 2.680821e+01 1.988711e+01 2.860718e+01 3.253077e+01 2.862433e+01 2.807309e+01 2.577326e+01 3.894802e+01 2.552022e+01 6.654323e-03 6.655174e-01 8.039518e-01 1.241019e+00 1.844070e+00 1.376664e+00 1.656576e+00 2.364492e+00 1.760979e+00 2.059206e+00 1.894436e+00 2.500627e+00 2.005913e+00 1.902548e-04 1.008562e-01 1.312554e-01 2.283161e-01 2.132252e-01 2.305328e-01 2.611269e-01 3.020003e-01 3.762766e-01 3.475497e-01 2.886068e-01 3.064911e-01 2.620564e-01 3.711055e-05
<GCONST> 7.580866e+01
<MIXTURE> 2 3.554562e-01
<MEAN> 39
 -2.295890e+00 1.170028e+01 -3.948487e+00 -3.480050e+00 -3.473334e+00 -7.107213e+00 -1.578987e+00 -2.269892e+00 2.526986e+00 2.086504e+00 3.834203e+00 5.302703e+00 9.008102e-01 -1.012036e-01 -1.101727e+00 7.084197e-01 -1.618124e+00 9.061314e-01 -6.104004e-01 2.199011e-01 2.876490e-01 -3.641623e-01 2.419726e-02 -5.393445e-01 -6.244907e-01 -1.064107e-02 3.214703e-01 -3.391367e-01 4.344701e-01 4.903533e-02 -7.684783e-02 4.483614e-01 -1.880628e-01 2.222937e-01 -2.945037e-01 -2.794779e-01 -3.791695e-01 -4.097567e-01 -7.695935e-03
<VARIANCE> 39
 1.720708e+01 2.888322e+01 2.742784e+01 1.801928e+01 2.292308e+01 2.330856e+01 4.360260e+01 2.477453e+01 4.522552e+01 6.540975e+01 6.525101e+01 8.923943e+01 4.386156e-03 6.663805e-01 1.014669e+00 1.398130e+00 2.359248e+00 2.261571e+00 1.852776e+00 2.068033e+00 1.951868e+00 1.580981e+00 2.331301e+00 2.518998e+00 2.890980e+00 1.635404e-04 1.148173e-01 2.160113e-01 2.529240e-01 2.129485e-01 3.281352e-01 2.804423e-01 4.476610e-01 3.036130e-01 3.520578e-01 4.929525e-01 3.928359e-01 5.103362e-01 3.658009e-05
<GCONST> 8.221504e+01
<STATE> 10
<MEAN> 39
 -5.776819e-01 1.139010e+01 -1.672054e+00 -4.558473e+00 -2.976489e+00 -7.229088e+00 -3.977510e+00 -1.064664e+00 -2.959951e-01 -8.981820e-01 4.341876e-01 -2.669783e-01 8.468069e-01 6.769006e-01 -9.309829e-01 1.187484e+00 -4.704752e-01 1.030472e+00 6.288517e-01 5.605651e-01 5.311886e-01 1.128803e-01 1.786555e-01 -1.634870e-01 -3.257446e-01 -2.306081e-02 1.342714e-01 -1.629362e-01 3.009728e-01 5.731202e-01 2.639998e-02 5.963999e-01 5.542027e-02 3.397783e-02 -9.996414e-02 -6.460198e-02 -6.011419e-02 9.780881e-03 -1.001578e-02
<VARIANCE> 39
 2.064121e+01 3.698613e+01 2.616350e+01 3.232431e+01 2.129376e+01 3.063871e+01 3.775955e+01 3.096127e+01 3.478371e+01 4.055899e+01 4.262235e+01 4.906673e+01 7.056310e-03 8.150531e-01 1.457829e+00 1.928727e+00 2.901630e+00 1.952954e+00 1.862527e+00 3.033818e+00 2.724695e+00 2.806486e+00 2.789026e+00 3.602545e+00 3.311271e+00 3.006245e-04 1.640155e-01 2.189154e-01 2.420497e-01 3.049212e-01 4.084505e-01 4.013179e-01 3.824151e-01 3.771510e-01 3.572819e-01 4.202333e-01 3.544132e-01 3.960485e-01 7.075958e-05
<GCONST> 8.717468e+01
<STATE> 11
<MEAN> 39
 7.032899e-01 1.019078e+01 1.558183e-01 -4.955389e+00 -1.547147e+00 -6.168082e+00 -3.357940e+00 -3.334594e-02 -1.776105e-01 -4.854816e-01 2.448805e-01 -7.034168e-01 8.176721e-01 8.045164e-01 -1.003389e+00 1.476345e+00 4.470452e-01 8.164694e-01 1.405228e+00 5.284472e-01 3.302571e-01 -3.828740e-02 3.314649e-02 -2.613959e-01 -2.940080e-01 -3.442258e-02 -1.640942e-01 -1.356705e-01 2.794272e-02 7.346020e-01 -7.863105e-02 4.691582e-01 4.650569e-02 -8.667770e-02 -6.677294e-02 -9.143403e-02 4.620933e-02 1.276160e-01 -1.196357e-02
<VARIANCE> 39
 2.198232e+01 3.517423e+01 2.676996e+01 4.813941e+01 2.513430e+01 3.171025e+01 3.773645e+01 3.401261e+01 3.396139e+01 3.680531e+01 3.451148e+01 4.071060e+01 7.846624e-03 1.009403e+00 2.005559e+00 2.250396e+00 2.510135e+00 2.474117e+00 2.221015e+00 3.370966e+00 2.958495e+00 2.881222e+00 3.190546e+00 3.759958e+00 3.519659e+00 5.693249e-04 2.223669e-01 2.638839e-01 2.868621e-01 5.337184e-01 5.006427e-01 5.053905e-01 4.502316e-01 4.782625e-01 4.381358e-01 4.797818e-01 4.165960e-01 4.167436e-01 1.413382e-04
<GCONST> 9.283180e+01
<STATE> 12
<MEAN> 39
 2.469955e+00 9.366465e+00 1.872475e+00 -2.985814e+00 -7.530891e-01 -3.644427e+00 -3.142166e+00 -5.596814e-02 -1.934187e-01 -9.204475e-01 -4.268059e-01 -1.280132e+00 7.550023e-01 2.560533e-01 -1.014635e+00 1.376288e+00 1.477024e+00 7.425152e-01 1.600078e+00 4.117218e-01 -8.220848e-02 -2.281489e-01 -2.903528e-01 -1.599507e-01 -7.468606e-02 -4.615551e-02 -4.604485e-01 -2.033529e-01 -2.859535e-01 4.420322e-01 -1.869629e-02 9.486510e-02 8.802541e-02 1.392665e-02 6.888309e-02 5.263798e-02 1.463452e-01 2.078275e-01 -1.201490e-02
<VARIANCE> 39
 2.195967e+01 3.934821e+01 2.990998e+01 5.398115e+01 2.737678e+01 2.714385e+01 3.908519e+01 3.664161e+01 3.519766e+01 3.262716e+01 3.435628e+01 3.820811e+01 1.299138e-02 1.323741e+00 2.333777e+00 1.974869e+00 2.550191e+00 3.345368e+00 3.476031e+00 3.241081e+00 2.949598e+00 2.540457e+00 3.403269e+00 3.431838e+00 3.152704e+00 1.054735e-03 2.881067e-01 2.359325e-01 4.729819e-01 6.085069e-01 4.148000e-01 5.123332e-01 5.324550e-01 6.332260e-01 5.632182e-01 5.041060e-01 5.392361e-01 5.469128e-01 2.326526e-04
<GCONST> 9.730950e+01
<STATE> 13
<MEAN> 39
 1.841013e+00 8.138059e+00 3.888706e+00 -6.481197e-01 -4.402579e-01 -1.442615e+00 -2.531297e+00 -8.927532e-01 -9.457070e-01 -1.681922e+00 -6.981127e-01 -1.244976e+00 7.049147e-01 -5.143873e-01 -1.431396e+00 6.862924e-01 1.899135e+00 7.761272e-01 1.676710e+00 8.122514e-01 2.410374e-01 1.661127e-02 4.749013e-02 2.183215e-01 3.584546e-01 -6.647267e-02 -5.570287e-01 -2.628604e-01 -6.360462e-01 -1.387474e-02 -1.616899e-02 -1.856373e-01 1.705537e-01 2.647387e-01 3.140170e-01 3.093305e-01 2.467301e-01 2.144806e-01 -9.885982e-03
<VARIANCE> 39
 1.901648e+01 4.888187e+01 2.834803e+01 5.596323e+01 3.436119e+01 3.196433e+01 4.214774e+01 4.122197e+01 3.947604e+01 3.268651e+01 3.721112e+01 3.552649e+01 1.575170e-02 1.954580e+00 2.485248e+00 1.971700e+00 3.004677e+00 3.460591e+00 3.751441e+00 3.039730e+00 2.882713e+00 2.683520e+00 3.145902e+00 2.956369e+00 2.774109e+00 2.459989e-03 3.239026e-01 3.713737e-01 4.928619e-01 6.179672e-01 5.926105e-01 7.299356e-01 7.143906e-01 8.312778e-01 7.007400e-01 6.108564e-01 6.100823e-01 6.267617e-01 3.370584e-04
<GCONST> 1.023943e+02
<STATE> 14
<MEAN> 39
 4.765059e-01 6.323026e+00 4.155391e+00 1.492696e+00 7.629727e-01 2.194186e-01 -1.381726e+00 -4.144307e-01 -1.104319e+00 -1.424574e+00 7.174461e-02 -3.863755e-01 6.336195e-01 -1.205468e+00 -1.881620e+00 -2.538074e-01 1.431985e+00 7.947700e-01 1.166172e+00 1.030527e+00 7.789004e-01 5.931110e-01 6.121020e-01 5.464762e-01 5.991616e-01 -7.723499e-02 -3.382017e-01 -1.216707e-01 -6.316839e-01 -4.142556e-01 -5.256700e-02 -3.494735e-01 8.241346e-02 2.595913e-01 3.711647e-01 3.593656e-01 1.242459e-01 3.291427e-02 -3.888842e-04
<VARIANCE> 39
 1.934979e+01 5.546152e+01 2.649218e+01 5.713671e+01 4.861466e+01 4.330239e+01 4.907756e+01 3.987617e+01 3.766903e+01 4.172813e+01 4.107615e+01 3.403525e+01 2.676106e-02 2.822802e+00 2.288819e+00 2.661031e+00 3.376357e+00 2.630908e+00 4.426794e+00 2.998954e+00 3.899757e+00 3.484373e+00 2.858711e+00 2.986311e+00 3.220035e+00 4.313021e-03 2.166459e-01 4.684549e-01 3.954331e-01 5.781753e-01 8.863295e-01 7.887476e-01 8.792932e-01 7.736552e-01 6.634338e-01 7.929275e-01 6.982428e-01 5.975409e-01 3.732569e-04
<GCONST> 1.063663e+02
<STATE> 15
<MEAN> 39
 -1.463281e+00 3.838983e+00 3.032254e+00 2.281164e+00 1.469546e+00 1.018681e+00 -2.131236e-01 1.282582e+00 4.897772e-01 -2.789110e-01 1.328915e+00 6.708352e-01 5.195525e-01 -1.330717e+00 -2.004832e+00 -8.367003e-01 6.318074e-01 6.959812e-01 7.171463e-01 9.520753e-01 1.088149e+00 1.102193e+00 1.029361e+00 5.030891e-01 4.274166e-01 -6.908514e-02 1.758684e-02 1.724346e-01 -3.218387e-01 -4.901105e-01 -7.855398e-02 -2.592668e-01 -2.599179e-02 3.391368e-02 1.385963e-01 1.727177e-01 -8.588240e-02 -1.610551e-01 1.407028e-02
<VARIANCE> 39
 2.602819e+01 5.416069e+01 2.790988e+01 5.437674e+01 4.561550e+01 5.004987e+01 4.464201e+01 3.502016e+01 3.667060e+01 3.671539e+01 4.269418e+01 3.225838e+01 5.738201e-02 2.820415e+00 2.658827e+00 3.214337e+00 3.336939e+00 3.480843e+00 5.046618e+00 4.533268e+00 5.037046e+00 4.126521e+00 3.534560e+00 3.646095e+00 3.813732e+00 5.502314e-03 1.758953e-01 4.362035e-01 3.655519e-01 6.451485e-01 6.936655e-01 6.932918e-01 7.266201e-01 5.483266e-01 5.349818e-01 6.143295e-01 6.188508e-01 4.732347e-01 4.994573e-04
<GCONST> 1.078003e+02
<TRANSP> 16
 0.000000e+00 1.000000e+00 0.000000e+00 0.000000e+00 0.000000e+00 0.000000e+00 0.000000e+00 0.000000e+00 0.000000e+00 0.000000e+00 0.000000e+00 0.000000e+00 0.000000e+00 0.000000e+00 0.000000e+00 0.000000e+00
 0.000000e+00 5.716727e-01 4.283273e-01 0.000000e+00 0.000000e+00 0.000000e+00 0.000000e+00 0.000000e+00 0.000000e+00 0.000000e+00 0.000000e+00 0.000000e+00 0.000000e+00 0.000000e+00 0.000000e+00 0.000000e+00
 0.000000e+00 0.000000e+00 5.081951e-01 4.918049e-01 0.000000e+00 0.000000e+00 0.000000e+00 0.000000e+00 0.000000e+00 0.000000e+00 0.000000e+00 0.000000e+00 0.000000e+00 0.000000e+00 0.000000e+00 0.000000e+00
 0.000000e+00 0.000000e+00 0.000000e+00 5.885388e-01 4.114612e-01 0.000000e+00 0.000000e+00 0.000000e+00 0.000000e+00 0.000000e+00 0.000000e+00 0.000000e+00 0.000000e+00 0.000000e+00 0.000000e+00 0.000000e+00
 0.000000e+00 0.000000e+00 0.000000e+00 0.000000e+00 7.835535e-01 2.164465e-01 0.000000e+00 0.000000e+00 0.000000e+00 0.000000e+00 0.000000e+00 0.000000e+00 0.000000e+00 0.000000e+00 0.000000e+00 0.000000e+00
 0.000000e+00 0.000000e+00 0.000000e+00 0.000000e+00 0.000000e+00 7.083326e-01 2.916673e-01 0.000000e+00 0.000000e+00 0.000000e+00 0.000000e+00 0.000000e+00 0.000000e+00 0.000000e+00 0.000000e+00 0.000000e+00
 0.000000e+00 0.000000e+00 0.000000e+00 0.000000e+00 0.000000e+00 0.000000e+00 3.759215e-01 6.240785e-01 0.000000e+00 0.000000e+00 0.000000e+00 0.000000e+00 0.000000e+00 0.000000e+00 0.000000e+00 0.000000e+00
 0.000000e+00 0.000000e+00 0.000000e+00 0.000000e+00 0.000000e+00 0.000000e+00 0.000000e+00 1.149879e-01 8.850121e-01 0.000000e+00 0.000000e+00 0.000000e+00 0.000000e+00 0.000000e+00 0.000000e+00 0.000000e+00
 0.000000e+00 0.000000e+00 0.000000e+00 0.000000e+00 0.000000e+00 0.000000e+00 0.000000e+00 0.000000e+00 7.709448e-02 9.229055e-01 0.000000e+00 0.000000e+00 0.000000e+00 0.000000e+00 0.000000e+00 0.000000e+00
 0.000000e+00 0.000000e+00 0.000000e+00 0.000000e+00 0.000000e+00 0.000000e+00 0.000000e+00 0.000000e+00 0.000000e+00 7.348774e-03 9.926512e-01 0.000000e+00 0.000000e+00 0.000000e+00 0.000000e+00 0.000000e+00
 0.000000e+00 0.000000e+00 0.000000e+00 0.000000e+00 0.000000e+00 0.000000e+00 0.000000e+00 0.000000e+00 0.000000e+00 0.000000e+00 6.082335e-02 9.391767e-01 0.000000e+00 0.000000e+00 0.000000e+00 0.000000e+00
 0.000000e+00 0.000000e+00 0.000000e+00 0.000000e+00 0.000000e+00 0.000000e+00 0.000000e+00 0.000000e+00 0.000000e+00 0.000000e+00 0.000000e+00 1.997378e-01 8.002623e-01 0.000000e+00 0.000000e+00 0.000000e+00
 0.000000e+00 0.000000e+00 0.000000e+00 0.000000e+00 0.000000e+00 0.000000e+00 0.000000e+00 0.000000e+00 0.000000e+00 0.000000e+00 0.000000e+00 0.000000e+00 4.865142e-02 9.513486e-01 0.000000e+00 0.000000e+00
 0.000000e+00 0.000000e+00 0.000000e+00 0.000000e+00 0.000000e+00 0.000000e+00 0.000000e+00 0.000000e+00 0.000000e+00 0.000000e+00 0.000000e+00 0.000000e+00 0.000000e+00 1.368058e-02 9.863194e-01 0.000000e+00
 0.000000e+00 0.000000e+00 0.000000e+00 0.000000e+00 0.000000e+00 0.000000e+00 0.000000e+00 0.000000e+00 0.000000e+00 0.000000e+00 0.000000e+00 0.000000e+00 0.000000e+00 0.000000e+00 8.978024e-02 9.102198e-01
 0.000000e+00 0.000000e+00 0.000000e+00 0.000000e+00 0.000000e+00 0.000000e+00 0.000000e+00 0.000000e+00 0.000000e+00 0.000000e+00 0.000000e+00 0.000000e+00 0.000000e+00 0.000000e+00 0.000000e+00 0.000000e+00
<ENDHMM>
~h "#u"
<BEGINHMM>
<NUMSTATES> 16
<STATE> 2
<NUMMIXES> 2
<MIXTURE> 1 4.199201e-01
<MEAN> 39
 8.284775e+00 -4.352932e+00 -7.566098e+00 1.822329e+00 2.005838e-01 -8.096127e+00 -4.367161e+00 2.675259e+00 2.014210e+00 4.365860e-01 -3.314214e+00 -2.893255e+00 8.660470e-01 1.384459e+00 7.779903e-01 -1.239120e+00 -4.548036e-01 2.025395e+00 1.220049e+00 -1.449718e+00 -1.075857e+00 7.667583e-01 1.410446e+00 3.548448e-01 -6.148726e-01 -7.909201e-03 -2.104910e-01 2.022664e-01 3.966355e-01 -5.668446e-01 -3.402015e-01 6.951838e-01 4.322611e-01 -5.546277e-01 -4.524346e-01 1.528434e-01 2.806685e-01 1.021031e-01 1.250009e-04
<VARIANCE> 39
 1.507700e+01 2.655583e+01 2.788406e+01 2.292582e+01 4.060293e+01 4.339465e+01 4.714145e+01 4.990972e+01 3.521988e+01 4.571723e+01 4.135601e+01 4.826030e+01 6.929614e-03 5.031717e-01 7.059651e-01 1.936284e+00 2.428150e+00 3.171379e+00 4.017738e+00 4.525293e+00 4.298692e+00 3.512287e+00 2.728879e+00 3.050461e+00 3.304909e+00 1.461493e-04 7.238837e-02 1.811649e-01 2.437656e-01 5.443369e-01 5.764962e-01 7.541614e-01 9.006209e-01 8.381257e-01 6.719248e-01 7.068430e-01 5.296626e-01 5.518506e-01 1.999839e-05
<GCONST> 9.088182e+01
<MIXTURE> 2 5.800795e-01
<MEAN> 39
 1.079508e+01 1.113328e+00 -8.277316e+00 -4.831423e+00 3.725353e-01 -1.137549e+00 -1.009705e+00 -1.798384e+00 -2.094818e+00 2.019674e+00 9.182506e-01 -1.909446e-01 7.917946e-01 5.131707e-01 5.102833e-03 -6.204244e-01 1.039929e-01 -1.532239e-01 -3.062754e-01 -6.008712e-02 -5.510706e-02 -4.660107e-01 -3.357448e-01 -2.907248e-01 -4.433212e-01 3.201759e-02 -3.989872e-01 -6.388387e-02 4.161316e-01 3.191227e-01 1.441597e-01 8.388495e-02 6.836556e-02 1.792060e-01 3.103050e-01 -3.127687e-02 -2.444755e-02 5.377836e-02 -1.496373e-02
<VARIANCE> 39
 2.555275e+01 3.751730e+01 2.940833e+01 2.673456e+01 3.604041e+01 3.201189e+01 3.807872e+01 3.212186e+01 3.255798e+01 3.434686e+01 4.395972e+01 3.841195e+01 1.410031e-02 9.462061e-01 1.386547e+00 1.990182e+00 2.054690e+00 1.776429e+00 2.401224e+00 2.720030e+00 2.820813e+00 2.512641e+00 3.155630e+00 3.681851e+00 4.149622e+00 1.078526e-03 3.027379e-01 2.170266e-01 4.163302e-01 3.784937e-01 3.754638e-01 4.505181e-01 5.982715e-01 5.319768e-01 4.917719e-01 5.030004e-01 6.133844e-01 5.558851e-01 3.759224e-04
<GCONST> 9.484120e+01
<STATE> 3
<NUMMIXES> 2
<MIXTURE> 1 5.024847e-01
<MEAN> 39
 1.016674e+01 -1.444827e+00 -9.318294e+00 -1.377347e+00 1.881562e+00 -1.753322e+00 -4.127571e+00 -2.868356e+00 2.939593e-01 3.536594e+00 -1.141892e+00 -4.741571e+00 8.682984e-01 5.730388e-01 6.315319e-01 2.582065e-01 -2.392638e-01 1.462056e-01 1.118559e+00 6.686570e-01 -3.285320e-01 -4.112388e-01 6.194578e-01 1.268977e+00 7.563233e-01 -7.000816e-03 -9.302026e-02 -2.526921e-02 1.468224e-01 8.657726e-02 -1.561820e-01 -9.814781e-02 2.779640e-01 3.200423e-01 -7.706329e-02 -3.244890e-01 6.107036e-03 2.972038e-01 -1.148982e-03
<VARIANCE> 39
 1.920051e+01 2.384580e+01 3.095282e+01 1.952075e+01 2.769037e+01 2.421499e+01 2.169037e+01 2.974141e+01 2.906304e+01 3.320912e+01 2.975994e+01 3.782983e+01 5.981887e-03 2.519801e-01 6.195313e-01 8.357743e-01 1.333238e+00 1.142235e+00 1.551938e+00 1.764250e+00 2.022442e+00 2.222682e+00 1.826662e+00 1.780929e+00 2.084422e+00 1.198249e-04 4.337747e-02 1.014719e-01 1.350771e-01 1.696156e-01 2.437179e-01 3.257553e-01 2.714678e-01 3.317583e-01 3.213532e-01 3.723813e-01 3.461782e-01 3.399700e-01 1.440668e-05
<GCONST> 7.019049e+01
<MIXTURE> 2 4.975145e-01
<MEAN> 39
 9.807524e+00 -1.635059e-01 -6.983644e+00 -2.551793e+00 -7.175820e-01 -5.019082e-01 -7.291517e-01 -1.379906e+00 -2.288334e+00 -1.466967e-01 1.714327e-02 -1.631085e+00 8.534669e-01 4.113764e-02 -2.896237e-02 -3.531442e-02 1.035316e-01 -2.062929e-01 -2.025064e-01 -1.052547e-01 -1.476022e-01 -2.269528e-01 -4.816311e-01 -3.441395e-01 -3.528028e-01 6.383545e-03 -4.208200e-02 -5.723660e-03 2.703323e-02 2.169024e-02 8.864332e-02 2.427042e-02 -1.081637e-01 -8.436395e-02 1.632130e-01 1.748173e-01 3.299896e-02 -4.944725e-04 -4.228503e-03
<VARIANCE> 39
 2.670369e+01 2.956255e+01 3.431469e+01 2.109145e+01 2.519838e+01 2.603452e+01 2.322111e+01 2.984126e+01 2.882287e+01 2.810065e+01 3.490892e+01 5.122617e+01 9.804099e-03 3.931588e-01 7.417211e-01 1.200793e+00 1.198987e+00 1.253410e+00 1.151322e+00 1.725849e+00 2.129495e+00 1.966830e+00 1.746158e+00 2.023219e+00 2.983389e+00 2.800075e-04 6.598049e-02 1.286127e-01 2.169158e-01 2.148173e-01 2.234364e-01 2.826941e-01 3.001944e-01 4.020092e-01 3.723203e-01 3.337295e-01 4.172216e-01 5.166299e-01 4.873385e-05
<GCONST> 7.691122e+01
<STATE> 4
<NUMMIXES> 2
<MIXTURE> 1 4.713016e-01
<MEAN> 39
 1.281267e+01 2.115177e+00 -9.283635e+00 -2.616974e+00 3.799070e+00 9.909893e-01 -9.150635e-01 -1.638256e+00 -1.087833e+00 5.365129e+00 3.560971e+00 1.615811e-01 8.105400e-01 2.737545e-01 3.998664e-01 2.352998e-01 -9.145350e-02 -4.251619e-02 5.107502e-01 4.369558e-01 -7.072141e-02 -7.936297e-02 -1.695739e-02 4.710317e-01 4.500368e-01 -7.948583e-03 -9.031445e-02 -9.510133e-02 2.727764e-02 8.712090e-02 -4.112395e-02 -1.130481e-01 -1.195041e-01 1.082937e-01 1.347978e-01 -6.963771e-02 -1.951733e-01 -1.289966e-01 -7.887809e-04
<VARIANCE> 39
 7.416340e+00 3.007205e+01 1.931614e+01 2.193283e+01 2.302357e+01 2.345625e+01 2.331197e+01 2.753658e+01 2.940548e+01 2.634270e+01 2.803939e+01 3.218897e+01 5.974333e-03 1.878412e-01 4.394586e-01 6.617693e-01 7.799665e-01 7.424292e-01 9.506539e-01 1.101494e+00 1.222750e+00 1.336111e+00 1.334216e+00 1.333703e+00 1.335559e+00 1.072847e-04 2.384837e-02 6.077003e-02 8.139731e-02 1.368309e-01 1.235191e-01 1.900588e-01 1.783231e-01 2.504047e-01 2.238192e-01 2.303459e-01 2.477835e-01 2.154394e-01 1.077589e-05
<GCONST> 5.780758e+01
<MIXTURE> 2 5.286972e-01
<MEAN> 39
 7.225127e+00 1.495279e+00 -5.463161e+00 -1.863621e+00 -1.360950e-01 -7.817011e-02 -1.383793e-01 -1.122704e+00 -1.348137e+00 5.678333e-01 1.088493e+00 4.246779e-01 8.795913e-01 3.176502e-02 1.074973e-01 2.768996e-02 -9.922108e-03 5.089027e-02 1.175102e-01 2.544143e-03 2.601811e-02 8.899906e-02 2.928477e-02 1.308283e-02 -4.399237e-02 -3.561820e-03 6.832353e-04 -9.767332e-03 4.658987e-04 -8.469574e-03 3.871347e-02 3.550566e-02 -3.989237e-02 -2.703816e-02 2.184036e-02 9.392975e-02 2.959508e-02 -4.239355e-02 -1.275518e-03
<VARIANCE> 39
 2.513907e+01 1.916287e+01 2.705439e+01 1.503255e+01 1.442486e+01 1.245585e+01 1.686149e+01 1.469656e+01 1.812615e+01 1.906407e+01 1.718584e+01 1.971418e+01 8.420946e-03 1.315825e-01 3.510999e-01 4.649968e-01 4.716910e-01 5.989490e-01 6.484419e-01 8.097135e-01 8.875448e-01 9.636772e-01 8.540117e-01 9.388441e-01 9.152132e-01 7.386917e-05 2.147611e-02 5.019228e-02 7.911503e-02 7.828072e-02 1.061972e-01 1.195915e-01 1.677271e-01 1.586853e-01 1.788650e-01 1.535447e-01 1.709330e-01 1.695902e-01 6.991264e-06
<GCONST> 4.681622e+01
<STATE> 5
<NUMMIXES> 2
<MIXTURE> 1 5.833806e-01
<MEAN> 39
 1.321323e+01 3.830490e+00 -6.329250e+00 -2.040238e+00 1.367412e+00 3.859140e+00 2.714518e-01 -3.890521e-02 1.114833e-01 3.559643e+00 4.608130e+00 2.119799e+00 7.290980e-01 -4.612890e-02 1.295534e-01 3.486900e-01 1.917893e-01 3.141246e-01 3.630208e-01 -2.367849e-02 3.104562e-02 3.358902e-01 4.143634e-01 3.035410e-01 5.649362e-03 -1.214933e-02 -9.523502e-02 -1.071588e-01 -4.094050e-02 7.678119e-02 1.033213e-01 -2.146378e-01 -1.781510e-01 -3.737336e-02 1.060731e-01 9.272262e-02 -1.816396e-01 -2.104240e-01 1.841259e-04
<VARIANCE> 39
 1.273575e+01 2.896983e+01 2.658209e+01 1.603596e+01 1.945935e+01 1.727182e+01 2.424626e+01 2.487315e+01 2.368018e+01 2.203229e+01 2.283301e+01 2.784926e+01 1.068838e-02 2.365133e-01 6.048002e-01 9.795494e-01 8.050962e-01 9.510233e-01 1.107805e+00 1.310269e+00 1.422819e+00 1.379850e+00 1.283933e+00 1.562307e+00 1.228933e+00 1.497259e-04 4.199033e-02 8.672528e-02 1.397667e-01 1.378461e-01 1.604095e-01 2.336600e-01 2.536987e-01 2.446395e-01 2.920935e-01 2.447255e-01 2.985852e-01 2.607470e-01 1.552225e-05
<GCONST> 6.305379e+01
<MIXTURE> 2 4.166187e-01
<MEAN> 39
 1.281870e+01 -5.095955e-02 -8.830564e+00 -4.505458e+00 5.453287e-01 3.948870e-01 -1.408205e+00 -3.497174e+00 -3.807962e+00 -2.702338e-01 -1.160628e+00 -4.338167e+00 8.432658e-01 3.645609e-02 -2.392861e-01 3.635048e-02 4.469978e-01 2.171188e-01 3.476871e-03 -5.489559e-01 9.061150e-02 5.229257e-01 5.216432e-01 -1.100871e-01 -5.878046e-01 -4.600171e-03 -6.805526e-02 -1.364131e-01 7.231274e-02 3.941728e-01 1.923791e-01 -1.936308e-01 -2.473932e-01 2.382814e-01 5.005173e-01 2.680416e-01 -4.326795e-02 3.034101e-03 -1.009530e-03
<VARIANCE> 39
 1.186353e+01 3.630631e+01 1.860530e+01 2.161931e+01 3.372862e+01 3.391552e+01 2.864402e+01 3.292780e+01 3.526992e+01 4.580193e+01 5.268529e+01 6.158421e+01 6.720128e-03 3.368988e-01 8.465533e-01 1.021064e+00 1.332353e+00 1.583364e+00 1.652005e+00 1.916897e+00 2.676237e+00 1.877108e+00 2.369242e+00 2.201760e+00 2.282233e+00 1.405642e-04 4.790220e-02 1.444899e-01 1.634533e-01 2.148247e-01 2.738380e-01 3.620737e-01 4.149539e-01 5.073872e-01 3.502035e-01 3.965042e-01 4.813774e-01 5.285768e-01 1.065336e-05
<GCONST> 7.700330e+01
<STATE> 6
<NUMMIXES> 2
<MIXTURE> 1 5.055559e-01
<MEAN> 39
 1.170100e+01 2.423900e+00 -6.903996e+00 -1.307111e+00 3.090101e+00 2.507509e+00 -8.823108e-01 -1.321971e+00 8.485694e-01 5.300312e+00 3.923816e+00 -1.130866e-01 7.683424e-01 -1.223798e-01 -3.362470e-04 3.099866e-01 4.398079e-01 2.846279e-01 -5.833653e-02 -1.850569e-01 2.589272e-01 6.861411e-01 4.146058e-01 -2.714621e-01 -3.377809e-01 -1.213792e-02 -9.985852e-02 -7.653404e-02 1.032888e-01 7.145209e-02 -2.281270e-02 -2.311523e-01 -4.464530e-02 1.784830e-01 6.608062e-02 -2.132979e-01 -2.610086e-01 -4.590213e-02 -9.968751e-04
<VARIANCE> 39
 1.948868e+01 3.102967e+01 2.785608e+01 1.982424e+01 2.246593e+01 2.194449e+01 2.076149e+01 2.415846e+01 2.271346e+01 2.707964e+01 2.328835e+01 2.440763e+01 1.284999e-02 2.919827e-01 5.288987e-01 8.397153e-01 9.583454e-01 8.469695e-01 1.065939e+00 1.451170e+00 1.246341e+00 1.861946e+00 1.366096e+00 1.339649e+00 1.594024e+00 1.655892e-04 4.761897e-02 7.758036e-02 1.303918e-01 1.380235e-01 1.267910e-01 2.571293e-01 2.193318e-01 2.715765e-01 2.397434e-01 2.440208e-01 2.665826e-01 1.721118e-01 1.432991e-05
<GCONST> 6.367959e+01
<MIXTURE> 2 4.944444e-01
<MEAN> 39
 1.293717e+01 -3.813940e-01 -8.225739e+00 -1.189713e+00 3.761844e+00 9.345223e-01 -3.269498e+00 -3.644995e+00 2.151766e-01 5.582122e+00 1.715622e+00 -3.254552e+00 8.164266e-01 -3.726010e-01 -5.755748e-01 1.423670e-01 1.254402e+00 7.004139e-01 -1.043028e+00 -1.358375e+00 6.182906e-01 1.773366e+00 9.291680e-01 -8.386561e-01 -1.055646e+00 -3.178867e-03 -2.219577e-01 -1.111743e-01 2.736948e-01 3.581142e-01 -2.814811e-01 -7.742668e-01 1.033278e-01 8.824171e-01 2.704014e-01 -5.790686e-01 -4.630230e-01 2.000916e-01 1.279146e-04
<VARIANCE> 39
 9.503077e+00 3.431940e+01 2.298265e+01 1.962859e+01 2.434997e+01 3.223474e+01 2.483644e+01 2.757467e+01 3.279433e+01 3.518235e+01 4.520610e+01 5.227684e+01 7.351778e-03 3.107049e-01 7.307870e-01 1.181685e+00 1.102968e+00 1.497851e+00 1.654710e+00 2.226893e+00 2.112372e+00 2.022856e+00 2.374846e+00 2.205817e+00 2.872097e+00 1.177498e-04 4.798178e-02 1.286846e-01 1.831374e-01 2.091245e-01 2.826158e-01 3.994412e-01 3.559054e-01 4.074006e-01 3.967710e-01 3.912242e-01 4.694989e-01 4.895099e-01 1.335148e-05
<GCONST> 7.526466e+01
<STATE> 7
<NUMMIXES> 2
<MIXTURE> 1 4.997372e-01
<MEAN> 39
 1.080012e+01 2.518094e+00 -5.982179e+00 -1.073185e+00 2.131513e+00 9.582083e-01 -1.081607e+00 -1.253838e-01 1.362430e+00 3.480547e+00 1.323137e+00 -1.672423e+00 7.551196e-01 -1.212271e-01 5.266412e-02 4.708355e-01 2.570679e-01 1.663896e-01 7.665329e-02 1.533392e-01 4.127577e-01 2.204479e-01 -1.176024e-01 -7.835709e-02 2.544825e-01 -1.444683e-02 -1.064749e-01 -3.902808e-02 1.764493e-01 -2.181921e-02 -1.087152e-02 -3.024820e-02 1.022776e-01 6.997731e-02 -9.751459e-02 -2.179059e-01 -4.884099e-02 9.311495e-02 -2.108968e-03
<VARIANCE> 39
 2.321008e+01 3.171442e+01 2.776083e+01 2.366604e+01 2.450259e+01 3.253546e+01 1.940044e+01 2.437240e+01 2.682759e+01 2.751743e+01 3.903246e+01 3.981794e+01 1.566814e-02 3.336951e-01 5.456341e-01 9.813299e-01 1.112591e+00 8.823435e-01 1.169828e+00 1.464857e+00 1.718171e+00 1.608499e+00 1.524714e+00 1.562579e+00 1.718272e+00 1.443610e-04 5.274144e-02 8.328531e-02 1.680297e-01 2.127268e-01 2.105351e-01 2.358443e-01 2.707005e-01 2.589818e-01 2.513849e-01 2.976127e-01 2.969004e-01 3.286647e-01 1.864715e-05
<GCONST> 6.955446e+01
<MIXTURE> 2 5.002630e-01
<MEAN> 39
 1.228010e+01 -8.888481e-01 -8.268891e+00 1.419922e+00 5.444397e+00 -6.689823e-01 -5.644413e+00 -1.712424e+00 4.183400e+00 7.952841e+00 5.469629e-01 -4.781172e+00 7.909549e-01 -7.494809e-01 -7.136595e-01 6.914212e-01 1.859192e+00 9.555098e-02 -2.443146e+00 -9.183423e-01 2.443910e+00 2.274380e+00 -6.147212e-01 -1.867562e+00 -4.623710e-01 -4.563709e-03 -3.203678e-01 -2.502415e-02 6.346426e-01 5.105670e-02 -8.376506e-01 -5.778100e-01 9.152299e-01 7.414263e-01 -5.816115e-01 -9.954522e-01 8.643819e-02 6.914573e-01 4.027677e-04
<VARIANCE> 39
 1.023921e+01 3.192021e+01 2.477860e+01 1.851503e+01 1.954011e+01 2.681538e+01 2.605145e+01 2.643984e+01 3.010088e+01 3.097573e+01 3.809489e+01 3.963151e+01 9.303126e-03 4.127780e-01 7.465560e-01 1.360545e+00 1.245606e+00 1.729313e+00 1.918596e+00 2.433707e+00 2.215512e+00 2.292299e+00 2.736401e+00 2.089968e+00 3.089941e+00 2.567427e-04 7.366447e-02 1.487493e-01 2.473441e-01 2.390984e-01 3.125966e-01 3.991372e-01 3.740486e-01 3.353622e-01 3.742452e-01 4.425348e-01 4.744624e-01 4.308070e-01 2.539145e-05
<GCONST> 7.807473e+01
<STATE> 8
<NUMMIXES> 2
<MIXTURE> 1 5.392599e-01
<MEAN> 39
 1.138370e+01 -2.261902e+00 -6.940753e+00 4.165201e+00 5.399703e+00 -5.181743e+00 -6.592806e+00 2.846234e+00 7.311777e+00 5.528923e+00 -3.614108e+00 -4.971494e+00 7.961550e-01 -1.121014e+00 -7.303098e-01 1.670684e+00 1.760954e+00 -1.483830e+00 -2.992063e+00 1.023167e+00 3.453829e+00 5.089753e-01 -2.346455e+00 -8.920781e-01 1.201604e+00 -3.177254e-03 -3.539672e-01 1.894405e-01 8.586055e-01 -5.339525e-01 -1.044697e+00 3.529712e-01 1.222336e+00 -3.013841e-01 -1.154973e+00 -3.991618e-01 7.958909e-01 5.167357e-01 -2.002536e-04
<VARIANCE> 39
 1.051079e+01 2.788259e+01 2.820137e+01 1.571315e+01 2.069307e+01 2.723599e+01 3.044400e+01 2.715251e+01 3.256045e+01 3.898546e+01 3.492731e+01 3.942875e+01 9.827456e-03 4.874046e-01 8.718160e-01 1.652683e+00 1.752423e+00 2.212790e+00 3.023260e+00 2.716577e+00 2.337877e+00 2.789231e+00 2.641210e+00 2.893352e+00 2.705406e+00 2.200587e-04 1.111245e-01 2.438774e-01 4.053203e-01 3.290616e-01 3.656108e-01 4.300785e-01 4.712336e-01 4.360047e-01 4.170962e-01 5.722780e-01 3.866030e-01 5.005056e-01 3.105191e-05
<GCONST> 8.333432e+01
<MIXTURE> 2 4.607404e-01
<MEAN> 39
 1.085260e+01 3.007497e+00 -5.514055e+00 -1.779819e+00 2.254989e+00 2.309233e+00 -9.072191e-01 -1.850343e-01 8.631292e-01 3.343519e+00 2.082880e+00 -8.531255e-01 7.316240e-01 -2.926676e-01 -2.428324e-02 7.218378e-01 1.607299e-01 2.982021e-01 -2.998840e-02 2.318553e-01 3.626390e-01 1.793542e-01 -3.601608e-01 -3.091363e-01 1.679442e-01 -1.809185e-02 -1.563106e-01 -2.002955e-02 2.658805e-01 6.254981e-02 5.507379e-02 -4.333055e-02 7.009374e-02 2.720760e-03 -1.049125e-01 -1.847340e-01 -6.384072e-02 2.862519e-02 -3.005389e-03
<VARIANCE> 39
 2.400341e+01 3.211205e+01 3.520859e+01 2.331539e+01 2.628860e+01 2.559497e+01 2.233576e+01 2.255919e+01 2.900227e+01 2.957407e+01 2.956675e+01 3.914483e+01 1.784485e-02 4.676002e-01 7.410595e-01 1.419897e+00 1.235670e+00 1.204511e+00 1.744535e+00 1.562131e+00 1.534485e+00 1.745574e+00 2.076811e+00 2.037273e+00 1.693184e+00 1.892200e-04 8.572396e-02 1.270968e-01 2.773600e-01 2.498546e-01 2.603267e-01 2.484160e-01 2.826100e-01 2.771929e-01 3.467826e-01 3.448455e-01 3.068684e-01 3.520805e-01 4.015888e-05
<GCONST> 7.567822e+01
<STATE> 9
<NUMMIXES> 2
<MIXTURE> 1 5.000291e-01
<MEAN> 39
 9.945187e+00 -3.339882e+00 -4.239693e+00 6.525019e+00 2.446234e+00 -9.540242e+00 -3.537023e+00 8.687596e+00 6.898012e+00 1.143121e-01 -4.262403e+00 -8.613276e-01 7.939652e-01 -1.590115e+00 -4.187266e-01 2.934243e+00 6.608279e-01 -3.113302e+00 -1.795011e+00 2.986180e+00 2.074795e+00 -1.524567e+00 -2.005799e+00 8.662204e-01 1.470801e+00 -3.492509e-03 -3.065735e-01 5.420113e-01 6.879737e-01 -9.989901e-01 -4.679725e-01 1.295033e+00 5.336058e-01 -1.474242e+00 -8.093609e-01 5.842368e-01 7.309211e-01 -1.854926e-01 -2.492749e-03
<VARIANCE> 39
 1.215072e+01 2.538803e+01 3.084673e+01 1.601290e+01 2.365343e+01 2.849739e+01 4.057047e+01 2.925193e+01 3.274511e+01 3.931318e+01 3.515124e+01 3.459555e+01 1.108374e-02 6.441210e-01 1.502259e+00 2.751645e+00 2.128309e+00 2.665995e+00 3.281529e+00 3.206438e+00 2.921751e+00 2.737455e+00 3.452217e+00 3.055179e+00 3.058225e+00 2.508812e-04 1.538580e-01 3.360294e-01 4.647123e-01 4.592037e-01 4.706281e-01 5.775394e-01 5.861951e-01 5.066686e-01 6.293111e-01 6.323668e-01 5.848287e-01 5.777676e-01 4.920151e-05
<GCONST> 9.034650e+01
<MIXTURE> 2 4.999704e-01
<MEAN> 39
 9.987054e+00 3.269194e+00 -3.403152e+00 -1.442051e+00 3.265805e+00 2.654209e+00 1.292401e-01 6.413602e-01 1.083498e+00 2.229002e+00 1.932595e+00 -2.453597e-01 6.763098e-01 -5.356716e-01 -9.975668e-02 1.037489e+00 4.560037e-01 4.282687e-01 -7.663925e-02 2.763090e-01 2.293107e-01 -2.243762e-03 -5.710960e-01 -3.421721e-01 5.011499e-02 -2.033847e-02 -1.417960e-01 1.343342e-02 2.031049e-01 1.299380e-01 2.509681e-02 5.791321e-03 -1.647926e-02 -1.259513e-01 -1.125932e-01 -5.469814e-02 1.529986e-02 -1.606323e-02 -2.075849e-03
<VARIANCE> 39
 2.656365e+01 2.675124e+01 4.464175e+01 2.398592e+01 3.014315e+01 2.811437e+01 2.221042e+01 2.537711e+01 3.314989e+01 3.433318e+01 3.224345e+01 3.523909e+01 2.485533e-02 6.523309e-01 8.898488e-01 1.797311e+00 1.641996e+00 1.414924e+00 1.980110e+00 1.992231e+00 1.768273e+00 1.991006e+00 2.763521e+00 1.934507e+00 2.180378e+00 3.961022e-04 1.037581e-01 1.647431e-01 3.530554e-01 2.203635e-01 2.604779e-01 2.961931e-01 3.327644e-01 3.036764e-01 4.415447e-01 4.005620e-01 4.148665e-01 3.306385e-01 7.157121e-05
<GCONST> 8.207201e+01
<STATE> 10
<MEAN> 39
 8.551852e+00 -6.047755e-01 -1.536747e+00 3.210995e+00 -1.881395e-01 -5.306647e+00 1.237138e+00 5.820276e+00 1.430188e+00 -1.313721e-01 3.480219e-01 3.109724e-01 7.410323e-01 -1.341353e+00 2.993026e-01 2.634475e+00 -3.385281e-01 -1.568735e+00 3.230554e-01 1.704032e+00 -4.466673e-01 -1.176172e+00 -4.030578e-01 6.804829e-01 2.927812e-01 -1.500442e-02 -1.466278e-01 4.355524e-01 1.366906e-01 -4.369405e-01 3.643202e-01 9.039764e-01 -3.807748e-01 -9.774457e-01 5.415628e-02 4.572623e-01 3.870480e-02 -2.354482e-01 -5.236558e-03
<VARIANCE> 39
 2.102414e+01 3.954724e+01 4.215800e+01 3.981334e+01 4.316138e+01 7.769039e+01 3.831486e+01 5.289178e+01 3.678339e+01 3.949498e+01 4.016412e+01 3.891162e+01 1.924498e-02 1.384432e+00 2.127030e+00 4.819966e+00 3.129715e+00 5.682604e+00 2.688434e+00 4.468283e+00 2.929134e+00 3.479815e+00 3.394303e+00 3.501245e+00 2.681924e+00 4.826142e-04 1.798273e-01 4.071578e-01 3.638186e-01 6.688406e-01 6.232696e-01 1.134449e+00 6.516143e-01 9.823305e-01 6.156447e-01 7.029290e-01 6.031612e-01 5.417668e-01 8.425536e-05
<GCONST> 1.022489e+02
<STATE> 11
<MEAN> 39
 6.827574e+00 -2.759990e-01 2.505454e+00 1.759372e+00 -2.655286e+00 -3.519308e+00 3.705762e+00 3.224430e+00 -5.690327e-02 1.260772e+00 1.395335e+00 -8.336781e-01 7.294900e-01 -1.389583e+00 1.009630e+00 2.596942e+00 -9.642728e-01 -6.151090e-01 1.548515e+00 4.076299e-01 -1.752995e+00 -4.045339e-01 2.354485e-01 1.699518e-01 -9.565023e-02 -2.073180e-02 -6.340565e-02 3.247627e-01 -4.062770e-01 -2.904277e-02 8.408835e-01 5.719211e-01 -8.038260e-01 -3.706594e-01 4.583791e-01 1.763410e-01 -2.069219e-01 -4.879096e-02 -8.407691e-03
<VARIANCE> 39
 2.363221e+01 3.979802e+01 6.026042e+01 3.240960e+01 6.688049e+01 6.104998e+01 5.000291e+01 4.129964e+01 3.252523e+01 3.692039e+01 3.917533e+01 4.340067e+01 2.038249e-02 1.584929e+00 3.305660e+00 4.631220e+00 5.252615e+00 3.856182e+00 4.431389e+00 3.499616e+00 4.618689e+00 3.952838e+00 3.848536e+00 3.871160e+00 2.819554e+00 6.543935e-04 3.028179e-01 4.218856e-01 6.058725e-01 5.232277e-01 1.118362e+00 7.810153e-01 1.036524e+00 6.413590e-01 6.247286e-01 6.652132e-01 6.507589e-01 5.670069e-01 1.335258e-04
<GCONST> 1.063875e+02
<STATE> 12
<MEAN> 39
 5.285393e+00 2.017523e+00 5.280805e+00 -6.161849e-01 -2.283559e+00 -5.804852e-01 1.606919e+00 -1.469736e-01 1.186710e+00 1.602468e+00 1.805288e-01 -9.957160e-01 7.046090e-01 -1.291087e+00 1.381678e+00 1.611946e+00 -3.268602e-01 9.222383e-01 1.728323e+00 -8.765681e-01 -1.357059e+00 2.698507e-01 -1.706310e-01 -1.844031e-01 2.236488e-01 -3.350329e-02 -7.835075e-02 -1.366157e-01 -8.204678e-01 4.402603e-01 7.120858e-01 1.680435e-02 -3.801467e-01 4.469083e-01 2.983988e-01 -2.343101e-02 -7.020858e-03 1.152769e-01 -1.174636e-02
<VARIANCE> 39
 2.850379e+01 4.299836e+01 8.114117e+01 4.325114e+01 6.627837e+01 4.307838e+01 4.522372e+01 3.919322e+01 4.085972e+01 4.478230e+01 4.476592e+01 4.379992e+01 2.265610e-02 2.164352e+00 3.536485e+00 2.621366e+00 4.240954e+00 3.631293e+00 5.409289e+00 4.426981e+00 4.109097e+00 3.917810e+00 3.766295e+00 3.669655e+00 2.822340e+00 1.107722e-03 3.871520e-01 5.960543e-01 1.046009e+00 9.600843e-01 1.052307e+00 5.739522e-01 8.750274e-01 7.641674e-01 7.465995e-01 8.037547e-01 6.837668e-01 5.505390e-01 2.536956e-04
<GCONST> 1.101047e+02
<STATE> 13
<MEAN> 39
 4.343030e+00 4.308662e+00 5.973376e+00 8.160613e-01 7.619314e-01 9.120663e-01 -7.823591e-01 -8.164082e-01 9.409112e-01 1.539673e-01 -5.225703e-02 1.298973e-01 6.504075e-01 -1.456504e+00 5.849810e-01 3.908757e-01 7.883254e-01 1.461497e+00 1.255558e+00 -5.419949e-01 -1.852456e-01 3.058670e-01 -1.906059e-01 1.417662e-01 4.173701e-01 -5.307396e-02 -2.807961e-01 -5.739802e-01 -7.975723e-01 2.102232e-01 6.344592e-02 -2.325113e-01 2.589952e-01 7.436546e-01 2.384287e-01 1.852733e-01 1.618565e-01 4.280835e-02 -1.147288e-02
<VARIANCE> 39
 3.310208e+01 4.527622e+01 7.782381e+01 4.702364e+01 4.855951e+01 4.716584e+01 4.415869e+01 4.431932e+01 4.841455e+01 4.980259e+01 4.500566e+01 3.848963e+01 2.421887e-02 2.781891e+00 3.512547e+00 2.606507e+00 4.266061e+00 4.311864e+00 4.494900e+00 3.615692e+00 3.259694e+00 3.416075e+00 3.820347e+00 3.228721e+00 2.726496e+00 2.309902e-03 4.643513e-01 7.003136e-01 9.439591e-01 8.078491e-01 6.738198e-01 7.567494e-01 9.455919e-01 8.615626e-01 8.459666e-01 9.079087e-01 7.081897e-01 5.436178e-01 3.436151e-04
<GCONST> 1.113603e+02
<STATE> 14
<MEAN> 39
 2.414720e+00 3.892847e+00 5.636020e+00 2.478348e+00 2.620163e+00 2.203996e+00 -1.134757e-01 -2.606297e-01 1.396986e+00 3.793028e-01 6.941913e-01 6.292013e-01 5.831273e-01 -2.086278e+00 -3.349626e-01 -5.792329e-01 4.274607e-01 9.666395e-01 9.132864e-01 1.385311e-01 8.868323e-01 6.368895e-01 1.975942e-01 5.082201e-01 4.378827e-01 -6.563640e-02 -1.313452e-01 -4.554575e-01 -5.966864e-01 -1.463255e-01 -3.137574e-01 -3.454823e-01 3.132741e-01 5.548419e-01 1.024981e-01 1.580030e-01 9.632378e-02 -3.791450e-02 -1.447143e-03
<VARIANCE> 39
 4.193180e+01 4.581379e+01 7.114189e+01 5.738708e+01 4.229911e+01 5.485522e+01 4.317416e+01 4.676679e+01 4.325649e+01 4.331395e+01 4.369521e+01 3.603192e+01 3.466944e-02 2.453612e+00 4.349504e+00 4.062065e+00 4.115664e+00 3.701047e+00 3.355188e+00 3.846034e+00 3.952142e+00 3.244542e+00 4.091765e+00 3.244054e+00 2.719990e+00 4.198151e-03 5.223209e-01 4.675522e-01 5.610527e-01 6.413503e-01 6.035287e-01 9.058723e-01 7.285495e-01 7.438602e-01 7.704127e-01 8.002424e-01 6.653731e-01 5.415451e-01 3.814957e-04
<GCONST> 1.111384e+02
<STATE> 15
<MEAN> 39
 -3.630383e-01 2.644514e+00 4.230545e+00 2.531168e+00 3.300065e+00 3.300517e+00 5.730911e-01 1.781958e+00 2.470288e+00 1.338921e+00 1.847322e+00 8.544121e-01 4.888642e-01 -2.146985e+00 -7.086128e-01 -9.482979e-01 1.161734e-02 3.225874e-01 5.347915e-01 5.125614e-01 1.189356e+00 6.863592e-01 4.423920e-01 4.543480e-01 2.799764e-01 -6.131053e-02 1.527731e-01 -1.470239e-01 -1.850603e-01 -2.116759e-01 -3.752294e-01 -3.070863e-01 1.540750e-01 8.335972e-02 -7.320790e-02 5.107322e-02 -7.346345e-02 -1.013933e-01 1.150849e-02
<VARIANCE> 39
 4.876009e+01 4.829746e+01 5.284949e+01 5.542344e+01 3.783253e+01 5.382387e+01 4.081813e+01 4.234463e+01 4.183515e+01 4.392677e+01 3.653017e+01 3.418986e+01 6.007043e-02 2.826297e+00 3.987068e+00 4.431250e+00 3.546245e+00 3.041118e+00 3.329689e+00 4.048174e+00 4.571498e+00 3.771282e+00 4.311580e+00 3.491297e+00 2.965071e+00 4.857829e-03 4.124941e-01 4.422530e-01 3.801836e-01 5.975709e-01 5.932503e-01 7.070997e-01 5.211368e-01 5.338266e-01 6.273187e-01 6.324442e-01 6.053202e-01 5.143063e-01 5.470524e-04
<GCONST> 1.096065e+02
<TRANSP> 16
 0.000000e+00 1.000000e+00 0.000000e+00 0.000000e+00 0.000000e+00 0.000000e+00 0.000000e+00 0.000000e+00 0.000000e+00 0.000000e+00 0.000000e+00 0.000000e+00 0.000000e+00 0.000000e+00 0.000000e+00 0.000000e+00
 0.000000e+00 6.453649e-01 3.546351e-01 0.000000e+00 0.000000e+00 0.000000e+00 0.000000e+00 0.000000e+00 0.000000e+00 0.000000e+00 0.000000e+00 0.000000e+00 0.000000e+00 0.000000e+00 0.000000e+00 0.000000e+00
 0.000000e+00 0.000000e+00 6.730369e-01 3.269632e-01 0.000000e+00 0.000000e+00 0.000000e+00 0.000000e+00 0.000000e+00 0.000000e+00 0.000000e+00 0.000000e+00 0.000000e+00 0.000000e+00 0.000000e+00 0.000000e+00
 0.000000e+00 0.000000e+00 0.000000e+00 7.939350e-01 2.060650e-01 0.000000e+00 0.000000e+00 0.000000e+00 0.000000e+00 0.000000e+00 0.000000e+00 0.000000e+00 0.000000e+00 0.000000e+00 0.000000e+00 0.000000e+00
 0.000000e+00 0.000000e+00 0.000000e+00 0.000000e+00 5.840324e-01 4.159676e-01 0.000000e+00 0.000000e+00 0.000000e+00 0.000000e+00 0.000000e+00 0.000000e+00 0.000000e+00 0.000000e+00 0.000000e+00 0.000000e+00
 0.000000e+00 0.000000e+00 0.000000e+00 0.000000e+00 0.000000e+00 2.888152e-01 7.111849e-01 0.000000e+00 0.000000e+00 0.000000e+00 0.000000e+00 0.000000e+00 0.000000e+00 0.000000e+00 0.000000e+00 0.000000e+00
 0.000000e+00 0.000000e+00 0.000000e+00 0.000000e+00 0.000000e+00 0.000000e+00 2.088205e-01 7.911795e-01 0.000000e+00 0.000000e+00 0.000000e+00 0.000000e+00 0.000000e+00 0.000000e+00 0.000000e+00 0.000000e+00
 0.000000e+00 0.000000e+00 0.000000e+00 0.000000e+00 0.000000e+00 0.000000e+00 0.000000e+00 1.041785e-01 8.958215e-01 0.000000e+00 0.000000e+00 0.000000e+00 0.000000e+00 0.000000e+00 0.000000e+00 0.000000e+00
 0.000000e+00 0.000000e+00 0.000000e+00 0.000000e+00 0.000000e+00 0.000000e+00 0.000000e+00 0.000000e+00 1.863456e-01 8.136544e-01 0.000000e+00 0.000000e+00 0.000000e+00 0.000000e+00 0.000000e+00 0.000000e+00
 0.000000e+00 0.000000e+00 0.000000e+00 0.000000e+00 0.000000e+00 0.000000e+00 0.000000e+00 0.000000e+00 0.000000e+00 4.360760e-02 9.563924e-01 0.000000e+00 0.000000e+00 0.000000e+00 0.000000e+00 0.000000e+00
 0.000000e+00 0.000000e+00 0.000000e+00 0.000000e+00 0.000000e+00 0.000000e+00 0.000000e+00 0.000000e+00 0.000000e+00 0.000000e+00 1.055573e-01 8.944427e-01 0.000000e+00 0.000000e+00 0.000000e+00 0.000000e+00
 0.000000e+00 0.000000e+00 0.000000e+00 0.000000e+00 0.000000e+00 0.000000e+00 0.000000e+00 0.000000e+00 0.000000e+00 0.000000e+00 0.000000e+00 1.036922e-01 8.963077e-01 0.000000e+00 0.000000e+00 0.000000e+00
 0.000000e+00 0.000000e+00 0.000000e+00 0.000000e+00 0.000000e+00 0.000000e+00 0.000000e+00 0.000000e+00 0.000000e+00 0.000000e+00 0.000000e+00 0.000000e+00 1.380495e-01 8.619505e-01 0.000000e+00 0.000000e+00
 0.000000e+00 0.000000e+00 0.000000e+00 0.000000e+00 0.000000e+00 0.000000e+00 0.000000e+00 0.000000e+00 0.000000e+00 0.000000e+00 0.000000e+00 0.000000e+00 0.000000e+00 8.024205e-03 9.919758e-01 0.000000e+00
 0.000000e+00 0.000000e+00 0.000000e+00 0.000000e+00 0.000000e+00 0.000000e+00 0.000000e+00 0.000000e+00 0.000000e+00 0.000000e+00 0.000000e+00 0.000000e+00 0.000000e+00 0.000000e+00 6.402566e-02 9.359744e-01
 0.000000e+00 0.000000e+00 0.000000e+00 0.000000e+00 0.000000e+00 0.000000e+00 0.000000e+00 0.000000e+00 0.000000e+00 0.000000e+00 0.000000e+00 0.000000e+00 0.000000e+00 0.000000e+00 0.000000e+00 0.000000e+00
<ENDHMM>
~h "ba"
<BEGINHMM>
<NUMSTATES> 16
<STATE> 2
<NUMMIXES> 2
<MIXTURE> 1 5.286767e-01
<MEAN> 39
 -1.161296e+00 1.194086e+00 3.850122e+00 1.376637e+00 3.510452e+00 4.678188e+00 4.720218e+00 5.343820e+00 5.169543e+00 2.862065e+00 2.923657e+00 7.152591e-01 2.713432e-01 1.138373e+00 -1.975915e+00 -8.931353e-01 5.081620e-01 5.571566e-01 2.517812e-01 5.702833e-01 8.931316e-02 -5.645207e-01 5.095153e-01 4.028210e-01 9.206681e-01 1.712885e-01 3.720711e-01 -8.717167e-01 -5.772181e-01 3.025431e-01 1.273320e-01 -5.167041e-01 -3.746698e-01 -6.488929e-01 -9.682416e-01 -1.808327e-01 -2.307704e-01 1.936534e-01 4.939094e-02
<VARIANCE> 39
 1.624451e+01 4.178355e+01 2.262123e+01 3.103404e+01 3.303205e+01 3.374999e+01 3.553972e+01 3.687793e+01 2.939009e+01 3.236233e+01 3.446943e+01 2.656250e+01 6.533874e-02 2.081021e+00 5.827521e+00 3.885818e+00 2.793106e+00 3.226490e+00 4.239375e+00 3.777609e+00 5.308833e+00 5.845373e+00 5.396473e+00 3.882958e+00 2.993135e+00 5.541189e-03 4.538698e-01 5.695822e-01 4.661300e-01 4.795670e-01 5.960602e-01 6.132751e-01 6.642770e-01 1.069752e+00 8.626623e-01 8.215721e-01 7.705408e-01 5.815104e-01 1.426689e-03
<GCONST> 1.091998e+02
<MIXTURE> 2 4.713200e-01
<MEAN> 39
 4.954713e+00 -5.490222e+00 -1.679249e+00 2.804940e+00 5.275409e+00 3.815121e+00 4.711951e+00 4.590128e+00 6.763585e-01 3.201727e+00 4.063131e+00 3.985617e+00 7.950000e-01 5.145833e-01 -4.097881e+00 -2.408770e+00 9.571428e-01 6.228901e-01 -9.245211e-01 -4.653054e-01 -1.354743e+00 -2.552353e+00 2.244920e-02 -2.716388e-01 6.924204e-01 1.825458e-01 -8.923537e-01 -1.049979e-01 2.007761e-01 1.444677e-01 -1.726253e-01 -4.870737e-01 -5.863704e-01 -6.394817e-01 -2.413482e-01 -3.106227e-01 -4.600129e-01 -4.398412e-01 -3.973528e-02
<VARIANCE> 39
 1.057947e+01 3.745524e+01 2.676113e+01 2.408117e+01 2.303768e+01 2.888320e+01 2.422126e+01 2.732837e+01 4.000257e+01 6.382248e+01 3.421943e+01 2.588761e+01 7.602558e-03 2.408419e+00 3.861211e+00 3.818789e+00 2.891143e+00 3.293205e+00 4.728214e+00 4.318042e+00 6.793428e+00 7.237061e+00 5.476220e+00 4.278414e+00 4.093843e+00 3.880447e-03 2.774438e-01 6.298257e-01 4.507656e-01 3.905412e-01 4.601144e-01 5.454061e-01 5.730274e-01 6.911308e-01 7.980886e-01 1.038687e+00 9.636253e-01 6.576877e-01 6.261277e-04
<GCONST> 1.048123e+02
<STATE> 3
<NUMMIXES> 2
<MIXTURE> 1 5.076971e-01
<MEAN> 39
 2.217105e+00 -1.096732e+01 -8.376685e+00 3.542027e+00 6.032599e+00 1.514313e-01 2.719296e+00 4.278447e+00 -8.620709e+00 -3.551531e+00 1.532759e+00 3.263109e+00 9.114882e-01 -9.740005e-01 -2.329031e+00 -1.387430e+00 1.442574e+00 1.047471e+00 -7.847996e-01 -5.574015e-01 -1.451788e+00 -2.682103e+00 6.177865e-01 7.204415e-01 3.865996e-02 6.374621e-02 -5.745760e-01 6.390639e-01 1.080643e+00 1.742204e-02 -3.322288e-01 -2.961983e-02 -2.251993e-01 -5.793285e-01 1.007745e+00 6.858194e-01 9.166756e-02 -3.717617e-01 -4.761840e-02
<VARIANCE> 39
 8.746606e+00 2.447646e+01 1.514074e+01 1.819816e+01 2.434680e+01 1.794940e+01 2.524133e+01 1.947042e+01 2.732592e+01 2.094042e+01 2.472542e+01 1.577187e+01 2.747701e-03 1.005116e+00 1.157483e+00 2.371024e+00 1.334665e+00 1.659903e+00 2.155254e+00 1.914324e+00 2.377198e+00 2.866585e+00 2.710528e+00 2.170434e+00 2.268239e+00 1.534075e-03 1.713641e-01 2.550069e-01 2.678951e-01 3.092011e-01 4.118329e-01 3.118210e-01 4.698817e-01 4.668029e-01 5.533005e-01 4.510037e-01 5.095420e-01 3.486711e-01 2.551358e-04
<GCONST> 8.203524e+01
<MIXTURE> 2 4.923024e-01
<MEAN> 39
 1.660451e+00 -1.361457e+01 -9.162158e-01 5.168739e+00 5.804616e+00 2.959227e+00 3.659705e+00 -2.729302e+00 7.971796e-01 9.330409e+00 2.957467e+00 4.994199e+00 9.042390e-01 -2.242162e+00 -3.491514e+00 -1.275874e-01 7.114342e-01 -7.591820e-01 -2.162669e+00 -2.249167e+00 -2.895292e+00 -7.347081e-01 -1.201484e+00 -2.320847e+00 -5.190209e-01 6.924276e-02 -5.705076e-01 1.195540e+00 7.135003e-01 -1.049799e-01 -3.416933e-01 -1.933021e-01 -2.511075e-01 5.556552e-01 1.931616e-01 -1.063107e+00 -4.294643e-01 -6.006666e-01 -5.230762e-02
<VARIANCE> 39
 1.368971e+01 3.104843e+01 2.102131e+01 2.745696e+01 1.839167e+01 3.347080e+01 2.182784e+01 2.864487e+01 5.412877e+01 2.931355e+01 2.409891e+01 2.731209e+01 3.231123e-03 1.522069e+00 2.321038e+00 2.217542e+00 1.941195e+00 2.410285e+00 2.641570e+00 2.551838e+00 3.849394e+00 3.536457e+00 3.331816e+00 5.058432e+00 6.651769e+00 2.084500e-03 3.088321e-01 4.428036e-01 3.843390e-01 4.420711e-01 3.498389e-01 7.180276e-01 5.678479e-01 7.005742e-01 1.062170e+00 5.678816e-01 5.251030e-01 4.807940e-01 2.855893e-04
<GCONST> 9.563092e+01
<STATE> 4
<NUMMIXES> 2
<MIXTURE> 1 4.848552e-01
<MEAN> 39
 -6.845139e-01 -1.349662e+01 -6.978533e+00 6.351833e+00 7.087724e+00 -8.098893e-01 9.214979e-01 -8.749792e-01 -9.713818e+00 4.221762e-01 3.756135e+00 1.854442e+00 9.526430e-01 -1.025443e+00 -7.448520e-01 6.227248e-01 1.053223e+00 2.484790e-01 -7.209790e-01 -7.446074e-01 -1.740222e+00 1.374584e-01 1.302648e+00 3.212079e-01 -7.538660e-01 1.269825e-02 1.898928e-01 5.942388e-01 4.920830e-01 -2.432658e-01 -3.222255e-01 2.372832e-02 8.511619e-02 3.080207e-01 8.852590e-01 -1.036202e-01 -2.991142e-01 -1.042957e-01 -1.740888e-02
<VARIANCE> 39
 7.611878e+00 2.293688e+01 1.607196e+01 1.942845e+01 1.847305e+01 1.995943e+01 2.089414e+01 1.604236e+01 2.350727e+01 2.080640e+01 2.015705e+01 1.876190e+01 1.631474e-03 3.480650e-01 3.428767e-01 6.303285e-01 7.101558e-01 9.608688e-01 9.652922e-01 1.222854e+00 1.238589e+00 1.390465e+00 1.241063e+00 1.664314e+00 1.312451e+00 1.309466e-04 8.532790e-02 1.060544e-01 1.810136e-01 1.451233e-01 1.188617e-01 2.321422e-01 2.135680e-01 2.369484e-01 2.752635e-01 2.984337e-01 2.387969e-01 2.463162e-01 9.934061e-05
<GCONST> 6.034666e+01
<MIXTURE> 2 5.151450e-01
<MEAN> 39
 -3.288432e+00 -1.530900e+01 8.239962e-01 5.863914e+00 3.418374e+00 -1.533551e+00 -1.618549e+00 -5.475253e+00 4.275958e-01 3.507830e+00 -2.486447e+00 1.654073e+00 9.421747e-01 -1.905552e+00 -7.900778e-01 1.021948e+00 2.957562e-01 -1.329522e+00 -1.821818e+00 -1.651759e+00 -8.559672e-01 -3.921240e-01 -2.286853e+00 -1.903568e+00 -1.075320e+00 1.410888e-02 4.337611e-01 1.068922e+00 3.420921e-01 -1.401740e-01 -8.561086e-02 4.223954e-01 6.053337e-01 8.795020e-01 1.661877e-01 3.939477e-02 6.223077e-01 8.656476e-02 -2.298939e-02
<VARIANCE> 39
 1.110557e+01 2.936917e+01 2.512177e+01 2.509675e+01 1.737559e+01 3.236376e+01 2.247403e+01 2.926414e+01 4.492290e+01 2.675704e+01 2.903883e+01 4.427902e+01 2.362734e-03 5.193801e-01 7.808672e-01 1.279456e+00 1.476923e+00 1.590327e+00 1.532460e+00 2.068460e+00 2.477203e+00 2.392184e+00 1.784125e+00 2.289459e+00 2.436936e+00 1.701653e-04 1.651209e-01 1.746995e-01 2.368053e-01 2.807857e-01 2.870551e-01 3.941182e-01 3.446310e-01 4.338404e-01 5.076582e-01 3.435544e-01 4.458155e-01 6.223277e-01 2.117306e-04
<GCONST> 7.986029e+01
<STATE> 5
<NUMMIXES> 2
<MIXTURE> 1 4.330756e-01
<MEAN> 39
 -5.228113e+00 -1.561627e+01 7.149490e-01 4.518739e+00 -8.414422e-01 -5.688257e+00 -3.545221e+00 -6.529742e+00 -2.623765e+00 -6.664941e-01 -3.923810e+00 -6.135507e-02 9.497636e-01 -2.755054e-01 2.203091e-01 7.922325e-01 3.068762e-01 -6.369635e-01 -3.041779e-01 1.405994e-01 2.844446e-01 -1.489265e-01 -5.396830e-01 -5.343007e-02 -2.034417e-01 -3.964388e-05 4.748660e-01 3.926757e-01 8.990946e-02 2.046018e-01 4.647523e-01 6.497586e-01 5.976264e-01 5.011280e-01 3.404222e-01 5.245669e-01 5.075949e-01 3.158146e-01 -3.412909e-03
<VARIANCE> 39
 1.315484e+01 3.382346e+01 3.148033e+01 2.412146e+01 2.506289e+01 2.607281e+01 2.190569e+01 2.832098e+01 3.688498e+01 2.682443e+01 3.572149e+01 4.520124e+01 2.272682e-03 2.677369e-01 4.437205e-01 7.514860e-01 8.326266e-01 1.126348e+00 1.178465e+00 1.297879e+00 1.560142e+00 1.355916e+00 1.236347e+00 1.073754e+00 9.929793e-01 4.531254e-05 5.515543e-02 5.689089e-02 1.113859e-01 1.489328e-01 1.917928e-01 1.524623e-01 1.923172e-01 1.831973e-01 2.005144e-01 1.964969e-01 2.791180e-01 2.905275e-01 1.597795e-05
<GCONST> 6.095415e+01
<MIXTURE> 2 5.669240e-01
<MEAN> 39
 -3.239895e+00 -1.377235e+01 -1.825732e-01 7.544573e+00 4.059309e+00 -1.371865e+00 -2.329023e-01 -2.262395e+00 -2.650503e+00 1.896141e+00 5.092130e-01 1.658746e+00 9.521974e-01 -5.325861e-01 -2.143072e-01 5.071246e-01 1.593835e-01 -8.622843e-01 -8.195574e-01 -4.611997e-01 -4.262332e-01 -8.773202e-02 -3.692051e-01 -3.222762e-01 -5.665039e-01 1.346964e-03 2.660216e-01 1.197009e-01 -1.997947e-01 -2.540578e-01 -8.185172e-02 1.117886e-01 1.306091e-01 1.511531e-01 -1.490975e-02 -4.215019e-02 6.061244e-02 1.117119e-01 -4.047656e-03
<VARIANCE> 39
 1.207273e+01 3.129502e+01 5.333736e+01 2.288869e+01 2.516954e+01 2.354579e+01 2.058312e+01 2.309464e+01 5.115273e+01 2.553579e+01 3.182869e+01 3.553593e+01 2.095025e-03 2.193110e-01 3.617340e-01 7.331242e-01 9.101706e-01 1.203475e+00 1.087435e+00 1.046057e+00 1.083431e+00 1.449192e+00 1.701185e+00 1.204235e+00 8.927896e-01 6.541154e-05 5.843007e-02 8.562554e-02 1.198353e-01 1.305386e-01 1.473489e-01 1.631750e-01 1.931005e-01 2.838164e-01 2.294900e-01 3.041339e-01 2.439186e-01 1.996548e-01 1.654216e-05
<GCONST> 6.131950e+01
<STATE> 6
<NUMMIXES> 2
<MIXTURE> 1 3.846841e-01
<MEAN> 39
 -2.954961e+00 -1.475867e+01 -6.981131e-01 7.617899e+00 3.743346e+00 -3.318238e+00 -7.618992e-01 -3.468864e+00 -4.397765e+00 1.766403e+00 -1.625288e-01 3.825426e-01 9.502432e-01 4.452446e-02 2.186663e-01 5.961851e-01 4.917931e-01 -5.461287e-02 3.716719e-03 2.888745e-01 2.543539e-01 4.793259e-01 1.899596e-02 6.203282e-02 3.769196e-02 -1.619157e-03 1.284600e-01 6.768878e-02 -1.335509e-01 -1.190932e-01 4.673483e-02 1.492880e-01 8.957327e-02 6.462282e-02 -2.868374e-02 -2.287005e-02 5.259509e-02 9.539565e-02 -1.377204e-03
<VARIANCE> 39
 1.340949e+01 2.859965e+01 4.504737e+01 1.996110e+01 3.079520e+01 2.411902e+01 2.344520e+01 2.665619e+01 3.580257e+01 2.801506e+01 3.194195e+01 3.047407e+01 2.278558e-03 1.846174e-01 3.062553e-01 3.893184e-01 5.259792e-01 6.629357e-01 9.028207e-01 7.891287e-01 8.790922e-01 8.685971e-01 8.162237e-01 8.231634e-01 7.238608e-01 3.754082e-05 2.918404e-02 4.143691e-02 7.321292e-02 7.428630e-02 1.180915e-01 1.106551e-01 1.260119e-01 1.325201e-01 1.322449e-01 1.599337e-01 1.136151e-01 1.096096e-01 5.036315e-06
<GCONST> 4.799134e+01
<MIXTURE> 2 6.153126e-01
<MEAN> 39
 -1.602131e+00 -1.265935e+01 -4.316425e+00 8.117125e+00 6.494750e+00 -3.421737e+00 4.993227e-01 -1.694368e+00 -6.107954e+00 1.112398e+00 2.246949e+00 6.007500e-01 9.423297e-01 6.273121e-02 6.171417e-02 1.865386e-01 1.147634e-01 -1.210916e-01 -3.285528e-02 -1.940171e-02 -4.792275e-02 1.275652e-01 2.937828e-02 -1.275982e-01 -8.392961e-03 -3.104315e-03 4.850851e-02 2.588263e-02 -2.265523e-02 -7.150841e-02 -2.707200e-02 8.805373e-02 1.163118e-02 2.066752e-02 -6.452661e-02 -2.461846e-02 -3.259019e-03 2.356591e-02 -7.235778e-04
<VARIANCE> 39
 9.116173e+00 3.037149e+01 1.653000e+01 2.195628e+01 1.694493e+01 1.737258e+01 1.909260e+01 1.438074e+01 1.828146e+01 1.918947e+01 1.448010e+01 1.031838e+01 2.279283e-03 7.423999e-02 5.904710e-02 1.019972e-01 1.355205e-01 1.472884e-01 2.171550e-01 2.110685e-01 2.030143e-01 2.718788e-01 2.538868e-01 2.096473e-01 1.643823e-01 3.754082e-05 9.850879e-03 9.582983e-03 1.686086e-02 2.374431e-02 2.222426e-02 2.920804e-02 3.357323e-02 3.859308e-02 4.134248e-02 4.502589e-02 3.801602e-02 2.861405e-02 3.730629e-06
<GCONST> 1.005436e+01
<STATE> 7
<NUMMIXES> 2
<MIXTURE> 1 6.146761e-01
<MEAN> 39
 -2.975264e+00 -1.159239e+01 8.391384e-01 5.771821e+00 4.436750e-01 -2.875961e+00 -5.925182e-01 -3.771338e+00 -3.058613e+00 -4.008421e-01 -1.045514e+00 -3.175091e-01 9.287809e-01 2.178895e-01 2.807257e-01 2.321288e-01 1.139263e-01 -5.546645e-02 3.589978e-01 1.807744e-01 1.466517e-01 5.920857e-02 5.705276e-02 7.920359e-02 5.613007e-02 -4.700393e-03 4.733774e-02 4.397603e-02 -1.780776e-02 -3.812191e-02 6.816960e-02 9.638945e-02 1.784809e-02 -1.431151e-02 2.671116e-02 5.311546e-02 4.684957e-03 3.620712e-02 -6.464568e-04
<VARIANCE> 39
 1.313916e+01 3.377740e+01 2.909434e+01 2.384813e+01 2.760590e+01 2.140580e+01 1.807442e+01 2.531909e+01 2.604253e+01 2.350266e+01 2.239670e+01 2.251101e+01 2.802461e-03 1.167590e-01 1.684831e-01 2.882927e-01 3.460526e-01 4.722449e-01 4.564263e-01 4.591135e-01 5.595706e-01 5.589115e-01 4.927185e-01 4.233055e-01 4.629198e-01 3.754082e-05 1.818149e-02 2.848281e-02 5.030964e-02 6.721441e-02 8.434913e-02 9.299766e-02 8.882324e-02 9.163079e-02 9.612603e-02 8.382597e-02 7.193435e-02 7.544404e-02 3.730629e-06
<GCONST> 3.589774e+01
<MIXTURE> 2 3.853242e-01
<MEAN> 39
 -3.647056e+00 -1.167650e+01 3.880704e+00 7.460876e+00 8.976911e-01 -1.748507e+00 1.178805e+00 -1.936172e+00 -1.250531e-01 4.816421e-01 -1.241746e+00 5.129128e-01 9.427735e-01 -1.038523e-01 -7.190146e-02 -1.184470e-01 -2.866180e-01 -4.954157e-01 -2.831022e-01 -3.184424e-01 -3.995472e-01 -2.981030e-01 -4.427274e-01 -1.876486e-01 -2.591121e-01 -3.057044e-03 -8.988138e-02 -1.790244e-01 -2.931350e-01 -3.308847e-01 -1.897327e-01 -2.430339e-01 -3.525044e-01 -3.235781e-01 -2.674290e-01 -1.726770e-01 -1.914680e-01 -1.365971e-01 -5.549328e-04
<VARIANCE> 39
 9.976697e+00 3.691665e+01 3.975925e+01 2.208312e+01 2.001205e+01 2.300947e+01 1.984385e+01 2.569631e+01 2.202662e+01 2.362160e+01 2.341729e+01 2.597700e+01 2.317069e-03 1.214860e-01 2.000640e-01 3.186657e-01 3.955287e-01 5.669255e-01 5.468104e-01 6.349889e-01 6.431625e-01 5.528049e-01 5.140207e-01 4.512277e-01 5.444115e-01 3.754082e-05 2.131575e-02 3.957118e-02 6.791208e-02 7.545393e-02 9.293662e-02 1.054820e-01 1.100359e-01 1.241899e-01 9.693178e-02 9.250996e-02 8.432274e-02 1.064411e-01 3.730629e-06
<GCONST> 3.942478e+01
<STATE> 8
<NUMMIXES> 2
<MIXTURE> 1 6.695535e-01
<MEAN> 39
 -2.063169e+00 -1.173494e+01 1.293675e+00 6.128414e+00 -3.213815e-01 -3.249468e+00 -1.778125e+00 -4.247533e+00 -4.003077e+00 -1.109769e+00 -2.248201e+00 -1.286823e+00 8.848072e-01 3.047540e-01 4.257298e-01 3.088323e-01 6.073125e-03 8.019399e-02 4.819479e-01 7.956722e-02 1.293504e-02 1.281303e-01 1.325788e-01 6.692155e-02 1.219760e-01 -6.863736e-03 6.553678e-02 1.053416e-01 3.797833e-02 -4.490545e-02 1.005601e-01 1.600873e-01 6.417798e-02 2.814896e-02 7.366278e-02 4.440793e-02 2.474570e-02 8.427456e-02 -7.362414e-04
<VARIANCE> 39
 1.507260e+01 3.525965e+01 3.718021e+01 2.818280e+01 3.498245e+01 2.739537e+01 2.391315e+01 2.847740e+01 2.643044e+01 2.413684e+01 3.773608e+01 2.798021e+01 5.723825e-03 1.742814e-01 2.265025e-01 4.221830e-01 5.393972e-01 6.696225e-01 6.286101e-01 7.406735e-01 7.926501e-01 5.903456e-01 7.331622e-01 5.988690e-01 5.743829e-01 5.167963e-05 3.092122e-02 5.137838e-02 8.529375e-02 1.269993e-01 1.328609e-01 1.482719e-01 1.365797e-01 1.553531e-01 1.345971e-01 1.454162e-01 1.333431e-01 1.112952e-01 4.166441e-06
<GCONST> 4.938611e+01
<MIXTURE> 2 3.304432e-01
<MEAN> 39
 -4.445577e+00 -1.296328e+01 4.038144e+00 5.606314e+00 -2.129378e+00 -3.598146e+00 -1.683582e+00 -3.803289e+00 -1.770185e+00 -1.412810e+00 -3.060766e+00 -1.576677e-01 9.116887e-01 -3.323360e-01 -5.036835e-01 -7.469472e-01 -1.013504e+00 -9.021415e-01 -9.242540e-01 -1.155634e+00 -1.030958e+00 -7.988424e-01 -7.526867e-01 -5.043435e-01 -4.092323e-01 -4.442564e-03 5.296389e-02 4.435690e-02 -5.519543e-02 -4.852192e-02 1.209477e-01 7.983181e-02 -2.579228e-02 -5.654191e-03 6.939619e-02 6.736184e-02 6.066882e-02 4.101658e-02 -5.637756e-04
<VARIANCE> 39
 1.223917e+01 3.925129e+01 3.934074e+01 2.718656e+01 2.598646e+01 3.197950e+01 2.519239e+01 2.902300e+01 2.706164e+01 2.266160e+01 3.969927e+01 4.618250e+01 4.184758e-03 1.570375e-01 2.468967e-01 4.342054e-01 5.168581e-01 7.492943e-01 6.558595e-01 6.502747e-01 7.560894e-01 6.053945e-01 6.992571e-01 7.282848e-01 7.506190e-01 3.754082e-05 3.793554e-02 7.346746e-02 1.125353e-01 1.372821e-01 1.519769e-01 1.910017e-01 1.756734e-01 1.641484e-01 1.455107e-01 1.377851e-01 1.209547e-01 1.055480e-01 3.730629e-06
<GCONST> 5.087424e+01
<STATE> 9
<NUMMIXES> 2
<MIXTURE> 1 3.917249e-01
<MEAN> 39
 -4.587459e+00 -1.425547e+01 1.800936e+00 4.325285e+00 -2.858555e+00 -5.459968e+00 -4.229856e+00 -6.967840e+00 -3.422088e+00 -2.435330e+00 -2.826384e+00 2.916475e-02 8.962783e-01 3.880804e-01 4.946319e-01 1.458769e-02 -2.304623e-01 4.459946e-01 5.624356e-01 -1.104089e-01 -4.627783e-02 2.678379e-01 1.155518e-01 3.544206e-01 2.591745e-01 -7.973932e-03 2.889674e-01 3.675760e-01 1.313952e-01 1.033597e-01 3.915055e-01 4.560507e-01 3.119117e-01 3.137921e-01 2.476270e-01 2.184281e-01 2.622845e-01 1.664151e-01 -1.746360e-03
<VARIANCE> 39
 1.813975e+01 3.755993e+01 3.409208e+01 2.392483e+01 3.384631e+01 2.725281e+01 2.482596e+01 2.565999e+01 3.170254e+01 2.331483e+01 4.136003e+01 6.035602e+01 5.588985e-03 4.103804e-01 5.842409e-01 8.920353e-01 1.239596e+00 1.508060e+00 1.378842e+00 1.629494e+00 1.390464e+00 1.235412e+00 1.158514e+00 1.216320e+00 1.211920e+00 8.399705e-05 4.737806e-02 6.331727e-02 1.293590e-01 2.005673e-01 1.980230e-01 1.795775e-01 2.280135e-01 1.795864e-01 1.945559e-01 2.199559e-01 2.151679e-01 2.234519e-01 8.011772e-06
<GCONST> 6.510059e+01
<MIXTURE> 2 6.082755e-01
<MEAN> 39
 -1.773071e+00 -1.093217e+01 2.925557e+00 7.772141e+00 1.080757e+00 -9.957104e-01 -4.614523e-01 -3.113495e+00 -1.528890e+00 8.058518e-01 5.335234e-01 1.756251e+00 8.836585e-01 2.304268e-01 4.860952e-01 -1.261818e-01 -5.063567e-01 1.417122e-01 4.132152e-01 -3.472184e-01 -3.074627e-01 2.392530e-02 -8.054639e-02 9.634618e-02 8.292700e-03 -8.529601e-03 -3.257418e-02 -6.358144e-03 -2.340046e-01 -4.020427e-01 -1.591724e-01 -1.260004e-01 -2.110826e-01 -2.499438e-01 -1.875338e-01 -2.153179e-01 -1.506985e-01 -1.362084e-01 -1.481700e-03
<VARIANCE> 39
 1.721705e+01 4.360466e+01 4.327191e+01 2.631609e+01 2.836801e+01 2.315643e+01 2.619143e+01 2.290641e+01 4.009629e+01 2.281947e+01 2.955470e+01 3.578504e+01 6.910140e-03 3.752242e-01 5.464444e-01 1.136374e+00 1.185773e+00 1.425132e+00 1.321081e+00 1.823859e+00 1.524429e+00 1.546331e+00 1.544918e+00 1.447088e+00 1.180126e+00 7.712873e-05 5.159174e-02 8.817287e-02 1.933036e-01 1.536696e-01 1.610095e-01 2.044891e-01 2.493487e-01 2.044907e-01 2.509679e-01 2.296238e-01 2.257187e-01 2.129694e-01 6.944214e-06
<GCONST> 6.626784e+01
<STATE> 10
<MEAN> 39
 -2.154817e+00 -1.239907e+01 3.251747e-01 5.450382e+00 1.926572e+00 -1.518607e+00 -2.758742e+00 -5.171988e+00 -3.549262e+00 1.667773e-01 -2.602237e-01 8.069356e-01 8.907414e-01 5.085479e-01 7.023312e-01 -4.423802e-01 -1.240276e+00 1.142357e-01 7.953463e-01 -2.127136e-01 -4.935217e-01 -1.795204e-01 -3.003291e-01 -3.345796e-02 -4.553594e-02 -1.131382e-02 2.532279e-01 3.846171e-01 5.673936e-02 -2.194450e-01 -1.126181e-01 1.277485e-01 2.563648e-01 1.459701e-01 8.632772e-02 -1.362879e-01 -3.307034e-02 -1.679297e-02 -3.860696e-03
<VARIANCE> 39
 1.940018e+01 3.871152e+01 3.697400e+01 3.018249e+01 3.000346e+01 2.730381e+01 3.812870e+01 3.281150e+01 5.136875e+01 3.452776e+01 3.866593e+01 3.680040e+01 6.902539e-03 5.403742e-01 6.931176e-01 2.266847e+00 1.945674e+00 1.779865e+00 2.072405e+00 2.591903e+00 2.241056e+00 1.857125e+00 2.124186e+00 2.617753e+00 1.901925e+00 1.218971e-04 9.138627e-02 9.129780e-02 1.364403e-01 2.140214e-01 2.674026e-01 2.738237e-01 3.158702e-01 2.621850e-01 4.387596e-01 3.637358e-01 3.462066e-01 2.856042e-01 1.804230e-05
<GCONST> 7.795634e+01
<STATE> 11
<MEAN> 39
 -1.235957e+00 -1.116168e+01 -4.976489e-01 3.449779e+00 2.044981e+00 -2.996385e-01 -2.899208e+00 -6.214984e+00 -4.223701e+00 -5.476088e-01 -4.161223e-01 3.850293e-01 8.738512e-01 9.425900e-01 1.357021e+00 -2.000305e-01 -1.488576e+00 -8.952969e-02 1.006804e+00 4.217011e-01 -5.883480e-02 1.156131e-01 -4.728220e-01 -7.450823e-02 6.090998e-02 -1.648744e-02 2.116232e-01 4.714758e-01 3.436677e-01 1.189981e-01 -2.003773e-01 -1.050897e-01 2.298470e-01 3.585032e-01 2.603056e-01 -2.711424e-02 -5.486210e-02 -3.427934e-02 -6.009615e-03
<VARIANCE> 39
 1.909865e+01 3.990289e+01 3.283769e+01 3.657614e+01 3.119351e+01 3.332880e+01 4.917213e+01 4.094149e+01 4.267854e+01 3.223425e+01 3.583569e+01 3.070367e+01 7.977969e-03 7.439699e-01 8.277752e-01 2.329926e+00 3.018054e+00 2.148211e+00 2.088348e+00 2.475278e+00 2.490412e+00 2.794309e+00 2.727847e+00 3.682189e+00 2.268348e+00 1.764163e-04 1.299171e-01 1.583446e-01 2.102804e-01 2.869185e-01 4.075990e-01 4.218749e-01 4.951890e-01 4.737401e-01 4.516231e-01 4.274880e-01 4.092944e-01 3.836195e-01 4.019154e-05
<GCONST> 8.613367e+01
<STATE> 12
<MEAN> 39
 2.098909e-02 -8.969872e+00 -1.016366e+00 1.697768e-01 2.129503e+00 2.121486e+00 -1.570756e+00 -5.438145e+00 -3.677069e+00 -1.452307e+00 -3.053286e-01 9.112252e-01 8.537968e-01 1.219097e+00 2.143434e+00 3.920099e-01 -1.383499e+00 -8.435479e-01 3.853465e-01 6.946228e-01 6.693016e-01 6.249484e-01 -6.272830e-01 -3.895587e-01 -2.012014e-01 -2.388845e-02 -5.779997e-02 2.204664e-01 4.792348e-01 6.313332e-01 -1.610332e-01 -4.548698e-01 -8.317594e-02 2.523312e-01 2.731720e-01 1.825515e-01 -9.378473e-03 -1.365988e-01 -7.775314e-03
<VARIANCE> 39
 1.784500e+01 3.773133e+01 3.618435e+01 6.235505e+01 3.224017e+01 4.344408e+01 5.538760e+01 4.910745e+01 3.872046e+01 3.709558e+01 4.768070e+01 3.283266e+01 8.186782e-03 1.064066e+00 1.442134e+00 2.164518e+00 3.225296e+00 3.132340e+00 2.772934e+00 2.671042e+00 3.200916e+00 4.064711e+00 3.392549e+00 3.627715e+00 2.827087e+00 2.923690e-04 1.378711e-01 1.672102e-01 3.690857e-01 6.569495e-01 5.585466e-01 7.067199e-01 6.814160e-01 6.603071e-01 5.431507e-01 5.991374e-01 8.104081e-01 5.335356e-01 9.339483e-05
<GCONST> 9.622309e+01
<STATE> 13
<MEAN> 39
 2.343794e+00 -5.374054e+00 3.171943e-01 -7.887618e-01 -6.336175e-01 8.469856e-01 -4.221461e-01 -4.066581e+00 -2.335156e+00 -2.327996e+00 -1.629944e+00 -8.784065e-02 8.179358e-01 9.301800e-01 2.158422e+00 1.395502e+00 3.835272e-01 -6.114007e-01 -3.855523e-01 3.889052e-02 5.974228e-01 9.251222e-01 8.551565e-02 -1.211563e-01 -3.223483e-01 -3.595371e-02 -4.855151e-01 -2.598438e-01 2.031602e-01 7.983110e-01 3.919488e-01 -9.241948e-02 -1.896756e-01 6.582799e-02 5.875605e-03 3.566196e-01 2.532654e-01 3.094620e-02 -1.111008e-02
<VARIANCE> 39
 1.593227e+01 4.129450e+01 4.198494e+01 7.834126e+01 4.027973e+01 3.575928e+01 5.659895e+01 4.585299e+01 4.136553e+01 4.004007e+01 4.546162e+01 2.894872e+01 9.909964e-03 1.087832e+00 1.665484e+00 1.972563e+00 2.730579e+00 3.052770e+00 4.112005e+00 3.251337e+00 3.225300e+00 3.280303e+00 2.646391e+00 3.432626e+00 3.027969e+00 6.565399e-04 2.313549e-01 2.188671e-01 3.719853e-01 7.867974e-01 5.456288e-01 4.684286e-01 6.757348e-01 7.542028e-01 7.106288e-01 6.740401e-01 7.837629e-01 4.533740e-01 2.098849e-04
<GCONST> 9.922159e+01
<STATE> 14
<MEAN> 39
 3.514400e+00 -1.348269e+00 4.507235e+00 2.514095e+00 -1.108716e+00 -8.032078e-01 -2.476388e+00 -4.392365e+00 -1.716373e+00 -1.298831e+00 -1.164954e+00 -2.591777e-01 7.359614e-01 -3.029467e-01 1.092833e+00 1.296177e+00 1.570665e+00 6.046390e-01 1.175279e-01 -7.715915e-02 4.380286e-01 5.260668e-01 5.375507e-01 3.116408e-01 -6.088612e-02 -5.735726e-02 -6.688009e-01 -6.163712e-01 -4.310506e-01 1.507388e-01 4.080301e-01 3.317419e-01 1.830611e-01 2.433642e-01 -1.114256e-05 2.342988e-01 2.867918e-01 1.010707e-01 -1.219018e-02
<VARIANCE> 39
 1.430014e+01 4.510888e+01 4.672962e+01 6.084016e+01 3.728777e+01 3.317334e+01 5.482140e+01 4.561457e+01 4.347739e+01 3.940414e+01 3.845587e+01 3.313347e+01 1.437386e-02 1.235460e+00 1.754528e+00 1.898251e+00 4.511539e+00 2.849248e+00 3.034706e+00 3.903839e+00 3.972407e+00 3.350182e+00 3.149254e+00 3.703491e+00 2.528626e+00 1.742795e-03 3.408133e-01 3.070776e-01 4.382881e-01 4.851084e-01 5.359582e-01 5.973774e-01 6.473376e-01 7.146066e-01 6.565843e-01 6.276746e-01 6.146523e-01 5.326782e-01 2.510176e-04
<GCONST> 1.014502e+02
<STATE> 15
<MEAN> 39
 1.063871e+00 -2.690959e+00 5.255980e+00 6.887383e+00 2.667806e+00 1.014803e+00 -1.336410e+00 -3.497340e+00 -1.571173e+00 -2.317231e-01 1.186808e-01 2.550857e-01 6.150829e-01 -1.479504e+00 -2.039025e-01 -3.701996e-01 5.651360e-01 7.430288e-01 9.232163e-01 6.559212e-01 1.351633e+00 8.694559e-01 7.750571e-01 9.227072e-01 1.746766e-01 -7.983119e-02 -3.335511e-01 -3.628898e-01 -7.196417e-01 -5.760108e-01 -1.415526e-01 1.572106e-01 2.231241e-01 2.604834e-01 9.069441e-02 8.241621e-02 5.084807e-02 1.279929e-02 6.092561e-04
<VARIANCE> 39
 1.505807e+01 4.833182e+01 5.191856e+01 6.188373e+01 3.830545e+01 3.534851e+01 4.663722e+01 4.680028e+01 4.904204e+01 3.804347e+01 3.604408e+01 2.993520e+01 2.784985e-02 2.275894e+00 2.482449e+00 2.181439e+00 3.371599e+00 2.997362e+00 3.312798e+00 4.000016e+00 4.077749e+00 3.613303e+00 4.135215e+00 3.729908e+00 2.993464e+00 3.578540e-03 2.085580e-01 3.963459e-01 4.286669e-01 5.459793e-01 5.375879e-01 5.967010e-01 6.451373e-01 7.457247e-01 7.727658e-01 5.785868e-01 5.389899e-01 4.913663e-01 3.495483e-04
<GCONST> 1.045677e+02
<TRANSP> 16
 0.000000e+00 1.000000e+00 0.000000e+00 0.000000e+00 0.000000e+00 0.000000e+00 0.000000e+00 0.000000e+00 0.000000e+00 0.000000e+00 0.000000e+00 0.000000e+00 0.000000e+00 0.000000e+00 0.000000e+00 0.000000e+00
 0.000000e+00 6.393290e-01 3.606710e-01 0.000000e+00 0.000000e+00 0.000000e+00 0.000000e+00 0.000000e+00 0.000000e+00 0.000000e+00 0.000000e+00 0.000000e+00 0.000000e+00 0.000000e+00 0.000000e+00 0.000000e+00
 0.000000e+00 0.000000e+00 4.156423e-01 5.843577e-01 0.000000e+00 0.000000e+00 0.000000e+00 0.000000e+00 0.000000e+00 0.000000e+00 0.000000e+00 0.000000e+00 0.000000e+00 0.000000e+00 0.000000e+00 0.000000e+00
 0.000000e+00 0.000000e+00 0.000000e+00 4.080502e-01 5.919498e-01 0.000000e+00 0.000000e+00 0.000000e+00 0.000000e+00 0.000000e+00 0.000000e+00 0.000000e+00 0.000000e+00 0.000000e+00 0.000000e+00 0.000000e+00
 0.000000e+00 0.000000e+00 0.000000e+00 0.000000e+00 5.052787e-01 4.947213e-01 0.000000e+00 0.000000e+00 0.000000e+00 0.000000e+00 0.000000e+00 0.000000e+00 0.000000e+00 0.000000e+00 0.000000e+00 0.000000e+00
 0.000000e+00 0.000000e+00 0.000000e+00 0.000000e+00 0.000000e+00 7.290657e-01 2.709343e-01 0.000000e+00 0.000000e+00 0.000000e+00 0.000000e+00 0.000000e+00 0.000000e+00 0.000000e+00 0.000000e+00 0.000000e+00
 0.000000e+00 0.000000e+00 0.000000e+00 0.000000e+00 0.000000e+00 0.000000e+00 6.858330e-01 3.141670e-01 0.000000e+00 0.000000e+00 0.000000e+00 0.000000e+00 0.000000e+00 0.000000e+00 0.000000e+00 0.000000e+00
 0.000000e+00 0.000000e+00 0.000000e+00 0.000000e+00 0.000000e+00 0.000000e+00 0.000000e+00 6.411933e-01 3.588068e-01 0.000000e+00 0.000000e+00 0.000000e+00 0.000000e+00 0.000000e+00 0.000000e+00 0.000000e+00
 0.000000e+00 0.000000e+00 0.000000e+00 0.000000e+00 0.000000e+00 0.000000e+00 0.000000e+00 0.000000e+00 5.504851e-01 4.495149e-01 0.000000e+00 0.000000e+00 0.000000e+00 0.000000e+00 0.000000e+00 0.000000e+00
 0.000000e+00 0.000000e+00 0.000000e+00 0.000000e+00 0.000000e+00 0.000000e+00 0.000000e+00 0.000000e+00 0.000000e+00 1.794655e-01 8.205346e-01 0.000000e+00 0.000000e+00 0.000000e+00 0.000000e+00 0.000000e+00
 0.000000e+00 0.000000e+00 0.000000e+00 0.000000e+00 0.000000e+00 0.000000e+00 0.000000e+00 0.000000e+00 0.000000e+00 0.000000e+00 8.336963e-02 9.166304e-01 0.000000e+00 0.000000e+00 0.000000e+00 0.000000e+00
 0.000000e+00 0.000000e+00 0.000000e+00 0.000000e+00 0.000000e+00 0.000000e+00 0.000000e+00 0.000000e+00 0.000000e+00 0.000000e+00 0.000000e+00 2.417267e-01 7.582733e-01 0.000000e+00 0.000000e+00 0.000000e+00
 0.000000e+00 0.000000e+00 0.000000e+00 0.000000e+00 0.000000e+00 0.000000e+00 0.000000e+00 0.000000e+00 0.000000e+00 0.000000e+00 0.000000e+00 0.000000e+00 1.010607e-01 8.989393e-01 0.000000e+00 0.000000e+00
 0.000000e+00 0.000000e+00 0.000000e+00 0.000000e+00 0.000000e+00 0.000000e+00 0.000000e+00 0.000000e+00 0.000000e+00 0.000000e+00 0.000000e+00 0.000000e+00 0.000000e+00 3.582255e-01 6.417745e-01 0.000000e+00
 0.000000e+00 0.000000e+00 0.000000e+00 0.000000e+00 0.000000e+00 0.000000e+00 0.000000e+00 0.000000e+00 0.000000e+00 0.000000e+00 0.000000e+00 0.000000e+00 0.000000e+00 0.000000e+00 3.165259e-01 6.834741e-01
 0.000000e+00 0.000000e+00 0.000000e+00 0.000000e+00 0.000000e+00 0.000000e+00 0.000000e+00 0.000000e+00 0.000000e+00 0.000000e+00 0.000000e+00 0.000000e+00 0.000000e+00 0.000000e+00 0.000000e+00 0.000000e+00
<ENDHMM>
~h "qi"
<BEGINHMM>
<NUMSTATES> 16
<STATE> 2
<NUMMIXES> 2
<MIXTURE> 1 5.219204e-01
<MEAN> 39
 -9.264689e+00 -2.555354e-01 1.611691e+00 1.029054e+01 5.480338e+00 1.034715e+01 7.560962e+00 8.427252e+00 5.445300e+00 6.278102e+00 4.385290e+00 2.136151e+00 2.904812e-01 -1.615563e+00 1.079176e+00 -7.851470e-01 7.542902e-01 6.529717e-01 2.805269e-01 6.180024e-01 3.016998e-01 -4.771805e-02 -3.164199e-02 -3.003846e-02 -4.458346e-02 4.166718e-02 4.085164e-01 -5.103001e-02 8.804105e-02 -4.826693e-01 -1.373639e-01 -4.243367e-01 -3.655548e-01 -4.308584e-01 -2.873385e-01 -3.835885e-01 -1.602737e-01 -9.457226e-02 5.546092e-03
<VARIANCE> 39
 1.863978e+01 3.783980e+01 2.797527e+01 1.676333e+01 2.012069e+01 2.036313e+01 2.059344e+01 2.243700e+01 2.100130e+01 2.141699e+01 2.752013e+01 2.774730e+01 1.632173e-02 9.291485e-01 2.142858e+00 1.482328e+00 1.852585e+00 1.870417e+00 2.185598e+00 2.191679e+00 2.135596e+00 2.205366e+00 2.288494e+00 2.017400e+00 2.058506e+00 9.196003e-04 2.186487e-01 4.928924e-01 3.048533e-01 2.840211e-01 3.322416e-01 4.099859e-01 4.898638e-01 4.717953e-01 4.536021e-01 4.284661e-01 4.201321e-01 3.887261e-01 4.230044e-04
<GCONST> 8.651941e+01
<MIXTURE> 2 4.780792e-01
<MEAN> 39
 -9.471782e+00 -2.242008e+00 -3.041370e+00 6.057986e+00 1.105146e-01 4.620751e+00 3.049279e+00 3.378542e+00 2.501712e+00 2.697936e+00 2.869182e+00 2.810990e+00 2.816508e-01 -2.641476e+00 3.024948e-01 -1.772130e+00 4.084340e-01 4.059631e-01 3.597572e-01 4.836020e-01 5.531141e-01 3.772982e-01 3.352367e-01 4.363458e-01 2.289798e-01 1.096631e-02 5.031769e-01 4.031905e-01 4.612935e-01 -1.088469e-01 2.463707e-01 -3.869242e-02 3.272685e-02 -1.656389e-01 1.069396e-02 -1.587227e-01 -2.065169e-01 -1.187755e-01 2.423479e-02
<VARIANCE> 39
 2.212831e+01 4.372818e+01 2.346005e+01 2.042016e+01 1.755922e+01 1.891363e+01 2.444646e+01 2.564551e+01 2.502889e+01 2.147660e+01 2.225247e+01 1.833137e+01 1.574787e-02 1.859938e+00 3.476293e+00 2.651232e+00 2.298800e+00 1.957403e+00 2.081117e+00 2.997079e+00 2.693712e+00 2.911401e+00 2.665524e+00 2.142541e+00 2.167716e+00 3.909030e-03 3.099222e-01 6.345715e-01 4.242860e-01 4.007647e-01 3.738158e-01 4.070935e-01 4.666494e-01 4.311168e-01 4.818192e-01 4.863222e-01 4.235826e-01 3.870149e-01 5.475359e-04
<GCONST> 9.267076e+01
<STATE> 3
<NUMMIXES> 2
<MIXTURE> 1 5.113170e-01
<MEAN> 39
 -1.154330e+01 5.238801e-01 1.385929e-01 9.356343e+00 7.138849e+00 1.004354e+01 7.840932e+00 7.883711e+00 4.412432e+00 4.462140e+00 3.576845e+00 7.939454e-02 4.182069e-01 -1.305673e-01 1.809078e-01 -3.100377e-01 -2.587770e-01 7.699689e-02 -2.916972e-02 1.164893e-01 7.923528e-02 3.323468e-02 -1.086588e-01 4.356205e-02 -1.757182e-01 1.836280e-02 1.996573e-01 6.170512e-03 2.810390e-02 -1.585141e-01 -2.169504e-01 -1.774080e-01 -1.630374e-01 -6.097347e-02 8.090359e-03 3.891708e-02 6.102424e-02 9.438574e-02 -3.766712e-03
<VARIANCE> 39
 1.273446e+01 3.090302e+01 1.875793e+01 1.416425e+01 1.939740e+01 1.995742e+01 2.169383e+01 2.552848e+01 2.976275e+01 2.776895e+01 4.171513e+01 3.587508e+01 1.478144e-02 4.276929e-01 5.678627e-01 8.833953e-01 1.169016e+00 1.486287e+00 1.682979e+00 1.895151e+00 1.866189e+00 2.285913e+00 2.153476e+00 1.969182e+00 1.784607e+00 4.560607e-04 8.937938e-02 1.329412e-01 1.708643e-01 2.280557e-01 3.210099e-01 3.559070e-01 4.004749e-01 4.005931e-01 5.042789e-01 4.569564e-01 4.341115e-01 4.001773e-01 6.068047e-05
<GCONST> 7.667372e+01
<MIXTURE> 2 4.886796e-01
<MEAN> 39
 -1.484667e+01 7.285650e-01 -6.054864e+00 5.243220e+00 2.696142e+00 4.269179e+00 4.547857e+00 3.341467e+00 4.254374e+00 2.313938e+00 3.246823e+00 3.309415e+00 4.753591e-01 -1.869412e-01 3.046998e-01 -9.611603e-02 -4.142954e-01 2.493432e-01 -2.395692e-01 4.555041e-02 -2.091712e-01 1.570600e-01 -2.939202e-01 -3.245566e-03 -1.368509e-01 1.619868e-02 4.492704e-01 1.839119e-01 3.660038e-01 2.887360e-02 -4.305433e-02 -5.824923e-02 -1.568100e-01 -9.500582e-02 -8.447476e-02 -8.559289e-02 -8.376098e-02 -1.399233e-01 -8.764293e-04
<VARIANCE> 39
 1.534497e+01 2.938276e+01 1.797458e+01 1.995586e+01 1.611130e+01 2.152386e+01 2.493233e+01 2.927691e+01 2.508117e+01 2.977866e+01 2.727688e+01 2.553302e+01 9.560456e-03 6.269968e-01 8.708543e-01 1.006782e+00 1.255060e+00 1.471807e+00 1.579589e+00 1.926900e+00 2.122642e+00 2.125358e+00 2.076721e+00 2.006479e+00 1.856359e+00 5.042303e-04 1.886346e-01 2.777295e-01 2.159875e-01 2.724928e-01 2.918606e-01 3.780758e-01 4.741681e-01 4.652961e-01 4.606016e-01 4.651994e-01 4.288425e-01 4.060336e-01 1.751315e-04
<GCONST> 8.027705e+01
<STATE> 4
<NUMMIXES> 2
<MIXTURE> 1 4.876497e-01
<MEAN> 39
 -1.156551e+01 2.537958e+00 -7.059406e-01 8.631264e+00 7.247733e+00 9.869222e+00 8.453581e+00 9.022614e+00 4.304829e+00 4.593478e+00 3.672729e+00 -6.611528e-01 4.320574e-01 8.912780e-01 8.736318e-01 4.625321e-02 -8.571818e-01 -1.043789e+00 -1.366011e+00 -1.140521e+00 -4.285624e-01 -1.463592e-02 1.645669e-01 5.046616e-01 5.608853e-01 2.234810e-02 8.717758e-01 5.413704e-01 1.844771e-03 -8.257523e-01 -1.140782e+00 -1.310654e+00 -1.079581e+00 -7.142320e-01 -2.512361e-01 -7.257885e-02 4.944738e-02 4.604904e-01 2.861984e-02
<VARIANCE> 39
 1.428963e+01 2.609293e+01 1.806853e+01 1.847261e+01 1.890287e+01 2.553753e+01 2.132380e+01 2.717147e+01 3.730192e+01 3.356002e+01 4.383105e+01 3.278058e+01 1.076458e-02 8.758684e-01 7.582499e-01 8.158175e-01 1.654403e+00 2.748080e+00 2.713214e+00 2.758805e+00 2.246752e+00 2.683417e+00 2.632330e+00 2.429759e+00 2.197280e+00 1.301725e-03 1.157260e-01 1.264129e-01 2.336327e-01 3.414767e-01 3.102685e-01 3.625740e-01 4.439938e-01 5.171041e-01 8.046747e-01 6.631548e-01 6.189603e-01 6.683904e-01 1.466601e-04
<GCONST> 8.578366e+01
<MIXTURE> 2 5.123492e-01
<MEAN> 39
 -1.364155e+01 2.257195e+00 -4.696619e+00 4.938154e+00 4.107659e+00 5.093502e+00 5.538368e+00 4.127724e+00 5.532405e+00 2.130842e+00 4.397568e+00 2.597456e+00 4.612513e-01 2.599122e+00 2.481504e+00 1.457351e+00 -1.020260e+00 -1.618764e+00 -2.487725e+00 -2.587040e+00 -1.971867e+00 -1.242612e+00 -1.211954e+00 -8.362731e-01 -7.491059e-01 6.715156e-02 9.843089e-01 6.575845e-01 3.628671e-01 -6.585614e-01 -8.142175e-01 -7.989067e-01 -9.117954e-01 -3.739266e-01 -3.356067e-01 -3.790655e-01 -2.837704e-01 -4.397436e-01 3.067191e-02
<VARIANCE> 39
 1.545396e+01 2.584322e+01 1.808046e+01 1.941031e+01 1.823287e+01 2.662032e+01 2.800368e+01 3.527689e+01 2.813776e+01 3.027948e+01 3.015325e+01 2.695540e+01 8.744427e-03 1.081200e+00 9.311708e-01 1.242306e+00 2.048234e+00 2.619977e+00 3.041149e+00 2.911298e+00 2.289300e+00 2.128849e+00 2.102360e+00 2.070163e+00 2.775445e+00 1.077067e-03 1.330413e-01 1.683737e-01 2.884290e-01 2.830161e-01 3.030024e-01 4.280544e-01 4.658772e-01 5.398738e-01 5.308231e-01 4.929674e-01 5.675045e-01 4.408051e-01 6.702138e-05
<GCONST> 8.457967e+01
<STATE> 5
<NUMMIXES> 2
<MIXTURE> 1 6.298876e-01
<MEAN> 39
 -9.139576e+00 6.931791e+00 -7.941785e-01 5.804299e+00 3.734779e+00 2.292660e+00 2.518834e+00 8.793750e-01 1.364086e+00 -1.313127e+00 -2.851574e-01 -1.211353e+00 5.835907e-01 3.786710e+00 2.986753e+00 1.534023e+00 -2.650729e+00 -2.907629e+00 -3.238030e+00 -3.405087e+00 -1.565799e+00 -3.537456e-01 -8.823479e-01 -1.882086e-02 -8.126228e-01 1.078020e-01 2.040695e-01 -6.581953e-02 -1.791619e-01 -7.533979e-01 -5.471995e-01 -3.347354e-01 -4.350051e-01 1.053357e-01 1.966472e-01 2.941600e-02 4.013199e-01 2.301083e-01 1.513000e-02
<VARIANCE> 39
 1.486525e+01 3.002536e+01 1.723844e+01 1.650429e+01 1.923864e+01 3.201373e+01 3.067558e+01 5.234074e+01 2.592772e+01 3.603625e+01 2.833578e+01 2.621875e+01 1.977136e-02 8.374920e-01 1.199435e+00 3.017020e+00 2.055010e+00 2.019766e+00 2.807469e+00 2.810856e+00 2.968041e+00 4.192409e+00 5.160434e+00 4.548785e+00 6.573479e+00 5.151673e-04 1.940378e-01 1.927731e-01 2.283587e-01 2.613699e-01 3.455964e-01 4.653074e-01 4.729272e-01 6.488199e-01 4.611115e-01 5.491551e-01 5.092489e-01 5.859451e-01 1.625348e-04
<GCONST> 9.092616e+01
<MIXTURE> 2 3.701123e-01
<MEAN> 39
 -6.407612e+00 7.947797e+00 1.551018e+00 5.455283e+00 6.406865e-01 3.378238e-01 -1.230797e+00 2.187752e+00 2.156423e+00 4.416491e+00 7.597025e+00 4.104122e+00 6.480226e-01 3.781336e+00 2.488294e+00 -2.630170e-01 -3.614370e+00 -4.359282e+00 -5.242185e+00 -4.062741e+00 -2.616937e+00 -1.803223e+00 -1.075883e+00 -9.890034e-01 5.513013e-01 1.240486e-01 -2.859158e-02 -1.473935e-01 -4.734773e-01 -4.472560e-01 -7.488095e-03 4.347582e-02 4.176518e-01 2.012052e-01 -2.352698e-01 -3.698686e-01 -8.556370e-01 -4.638617e-01 6.809459e-03
<VARIANCE> 39
 1.330071e+01 2.571118e+01 1.637027e+01 1.813095e+01 2.760961e+01 2.857712e+01 2.340429e+01 2.840679e+01 2.579729e+01 3.626890e+01 3.230114e+01 1.976579e+01 1.033290e-02 7.345542e-01 7.213436e-01 1.720120e+00 1.576114e+00 1.537338e+00 1.737147e+00 1.902979e+00 2.297192e+00 2.793304e+00 3.072526e+00 3.347347e+00 5.459264e+00 8.005054e-04 1.467226e-01 1.461924e-01 2.154034e-01 3.033078e-01 3.878341e-01 4.358778e-01 3.926361e-01 6.294081e-01 4.885401e-01 6.066404e-01 5.969112e-01 5.287604e-01 1.014871e-04
<GCONST> 8.453714e+01
<STATE> 6
<NUMMIXES> 2
<MIXTURE> 1 3.540681e-01
<MEAN> 39
 -2.434797e+00 1.161171e+01 6.172282e-01 4.445786e-01 -3.576632e+00 -4.379989e+00 -2.853282e+00 8.452963e-01 3.780526e+00 2.350014e+00 2.582416e+00 7.843518e-01 7.521667e-01 3.300659e+00 2.190260e+00 4.647894e-01 -3.464664e+00 -3.342721e+00 -3.492306e+00 -3.268146e+00 -1.419492e+00 3.580731e-01 -4.035223e-01 1.048322e+00 9.295762e-01 1.182901e-01 -6.886807e-01 -6.179560e-01 -3.815846e-01 4.348690e-02 3.862866e-01 5.235393e-01 3.248046e-01 9.625285e-02 -1.802171e-01 -2.365642e-01 1.026740e-01 2.820779e-01 -8.657746e-03
<VARIANCE> 39
 1.144871e+01 2.869728e+01 1.408062e+01 1.797496e+01 2.216223e+01 2.176057e+01 2.239050e+01 5.212347e+01 2.654729e+01 7.971673e+01 5.282560e+01 4.310542e+01 6.075475e-03 1.084515e+00 1.292852e+00 4.678226e+00 2.407248e+00 2.372192e+00 4.227688e+00 3.470517e+00 3.983021e+00 3.669123e+00 6.789196e+00 4.761942e+00 1.094578e+01 6.744186e-04 1.297994e-01 1.846661e-01 1.865856e-01 4.195100e-01 4.875923e-01 3.656191e-01 4.067638e-01 5.654348e-01 7.272620e-01 6.510999e-01 8.501163e-01 4.731414e-01 7.606552e-05
<GCONST> 9.347454e+01
<MIXTURE> 2 6.459315e-01
<MEAN> 39
 -4.181707e-01 1.173813e+01 3.026429e-01 -2.210713e+00 -6.220119e+00 -6.662519e+00 -6.575279e+00 -1.785453e+00 3.091885e-01 -9.853701e-01 2.743465e+00 -9.611038e-02 8.090926e-01 3.056182e+00 2.161482e+00 2.837475e-01 -3.336703e+00 -3.105107e+00 -3.522474e+00 -3.089764e+00 -1.370033e+00 -1.320728e+00 -1.520669e+00 -1.275920e+00 -1.030591e+00 1.089616e-01 -9.635483e-01 -7.150952e-01 -4.700601e-01 2.846926e-01 7.837166e-01 9.001167e-01 9.732056e-01 7.178844e-01 2.542581e-01 1.328148e-01 -9.589741e-02 -8.335645e-02 -1.905847e-02
<VARIANCE> 39
 9.705511e+00 2.487068e+01 1.370717e+01 1.487498e+01 1.965207e+01 1.710464e+01 1.790052e+01 2.071406e+01 1.797173e+01 3.050114e+01 3.051054e+01 3.620081e+01 4.141563e-03 9.589101e-01 9.817435e-01 2.863515e+00 1.546961e+00 2.161734e+00 3.100309e+00 2.278626e+00 3.403870e+00 3.054381e+00 2.928378e+00 4.942813e+00 3.871022e+00 4.563795e-04 1.008726e-01 1.251421e-01 1.863255e-01 2.672873e-01 3.426127e-01 3.780542e-01 4.315216e-01 3.667875e-01 3.477408e-01 4.409194e-01 7.972683e-01 6.651738e-01 7.967810e-05
<GCONST> 8.166440e+01
<STATE> 7
<NUMMIXES> 2
<MIXTURE> 1 2.788841e-01
<MEAN> 39
 6.000497e-01 1.165706e+01 -2.054696e+00 -5.371974e+00 -7.933863e+00 -7.270481e+00 -4.589143e+00 1.874687e+00 5.090627e+00 4.434870e+00 6.602125e+00 5.115132e+00 8.397185e-01 1.301793e+00 9.260101e-01 -8.641382e-01 -2.546005e+00 -1.949316e+00 -2.278886e+00 -1.848372e+00 -1.321785e+00 -4.369659e-01 -6.144834e-01 9.133105e-01 2.206572e+00 8.367986e-02 -1.151442e+00 -6.937947e-01 -1.153550e-01 1.038733e+00 1.267656e+00 1.210109e+00 9.048090e-01 2.119287e-01 -5.277681e-01 -4.315960e-01 -6.285597e-01 -4.005039e-01 -2.919528e-02
<VARIANCE> 39
 1.057044e+01 2.977528e+01 2.250087e+01 1.553964e+01 1.980173e+01 2.424645e+01 3.835304e+01 4.448214e+01 2.940979e+01 1.014864e+02 2.586457e+01 7.139629e+01 4.942514e-03 1.293453e+00 1.136163e+00 2.530145e+00 1.714292e+00 2.403155e+00 3.816507e+00 2.527464e+00 4.558532e+00 3.688072e+00 6.356573e+00 6.513283e+00 8.915578e+00 8.697422e-04 1.055844e-01 1.720113e-01 3.480916e-01 3.971513e-01 3.683072e-01 4.903052e-01 4.947301e-01 5.840326e-01 6.494382e-01 8.926539e-01 5.898089e-01 8.612850e-01 7.719344e-05
<GCONST> 9.416389e+01
<MIXTURE> 2 7.211154e-01
<MEAN> 39
 4.449019e-01 1.164795e+01 -1.713871e-01 -5.134605e+00 -6.643604e+00 -7.242111e+00 -6.724977e+00 -1.271514e+00 5.343168e-01 -2.637204e+00 4.205505e-01 -2.061842e+00 8.658969e-01 1.293213e+00 7.824675e-01 -2.856189e-01 -2.526816e+00 -1.547300e+00 -1.552896e+00 -1.383784e+00 -6.717649e-02 -4.769860e-01 -9.821000e-01 -9.115367e-01 -1.079187e+00 5.840995e-02 -1.179191e+00 -7.450759e-01 -3.569807e-01 7.985878e-01 1.009139e+00 1.066321e+00 1.041570e+00 5.593844e-01 2.642305e-01 3.448630e-01 2.684108e-01 2.658923e-01 -2.925533e-02
<VARIANCE> 39
